~o
<STREAMINFO> 1 15
<VECSIZE> 15<NULLD><USER><DIAGC>
~h "adrian"
<BEGINHMM>
<NUMSTATES> 6
<STATE> 2
<MEAN> 15
 -4.949852e+01 3.433268e+00 9.604518e-01 2.480610e+00 -1.637931e+00 -3.308299e+00 -7.433631e-01 -8.301893e-01 4.574171e-01 8.751760e-01 -8.277367e-01 6.299080e-01 -5.432884e-01 4.307275e-02 -9.285192e-02
<VARIANCE> 15
 2.440328e+01 5.164451e+00 1.447263e+00 5.699028e+00 7.625771e-01 2.049832e+00 3.975415e-01 8.591894e-01 1.210164e+00 7.148398e-01 2.734933e-01 5.156171e-01 3.425418e-01 1.974233e-01 4.074515e-01
<GCONST> 2.819171e+01
<STATE> 3
<MEAN> 15
 -5.339173e+01 3.210359e+00 2.829499e+00 1.000882e+00 1.168086e+00 -1.096698e+00 -1.702462e+00 -1.019873e+00 1.499607e-01 7.132496e-01 -7.274346e-01 5.754146e-02 1.334190e-02 4.422541e-01 -1.720165e-01
<VARIANCE> 15
 7.108445e+00 1.378252e+01 1.413680e+00 1.313546e+00 1.347031e+00 2.451539e-01 9.715319e-01 1.074025e+00 1.786950e-01 2.161730e-01 3.255877e-01 2.414014e-01 2.413871e-01 2.215623e-01 1.949382e-01
<GCONST> 2.134569e+01
<STATE> 4
<MEAN> 15
 -5.196656e+01 5.177010e+00 8.725036e-01 1.176574e+00 2.729974e-01 -2.274856e+00 -2.280848e+00 -9.684343e-01 1.030661e+00 1.186913e+00 -6.134284e-01 1.010243e-02 5.568023e-01 7.149605e-02 -7.564932e-01
<VARIANCE> 15
 3.743942e+00 1.690623e+00 4.804883e-01 5.597835e-01 3.228039e-01 5.337897e-01 4.172570e-01 4.133295e-01 1.407000e-01 2.923268e-01 2.936693e-01 1.881956e-01 2.146076e-01 1.334686e-01 1.991300e-01
<GCONST> 1.333099e+01
<STATE> 5
<MEAN> 15
 -6.063705e+01 2.289605e-04 2.034506e+00 1.138878e+00 4.239509e-01 1.004843e-01 -1.502247e-01 9.724993e-02 3.234712e-01 5.652336e-01 2.393767e-01 1.228380e-01 -1.940387e-01 -4.517522e-02 -1.330122e-01
<VARIANCE> 15
 4.545578e+00 5.150285e+00 1.604641e+00 4.143305e-01 3.851305e-01 3.316575e-01 2.029251e-01 1.616432e-01 1.511739e-01 1.746908e-01 1.272862e-01 1.965436e-01 1.855667e-01 1.895375e-01 1.748907e-01
<GCONST> 1.242471e+01
<TRANSP> 6
 0.000000e+00 1.000000e+00 0.000000e+00 0.000000e+00 0.000000e+00 0.000000e+00
 0.000000e+00 7.468355e-01 2.531646e-01 0.000000e+00 0.000000e+00 0.000000e+00
 0.000000e+00 0.000000e+00 6.875000e-01 3.125000e-01 0.000000e+00 0.000000e+00
 0.000000e+00 0.000000e+00 0.000000e+00 6.875000e-01 3.125000e-01 0.000000e+00
 0.000000e+00 0.000000e+00 0.000000e+00 0.000000e+00 6.825397e-01 3.174603e-01
 0.000000e+00 0.000000e+00 0.000000e+00 0.000000e+00 0.000000e+00 0.000000e+00
<ENDHMM>
