~o
<STREAMINFO> 1 12
<VECSIZE> 12<NULLD><USER><DIAGC>
~h "adrian"
<BEGINHMM>
<NUMSTATES> 6
<STATE> 2
<MEAN> 12
 -2.498963e+02 4.171043e+00 -1.998942e+00 -2.954209e+00 1.960538e-02 -2.182227e+00 8.638496e-01 2.474110e+00 1.179139e+00 -3.938235e-01 8.490929e-01 -3.245099e-01
<VARIANCE> 12
 3.386240e+02 1.432555e+01 7.251907e+00 6.310326e+00 1.185095e+01 6.384421e+00 4.870347e+00 3.847007e+00 2.814911e+00 3.733654e+00 2.075348e+00 1.068365e+00
<GCONST> 4.477021e+01
<STATE> 3
<MEAN> 12
 -2.776712e+02 1.071063e+01 6.007048e+00 -4.401873e+00 -5.907108e-01 -9.080138e-01 9.721671e-01 1.299989e+00 1.913934e+00 1.160623e+00 1.085773e-01 1.933873e-01
<VARIANCE> 12
 2.420670e+02 1.987920e+01 1.020752e+01 1.169598e+01 3.501341e+00 6.182788e+00 2.813109e+00 2.966403e+00 3.186858e+00 2.056937e+00 1.572887e+00 1.186750e+00
<GCONST> 4.301672e+01
<STATE> 4
<MEAN> 12
 -2.698293e+02 4.504154e+00 4.602946e+00 -7.610257e+00 2.013190e+00 1.225192e-01 3.259251e+00 -1.120062e-01 9.338247e-01 4.405007e-01 -1.546113e-01 2.455601e+00
<VARIANCE> 12
 7.888377e+01 7.229153e+00 3.497380e+00 2.612217e+00 1.465256e+00 3.550352e+00 1.486077e+00 1.492456e+00 2.868809e+00 1.645578e+00 8.697845e-01 1.180216e+00
<GCONST> 3.463666e+01
<STATE> 5
<MEAN> 12
 -3.126658e+02 7.284715e+00 2.272813e+00 -3.398619e-01 1.078099e+00 2.179892e+00 8.257812e-01 7.374334e-01 1.773584e-01 -1.629918e-01 2.888806e-01 5.091717e-01
<VARIANCE> 12
 1.849095e+02 2.385297e+01 4.981821e+00 3.971826e+00 2.007203e+00 2.706262e+00 2.086800e+00 2.217321e+00 2.018293e+00 1.158376e+00 1.262007e+00 1.539754e+00
<GCONST> 3.816916e+01
<TRANSP> 6
 0.000000e+00 1.000000e+00 0.000000e+00 0.000000e+00 0.000000e+00 0.000000e+00
 0.000000e+00 9.074074e-01 9.259259e-02 0.000000e+00 0.000000e+00 0.000000e+00
 0.000000e+00 0.000000e+00 9.277979e-01 7.220217e-02 0.000000e+00 0.000000e+00
 0.000000e+00 0.000000e+00 0.000000e+00 8.952880e-01 1.047120e-01 0.000000e+00
 0.000000e+00 0.000000e+00 0.000000e+00 0.000000e+00 9.193549e-01 8.064515e-02
 0.000000e+00 0.000000e+00 0.000000e+00 0.000000e+00 0.000000e+00 0.000000e+00
<ENDHMM>
