~o
<STREAMINFO> 1 12
<VECSIZE> 12<NULLD><USER><DIAGC>
~h "adrian"
<BEGINHMM>
<NUMSTATES> 6
<STATE> 2
<MEAN> 12
 -2.516427e+02 3.450075e+00 -2.037727e+00 -3.472100e+00 5.428341e-02 -1.904256e+00 3.608705e-01 1.868077e+00 6.811879e-01 -3.426917e-01 4.757199e-01 -6.042681e-01
<VARIANCE> 12
 6.995021e+02 1.501016e+01 9.418019e+00 5.446053e+00 1.054189e+01 7.034376e+00 6.073650e+00 4.117037e+00 3.860345e+00 4.071114e+00 2.416467e+00 7.761224e-01
<GCONST> 4.615993e+01
<STATE> 3
<MEAN> 12
 -2.706783e+02 1.119532e+01 5.872372e+00 -4.372239e+00 -8.832988e-01 -1.090822e+00 5.155015e-01 1.061219e+00 1.836583e+00 1.114195e+00 9.521869e-02 2.790291e-02
<VARIANCE> 12
 1.900984e+02 1.875809e+01 1.121875e+01 1.100885e+01 4.619819e+00 5.510684e+00 2.614576e+00 2.507676e+00 2.363180e+00 2.041414e+00 1.680459e+00 8.707647e-01
<GCONST> 4.212182e+01
<STATE> 4
<MEAN> 12
 -2.631049e+02 4.582591e+00 4.637714e+00 -7.643529e+00 1.795994e+00 -6.763881e-02 2.985319e+00 -8.312199e-02 9.672170e-01 4.037228e-01 -2.297082e-01 2.380868e+00
<VARIANCE> 12
 7.080901e+01 5.689602e+00 2.730172e+00 2.451467e+00 1.575695e+00 3.961255e+00 2.266155e+00 1.739167e+00 4.064657e+00 1.581556e+00 9.892967e-01 1.654618e+00
<GCONST> 3.551049e+01
<STATE> 5
<MEAN> 12
 -3.073926e+02 7.110830e+00 1.998092e+00 -4.501736e-01 1.018468e+00 1.976368e+00 6.308774e-01 5.603590e-01 1.915162e-02 -3.059545e-01 1.019457e-01 6.462263e-01
<VARIANCE> 12
 1.512257e+02 2.529493e+01 5.197241e+00 3.553739e+00 2.227095e+00 2.244829e+00 2.209054e+00 2.421518e+00 2.174480e+00 1.799022e+00 1.958900e+00 1.917541e+00
<GCONST> 3.919378e+01
<TRANSP> 6
 0.000000e+00 1.000000e+00 0.000000e+00 0.000000e+00 0.000000e+00 0.000000e+00
 0.000000e+00 7.142857e-01 2.857143e-01 0.000000e+00 0.000000e+00 0.000000e+00
 0.000000e+00 0.000000e+00 7.260274e-01 2.739726e-01 0.000000e+00 0.000000e+00
 0.000000e+00 0.000000e+00 0.000000e+00 6.610169e-01 3.389831e-01 0.000000e+00
 0.000000e+00 0.000000e+00 0.000000e+00 0.000000e+00 7.058824e-01 2.941177e-01
 0.000000e+00 0.000000e+00 0.000000e+00 0.000000e+00 0.000000e+00 0.000000e+00
<ENDHMM>
