~o
<STREAMINFO> 1 12
<VECSIZE> 12<NULLD><USER><DIAGC>
~h "ali"
<BEGINHMM>
<NUMSTATES> 6
<STATE> 2
<MEAN> 12
 -2.485820e+02 -5.202333e+00 -6.563960e+00 1.936610e+00 -1.686350e-01 -3.169823e-01 -4.146741e+00 3.248767e+00 1.285360e+00 5.400016e-01 -3.532263e-01 -6.684668e-02
<VARIANCE> 12
 1.656373e+03 2.019114e+01 1.032389e+01 7.086512e+00 6.214902e+00 5.901130e+00 4.460135e+00 4.845938e+00 2.824173e+00 2.596032e+00 1.774246e+00 1.018185e+00
<GCONST> 4.602382e+01
<STATE> 3
<MEAN> 12
 -2.361414e+02 3.025910e+00 -1.266887e+01 4.844642e+00 -7.773838e-01 4.128057e+00 -1.953245e+00 2.208535e+00 2.193182e+00 9.571993e-01 1.141883e+00 1.365405e+00
<VARIANCE> 12
 1.619394e+02 3.161511e+01 1.530482e+01 4.856171e+00 3.438716e+00 3.764998e+00 1.028110e+01 3.603173e+00 1.671527e+00 1.041906e+00 9.248988e-01 1.402873e+00
<GCONST> 4.189201e+01
<STATE> 4
<MEAN> 12
 -2.636086e+02 7.809464e+00 1.086318e+00 -4.415573e+00 -4.439787e-01 1.188009e+00 1.760987e+00 1.820500e+00 6.619264e-01 1.170063e+00 1.336417e+00 5.318779e-01
<VARIANCE> 12
 3.594496e+02 2.925287e+01 8.799405e+00 6.280352e+00 3.951182e+00 7.395957e+00 1.753476e+00 2.262968e+00 1.950243e+00 2.287386e+00 1.680605e+00 2.463626e+00
<GCONST> 4.299656e+01
<STATE> 5
<MEAN> 12
 -3.117747e+02 6.389630e+00 3.282559e+00 2.747149e-01 -6.360596e-02 1.033600e+00 1.054468e+00 7.119120e-01 -1.823741e-01 -3.483599e-01 -6.252366e-01 -1.882244e-01
<VARIANCE> 12
 1.397367e+02 3.325217e+01 6.502041e+00 4.501994e+00 2.316833e+00 2.325764e+00 4.037505e+00 1.861551e+00 1.699845e+00 1.315818e+00 1.147388e+00 7.991976e-01
<GCONST> 3.829467e+01
<TRANSP> 6
 0.000000e+00 1.000000e+00 0.000000e+00 0.000000e+00 0.000000e+00 0.000000e+00
 0.000000e+00 6.363636e-01 3.636364e-01 0.000000e+00 0.000000e+00 0.000000e+00
 0.000000e+00 0.000000e+00 6.153846e-01 3.846154e-01 0.000000e+00 0.000000e+00
 0.000000e+00 0.000000e+00 0.000000e+00 6.666667e-01 3.333333e-01 0.000000e+00
 0.000000e+00 0.000000e+00 0.000000e+00 0.000000e+00 4.444444e-01 5.555556e-01
 0.000000e+00 0.000000e+00 0.000000e+00 0.000000e+00 0.000000e+00 0.000000e+00
<ENDHMM>
