~o
<STREAMINFO> 1 15
<VECSIZE> 15<NULLD><USER><DIAGC>
~h "ali"
<BEGINHMM>
<NUMSTATES> 6
<STATE> 2
<MEAN> 15
 -4.793053e+01 4.014054e+00 -2.042508e+00 -4.474717e+00 -1.371506e+00 1.003778e+00 9.386573e-01 9.399661e-01 -8.677465e-02 1.081153e+00 -5.480666e-01 -8.655424e-02 -1.788899e+00 6.183247e-01 4.037187e-01
<VARIANCE> 15
 5.627475e+01 1.362374e+01 2.045374e+00 2.003118e+00 1.034452e+00 2.430212e-01 5.023303e-01 3.064965e-01 4.658271e-01 2.716088e-01 5.704640e-01 3.182907e-01 9.440249e-01 1.905089e-01 1.796206e-01
<GCONST> 2.516272e+01
<STATE> 3
<MEAN> 15
 -4.721468e+01 7.733062e+00 5.471364e-01 -2.150431e+00 -4.170415e+00 -4.454324e-01 9.802563e-01 -4.381201e-01 -4.206020e-01 2.895105e-01 1.155642e+00 6.772187e-01 -1.093181e+00 1.865674e-01 -6.124134e-01
<VARIANCE> 15
 5.800581e+00 6.492787e-01 1.588601e+00 2.545705e+00 1.139583e+00 4.522116e-01 4.022573e-01 1.000193e+00 3.835469e-01 4.981159e-01 3.565712e-01 2.547625e-01 4.753238e-01 2.489068e-01 1.876342e-01
<GCONST> 2.085651e+01
<STATE> 4
<MEAN> 15
 -5.105369e+01 4.700530e+00 1.605105e+00 1.742070e+00 -7.716889e-01 -2.576181e+00 -1.448706e+00 -9.142358e-01 3.198429e-01 1.024437e+00 -8.954589e-02 4.366804e-01 -4.697968e-02 2.449547e-01 -2.509856e-01
<VARIANCE> 15
 1.229744e+01 1.293780e+00 2.953791e+00 2.817990e+00 4.443254e-01 8.101580e-01 3.785134e-01 2.764328e-01 6.279219e-01 6.101331e-01 4.150936e-01 1.685220e-01 1.894482e-01 2.037372e-01 2.942263e-01
<GCONST> 2.107788e+01
<STATE> 5
<MEAN> 15
 -6.069497e+01 -4.067120e-01 2.145875e+00 1.949584e+00 5.851856e-01 -2.553537e-01 -7.503424e-02 3.071044e-02 -3.786792e-02 3.421710e-01 1.992092e-01 3.234195e-01 -4.898474e-03 3.231530e-02 -1.668162e-01
<VARIANCE> 15
 6.365733e+00 5.236411e+00 2.031970e+00 9.014685e-01 3.343024e-01 1.011994e+00 2.702723e-01 1.739179e-01 1.292723e-01 2.264201e-01 1.543825e-01 2.261567e-01 1.552202e-01 1.304543e-01 1.440999e-01
<GCONST> 1.481578e+01
<TRANSP> 6
 0.000000e+00 1.000000e+00 0.000000e+00 0.000000e+00 0.000000e+00 0.000000e+00
 0.000000e+00 7.014925e-01 2.985075e-01 0.000000e+00 0.000000e+00 0.000000e+00
 0.000000e+00 0.000000e+00 5.121951e-01 4.878049e-01 0.000000e+00 0.000000e+00
 0.000000e+00 0.000000e+00 0.000000e+00 6.296296e-01 3.703704e-01 0.000000e+00
 0.000000e+00 0.000000e+00 0.000000e+00 0.000000e+00 5.121951e-01 4.878049e-01
 0.000000e+00 0.000000e+00 0.000000e+00 0.000000e+00 0.000000e+00 0.000000e+00
<ENDHMM>
