~o
<STREAMINFO> 1 12
<VECSIZE> 12<NULLD><USER><DIAGC>
~h "ali"
<BEGINHMM>
<NUMSTATES> 6
<STATE> 2
<MEAN> 12
 -2.400016e+02 -4.892487e+00 -7.083889e+00 2.793399e+00 -1.041044e-01 5.573137e-01 -4.613339e+00 3.982617e+00 1.979548e+00 9.763348e-01 2.847548e-01 3.958998e-01
<VARIANCE> 12
 9.508924e+02 2.316807e+01 7.878038e+00 7.384945e+00 4.915008e+00 5.363043e+00 3.668211e+00 2.907911e+00 2.995743e+00 1.971818e+00 2.032243e+00 1.148446e+00
<GCONST> 4.438089e+01
<STATE> 3
<MEAN> 12
 -2.468985e+02 5.018519e+00 -1.279601e+01 4.172627e+00 -7.788714e-01 4.483397e+00 -6.337246e-01 1.869120e+00 2.065748e+00 1.100636e+00 1.209044e+00 1.368880e+00
<VARIANCE> 12
 1.790851e+02 2.450603e+01 1.759467e+01 6.940876e+00 4.063956e+00 4.480151e+00 7.210504e+00 2.776539e+00 2.112187e+00 1.289459e+00 8.146242e-01 1.220413e+00
<GCONST> 4.214100e+01
<STATE> 4
<MEAN> 12
 -2.703085e+02 8.302992e+00 1.515639e+00 -4.475491e+00 -2.122808e-01 8.258147e-01 1.839668e+00 1.909100e+00 5.996250e-01 9.410324e-01 1.330943e+00 5.060580e-01
<VARIANCE> 12
 3.569259e+02 2.949655e+01 5.258624e+00 4.182755e+00 4.096585e+00 6.762443e+00 2.484434e+00 2.205821e+00 1.874245e+00 1.821691e+00 1.728325e+00 1.555501e+00
<GCONST> 4.164677e+01
<STATE> 5
<MEAN> 12
 -3.188861e+02 6.448009e+00 3.313912e+00 6.717628e-01 4.699263e-02 9.899556e-01 1.035665e+00 6.539959e-01 -8.299479e-02 -2.857599e-01 -5.253924e-01 -7.434832e-02
<VARIANCE> 12
 1.151519e+02 2.965534e+01 6.226360e+00 3.952061e+00 2.393560e+00 2.576626e+00 3.901736e+00 2.042774e+00 1.813923e+00 1.682127e+00 1.325882e+00 1.024131e+00
<GCONST> 3.870992e+01
<TRANSP> 6
 0.000000e+00 1.000000e+00 0.000000e+00 0.000000e+00 0.000000e+00 0.000000e+00
 0.000000e+00 8.958333e-01 1.041667e-01 0.000000e+00 0.000000e+00 0.000000e+00
 0.000000e+00 0.000000e+00 8.830410e-01 1.169591e-01 0.000000e+00 0.000000e+00
 0.000000e+00 0.000000e+00 0.000000e+00 9.000000e-01 9.999999e-02 0.000000e+00
 0.000000e+00 0.000000e+00 0.000000e+00 0.000000e+00 8.425197e-01 1.574803e-01
 0.000000e+00 0.000000e+00 0.000000e+00 0.000000e+00 0.000000e+00 0.000000e+00
<ENDHMM>
