~o
<STREAMINFO> 1 12
<VECSIZE> 12<NULLD><USER><DIAGC>
~h "andrew"
<BEGINHMM>
<NUMSTATES> 6
<STATE> 2
<MEAN> 12
 -2.492958e+02 -2.674950e+00 -1.531193e+00 -7.107233e-01 -9.480153e-02 1.123174e+00 -3.970577e+00 3.819583e+00 -7.929837e-01 1.121884e+00 -1.874154e-01 5.329168e-01
<VARIANCE> 12
 6.455455e+02 4.811891e+01 5.902822e+00 4.404594e+00 5.649012e+00 5.788705e+00 2.954759e+00 4.737185e+00 3.476454e+00 4.520856e+00 1.652990e+00 1.442740e+00
<GCONST> 4.540646e+01
<STATE> 3
<MEAN> 12
 -2.813961e+02 1.546184e+01 1.957801e+00 -1.713547e+00 1.385752e+00 2.313793e+00 5.114088e-01 2.450687e+00 2.005548e+00 9.553356e-01 6.099989e-01 3.649582e-01
<VARIANCE> 12
 5.822882e+01 8.693002e+00 1.196113e+01 5.736257e+00 3.109604e+00 2.530162e+00 1.831836e+00 2.270840e+00 1.470334e+00 2.015481e+00 1.857639e+00 1.588434e+00
<GCONST> 3.816654e+01
<STATE> 4
<MEAN> 12
 -2.725312e+02 8.306428e+00 2.857391e+00 -5.078318e+00 -2.459364e+00 2.690976e+00 7.985743e-01 1.503624e+00 1.863014e+00 -4.370431e-01 2.942291e-01 1.229822e+00
<VARIANCE> 12
 9.866850e+01 8.348715e+00 8.223962e+00 4.550840e+00 3.586267e+00 6.470057e+00 1.588154e+00 2.081146e+00 1.976078e+00 2.186538e+00 1.521743e+00 1.435587e+00
<GCONST> 3.897541e+01
<STATE> 5
<MEAN> 12
 -3.101781e+02 7.991027e+00 3.586458e+00 -2.526145e+00 3.529996e-01 1.248563e+00 1.382051e+00 1.540920e+00 6.144269e-01 -3.519651e-01 -4.625492e-01 -1.507058e-01
<VARIANCE> 12
 2.549240e+02 2.907982e+01 5.361864e+00 1.440323e+01 2.747653e+00 2.144488e+00 3.217135e+00 3.163301e+00 2.606830e+00 1.103734e+00 1.258511e+00 1.029395e+00
<GCONST> 4.072179e+01
<TRANSP> 6
 0.000000e+00 1.000000e+00 0.000000e+00 0.000000e+00 0.000000e+00 0.000000e+00
 0.000000e+00 9.009901e-01 9.900989e-02 0.000000e+00 0.000000e+00 0.000000e+00
 0.000000e+00 0.000000e+00 9.103139e-01 8.968610e-02 0.000000e+00 0.000000e+00
 0.000000e+00 0.000000e+00 0.000000e+00 9.303136e-01 6.968641e-02 0.000000e+00
 0.000000e+00 0.000000e+00 0.000000e+00 0.000000e+00 8.907104e-01 1.092896e-01
 0.000000e+00 0.000000e+00 0.000000e+00 0.000000e+00 0.000000e+00 0.000000e+00
<ENDHMM>
