~o
<STREAMINFO> 1 12
<VECSIZE> 12<NULLD><USER><DIAGC>
~h "andrew"
<BEGINHMM>
<NUMSTATES> 6
<STATE> 2
<MEAN> 12
 -2.544055e+02 -1.820225e+00 -1.916540e+00 -8.262559e-01 -2.130057e-01 6.871535e-01 -3.647421e+00 3.094149e+00 -8.253633e-01 6.832412e-01 -3.461500e-01 1.416730e-01
<VARIANCE> 12
 1.059378e+03 5.854161e+01 6.389990e+00 4.402755e+00 6.015669e+00 6.007109e+00 4.198669e+00 7.170510e+00 3.282257e+00 5.396453e+00 2.011431e+00 1.859698e+00
<GCONST> 4.761225e+01
<STATE> 3
<MEAN> 12
 -2.753352e+02 1.599151e+01 2.162043e+00 -1.823748e+00 1.584966e+00 2.079284e+00 4.056665e-01 2.470840e+00 2.013836e+00 1.132816e+00 6.756411e-01 3.137187e-01
<VARIANCE> 12
 3.596916e+01 4.689466e+00 9.148189e+00 5.948388e+00 3.208688e+00 2.720164e+00 2.029410e+00 2.134392e+00 1.180229e+00 1.039475e+00 1.627364e+00 1.667343e+00
<GCONST> 3.601428e+01
<STATE> 4
<MEAN> 12
 -2.672209e+02 8.432552e+00 3.278383e+00 -5.437697e+00 -2.310712e+00 2.484483e+00 8.765962e-01 1.512315e+00 1.778218e+00 -5.598165e-01 1.224350e-01 1.019702e+00
<VARIANCE> 12
 9.794452e+01 7.841644e+00 1.043178e+01 4.953867e+00 3.533039e+00 5.710624e+00 2.057779e+00 2.473831e+00 2.023394e+00 2.656603e+00 1.520694e+00 1.859615e+00
<GCONST> 3.999664e+01
<STATE> 5
<MEAN> 12
 -3.093478e+02 6.588421e+00 2.677621e+00 -1.626881e+00 3.906211e-01 1.075316e+00 1.124500e+00 1.271724e+00 3.457209e-01 -5.740898e-01 -5.312344e-01 -1.764387e-01
<VARIANCE> 12
 1.718358e+02 3.677607e+01 3.944827e+00 1.115409e+01 2.424100e+00 1.912796e+00 3.106544e+00 2.664456e+00 2.900936e+00 1.653383e+00 1.931085e+00 1.262371e+00
<GCONST> 4.069659e+01
<TRANSP> 6
 0.000000e+00 1.000000e+00 0.000000e+00 0.000000e+00 0.000000e+00 0.000000e+00
 0.000000e+00 7.297298e-01 2.702703e-01 0.000000e+00 0.000000e+00 0.000000e+00
 0.000000e+00 0.000000e+00 6.296296e-01 3.703704e-01 0.000000e+00 0.000000e+00
 0.000000e+00 0.000000e+00 0.000000e+00 7.777778e-01 2.222222e-01 0.000000e+00
 0.000000e+00 0.000000e+00 0.000000e+00 0.000000e+00 5.744681e-01 4.255319e-01
 0.000000e+00 0.000000e+00 0.000000e+00 0.000000e+00 0.000000e+00 0.000000e+00
<ENDHMM>
