~o
<STREAMINFO> 1 15
<VECSIZE> 15<NULLD><USER><DIAGC>
~h "andrew"
<BEGINHMM>
<NUMSTATES> 6
<STATE> 2
<MEAN> 15
 -4.962019e+01 2.838205e+00 -1.590362e+00 -2.009716e+00 -3.057426e-01 2.518940e-01 -1.406254e-01 1.149269e-01 2.233348e-01 1.227365e+00 -5.425666e-01 7.173131e-02 -1.705244e+00 5.525081e-01 1.103006e-01
<VARIANCE> 15
 4.777818e+01 1.056607e+01 2.558236e+00 1.430221e+00 5.782166e-01 5.690676e-01 4.263511e-01 8.230922e-01 4.520648e-01 4.855741e-01 3.425858e-01 2.979852e-01 8.383035e-01 2.500328e-01 1.916284e-01
<GCONST> 2.591775e+01
<STATE> 3
<MEAN> 15
 -5.350291e+01 5.290333e+00 3.369535e+00 3.656574e-01 -4.078070e-02 -8.975703e-01 -1.144595e+00 -4.647704e-01 2.164537e-01 6.204796e-01 -7.117845e-02 -7.347199e-02 -4.788778e-01 2.139889e-01 -3.914695e-02
<VARIANCE> 15
 2.869943e+00 7.079243e+00 1.231448e+00 6.376424e-01 1.567401e+00 4.692801e-01 4.493537e-01 3.907307e-01 2.458913e-01 2.588312e-01 2.439586e-01 2.365385e-01 4.334107e-01 2.211937e-01 1.664758e-01
<GCONST> 1.854647e+01
<STATE> 4
<MEAN> 15
 -5.207155e+01 6.435379e+00 1.558523e+00 -8.338181e-01 2.129222e-01 -4.006608e-01 -2.301645e+00 -2.318390e+00 1.649023e-02 1.402316e+00 2.529207e-01 -1.526092e-01 7.343054e-02 3.345629e-01 -1.807738e-01
<VARIANCE> 15
 2.978808e+00 1.408695e+00 5.124105e-01 1.000936e+00 5.336744e-01 3.942052e-01 3.331663e-01 2.113080e-01 2.059642e-01 1.888327e-01 4.429822e-01 1.568365e-01 2.000664e-01 1.282708e-01 2.270341e-01
<GCONST> 1.306315e+01
<STATE> 5
<MEAN> 15
 -6.038902e+01 3.462918e-01 1.988819e+00 1.278545e+00 5.818884e-01 -4.518406e-04 -7.508953e-01 -3.098489e-01 2.267389e-01 4.568748e-01 1.073575e-01 1.300538e-01 2.183878e-01 2.413929e-01 -4.458839e-02
<VARIANCE> 15
 7.432950e+00 7.949396e+00 2.061387e+00 4.628969e-01 2.482007e-01 5.076144e-01 1.235407e+00 5.265407e-01 1.467184e-01 1.689803e-01 1.653027e-01 2.498943e-01 3.669170e-01 2.300546e-01 1.809105e-01
<GCONST> 1.803300e+01
<TRANSP> 6
 0.000000e+00 1.000000e+00 0.000000e+00 0.000000e+00 0.000000e+00 0.000000e+00
 0.000000e+00 6.774194e-01 3.225806e-01 0.000000e+00 0.000000e+00 0.000000e+00
 0.000000e+00 0.000000e+00 7.468355e-01 2.531646e-01 0.000000e+00 0.000000e+00
 0.000000e+00 0.000000e+00 0.000000e+00 7.297298e-01 2.702703e-01 0.000000e+00
 0.000000e+00 0.000000e+00 0.000000e+00 0.000000e+00 6.000000e-01 4.000000e-01
 0.000000e+00 0.000000e+00 0.000000e+00 0.000000e+00 0.000000e+00 0.000000e+00
<ENDHMM>
