~o
<STREAMINFO> 1 12
<VECSIZE> 12<NULLD><USER><DIAGC>
~h "andy"
<BEGINHMM>
<NUMSTATES> 6
<STATE> 2
<MEAN> 12
 -2.542405e+02 -5.059940e+00 -2.656845e-01 -1.921926e+00 3.554127e-01 4.414144e-01 -3.823196e+00 2.742431e+00 -5.093140e-01 6.520929e-01 -7.630963e-01 9.412827e-02
<VARIANCE> 12
 1.123062e+03 2.137804e+01 1.207360e+01 4.341053e+00 7.555580e+00 5.640958e+00 5.075231e+00 3.299356e+00 2.925274e+00 3.799559e+00 2.554111e+00 1.823165e+00
<GCONST> 4.661683e+01
<STATE> 3
<MEAN> 12
 -2.721137e+02 1.202038e+01 6.119710e-01 -2.512426e-01 2.019122e-03 3.814856e+00 -7.966658e-01 1.780298e+00 1.477884e+00 -5.618114e-02 1.270096e+00 6.524746e-01
<VARIANCE> 12
 1.149617e+02 8.867158e+00 4.987498e+00 2.994755e+00 3.351947e+00 3.763889e+00 1.730719e+00 3.423495e+00 1.471440e+00 2.807463e+00 2.035116e+00 2.724436e+00
<GCONST> 3.913081e+01
<STATE> 4
<MEAN> 12
 -2.679794e+02 7.268752e+00 1.826769e+00 -4.101613e+00 -3.859629e-01 -5.183059e-01 2.510181e+00 2.977173e+00 2.032867e+00 -6.087542e-01 8.502234e-01 -2.610499e-01
<VARIANCE> 12
 1.834638e+02 1.956355e+01 3.003877e+00 3.981927e+00 6.626863e+00 2.657533e+00 1.392393e+00 1.270738e+00 1.429685e+00 1.460288e+00 1.436027e+00 1.202853e+00
<GCONST> 3.744370e+01
<STATE> 5
<MEAN> 12
 -3.044017e+02 7.100959e+00 3.533985e+00 -6.090711e-01 -1.999074e+00 4.451885e-01 1.276360e+00 1.207099e+00 7.602565e-01 4.016826e-01 -1.899616e-02 1.603448e-01
<VARIANCE> 12
 1.654183e+02 2.358483e+01 3.045880e+00 3.080709e+00 2.479076e+00 1.403429e+00 1.520685e+00 1.724899e+00 1.524829e+00 1.554164e+00 1.568434e+00 8.089496e-01
<GCONST> 3.587457e+01
<TRANSP> 6
 0.000000e+00 1.000000e+00 0.000000e+00 0.000000e+00 0.000000e+00 0.000000e+00
 0.000000e+00 7.142857e-01 2.857143e-01 0.000000e+00 0.000000e+00 0.000000e+00
 0.000000e+00 0.000000e+00 6.875000e-01 3.125000e-01 0.000000e+00 0.000000e+00
 0.000000e+00 0.000000e+00 0.000000e+00 5.918368e-01 4.081633e-01 0.000000e+00
 0.000000e+00 0.000000e+00 0.000000e+00 0.000000e+00 5.652174e-01 4.347826e-01
 0.000000e+00 0.000000e+00 0.000000e+00 0.000000e+00 0.000000e+00 0.000000e+00
<ENDHMM>
