~o
<STREAMINFO> 1 15
<VECSIZE> 15<NULLD><USER><DIAGC>
~h "andy"
<BEGINHMM>
<NUMSTATES> 6
<STATE> 2
<MEAN> 15
 -4.979134e+01 2.641353e+00 -1.952532e+00 -1.944372e+00 1.639653e-01 1.377739e-01 -4.342505e-01 4.949379e-01 2.475421e-01 1.003313e+00 -5.089573e-01 -9.563577e-02 -1.607094e+00 4.829493e-01 1.574633e-02
<VARIANCE> 15
 4.496649e+01 1.019988e+01 1.485108e+00 1.370758e+00 1.165282e+00 8.286384e-01 5.292188e-01 1.008878e+00 3.541005e-01 3.397414e-01 4.355122e-01 3.035550e-01 8.403330e-01 2.105397e-01 1.934063e-01
<GCONST> 2.622861e+01
<STATE> 3
<MEAN> 15
 -5.304869e+01 6.525396e+00 2.694294e+00 7.653262e-03 -5.248562e-01 -4.589482e-01 -7.191529e-01 -7.090491e-01 -2.813055e-01 5.492961e-01 4.673325e-01 -2.846481e-01 -9.869342e-01 -2.443808e-01 1.983903e-01
<VARIANCE> 15
 3.689368e+00 1.399415e+00 9.039887e-01 7.655055e-01 5.088176e-01 3.644601e-01 2.513410e-01 4.428887e-01 1.678073e-01 1.650206e-01 1.908333e-01 1.690268e-01 2.102884e-01 1.655158e-01 1.904986e-01
<GCONST> 1.292437e+01
<STATE> 4
<MEAN> 15
 -5.309011e+01 2.987942e+00 1.958004e+00 3.465569e+00 -7.310657e-01 -2.442399e+00 -1.217364e+00 -1.141406e+00 2.281231e-01 4.056500e-01 -1.892048e-01 6.387473e-01 2.533438e-01 3.992751e-01 5.571452e-02
<VARIANCE> 15
 7.795574e+00 1.438064e+00 1.254705e+00 9.043251e-01 3.853232e-01 1.596582e+00 3.955391e-01 2.693975e-01 6.442569e-01 1.716583e-01 2.180161e-01 2.251339e-01 2.482540e-01 2.221780e-01 2.093408e-01
<GCONST> 1.770894e+01
<STATE> 5
<MEAN> 15
 -6.023462e+01 -2.841067e-01 2.085541e+00 2.297103e+00 5.376683e-01 -6.000636e-01 -2.744527e-01 -4.204572e-01 -4.634498e-01 1.523550e-01 2.261421e-01 3.551405e-01 2.783968e-01 2.774032e-01 1.344209e-01
<VARIANCE> 15
 4.369562e+00 3.491339e+00 1.629984e+00 7.874471e-01 1.687105e-01 6.738202e-01 2.890283e-01 2.541789e-01 2.030387e-01 1.416897e-01 1.659891e-01 1.208918e-01 1.154076e-01 1.564978e-01 9.282427e-02
<GCONST> 1.190919e+01
<TRANSP> 6
 0.000000e+00 1.000000e+00 0.000000e+00 0.000000e+00 0.000000e+00 0.000000e+00
 0.000000e+00 7.014925e-01 2.985075e-01 0.000000e+00 0.000000e+00 0.000000e+00
 0.000000e+00 0.000000e+00 6.774194e-01 3.225806e-01 0.000000e+00 0.000000e+00
 0.000000e+00 0.000000e+00 0.000000e+00 6.610169e-01 3.389831e-01 0.000000e+00
 0.000000e+00 0.000000e+00 0.000000e+00 0.000000e+00 5.121951e-01 4.878049e-01
 0.000000e+00 0.000000e+00 0.000000e+00 0.000000e+00 0.000000e+00 0.000000e+00
<ENDHMM>
