~o
<STREAMINFO> 1 12
<VECSIZE> 12<NULLD><USER><DIAGC>
~h "andy"
<BEGINHMM>
<NUMSTATES> 6
<STATE> 2
<MEAN> 12
 -2.478848e+02 -4.977313e+00 -2.643853e-02 -1.851549e+00 4.528060e-01 1.020097e+00 -3.792847e+00 3.218721e+00 -9.487206e-02 1.063245e+00 -4.131692e-01 4.011050e-01
<VARIANCE> 12
 5.762083e+02 2.520244e+01 9.712502e+00 3.639311e+00 6.841233e+00 6.673969e+00 3.424595e+00 3.383929e+00 2.803235e+00 3.792362e+00 1.939290e+00 1.933882e+00
<GCONST> 4.515997e+01
<STATE> 3
<MEAN> 12
 -2.787632e+02 1.259957e+01 8.150450e-01 -4.340765e-01 -7.481738e-02 3.985814e+00 -6.774549e-01 1.870667e+00 1.669722e+00 1.360805e-01 1.203303e+00 6.358712e-01
<VARIANCE> 12
 1.231800e+02 9.744558e+00 5.185254e+00 3.569010e+00 3.601233e+00 3.307943e+00 1.939778e+00 3.025629e+00 1.538317e+00 2.555311e+00 2.250654e+00 2.198925e+00
<GCONST> 3.927834e+01
<STATE> 4
<MEAN> 12
 -2.735584e+02 6.273711e+00 1.792241e+00 -4.027200e+00 -4.819170e-01 -9.051098e-01 2.362825e+00 2.732329e+00 1.746606e+00 -6.283563e-01 9.858005e-01 -8.185767e-02
<VARIANCE> 12
 1.911421e+02 1.383296e+01 3.117363e+00 5.271410e+00 8.309366e+00 2.321728e+00 1.860074e+00 1.521586e+00 1.602420e+00 1.503940e+00 1.138898e+00 1.109837e+00
<GCONST> 3.784783e+01
<STATE> 5
<MEAN> 12
 -3.107624e+02 7.404818e+00 3.657284e+00 -4.332528e-01 -1.925336e+00 2.765802e-01 1.422439e+00 1.280263e+00 6.915725e-01 4.573372e-01 -6.627771e-02 2.271883e-01
<VARIANCE> 12
 1.629098e+02 2.377068e+01 3.039958e+00 3.084924e+00 2.723062e+00 1.770584e+00 2.062288e+00 1.765521e+00 1.417459e+00 1.227354e+00 1.224385e+00 9.513180e-01
<GCONST> 3.612613e+01
<TRANSP> 6
 0.000000e+00 1.000000e+00 0.000000e+00 0.000000e+00 0.000000e+00 0.000000e+00
 0.000000e+00 8.994975e-01 1.005025e-01 0.000000e+00 0.000000e+00 0.000000e+00
 0.000000e+00 0.000000e+00 9.176955e-01 8.230452e-02 0.000000e+00 0.000000e+00
 0.000000e+00 0.000000e+00 0.000000e+00 8.787879e-01 1.212121e-01 0.000000e+00
 0.000000e+00 0.000000e+00 0.000000e+00 0.000000e+00 8.773006e-01 1.226994e-01
 0.000000e+00 0.000000e+00 0.000000e+00 0.000000e+00 0.000000e+00 0.000000e+00
<ENDHMM>
