~o
<STREAMINFO> 1 15
<VECSIZE> 15<NULLD><USER><DIAGC>
~h "ce"
<BEGINHMM>
<NUMSTATES> 6
<STATE> 2
<MEAN> 15
 -5.373074e+01 -8.574571e+00 -6.872466e-01 2.675224e+00 -1.567916e-01 -1.511831e+00 5.530981e-01 1.115559e+00 -9.847957e-01 9.866137e-01 1.672772e-01 8.139303e-02 2.951454e-02 5.609939e-01 -1.425860e-01
<VARIANCE> 15
 2.740407e+01 1.357926e+01 1.204268e+00 1.648358e+00 7.087369e-01 9.467056e-01 5.543504e-01 6.007777e-01 5.093282e-01 2.055808e-01 1.623782e-01 1.884306e-01 2.775796e-01 2.042458e-01 1.673822e-01
<GCONST> 2.227353e+01
<STATE> 3
<MEAN> 15
 -4.587240e+01 3.525790e+00 6.300886e-01 5.559672e+00 -1.498618e+00 -5.688654e+00 -5.717908e-01 -7.632749e-01 -1.358752e+00 3.021776e-01 -1.415547e+00 -8.761101e-03 -6.861576e-01 -3.750762e-01 5.824466e-02
<VARIANCE> 15
 2.924899e+00 2.155610e+00 8.215770e-01 3.931151e-01 7.147666e-01 6.431097e-01 7.795988e-01 3.056332e-01 3.271971e-01 4.625410e-01 4.605632e-01 4.822022e-01 6.011441e-01 3.808692e-01 3.179673e-01
<GCONST> 2.005478e+01
<STATE> 4
<MEAN> 15
 -5.180375e+01 2.893414e+00 2.457336e+00 5.601434e+00 -8.929521e-01 -3.611513e+00 3.212288e-01 -1.013908e+00 -1.184711e+00 1.453093e-01 -3.636571e-01 -4.366747e-02 -7.722069e-01 -1.153854e-02 5.396162e-01
<VARIANCE> 15
 9.093470e+00 9.935130e-01 5.322832e-01 6.842247e-01 6.793055e-01 1.606165e+00 1.393868e-01 2.135733e-01 1.257119e-01 1.973472e-01 1.036971e-01 1.197393e-01 2.246622e-01 1.025144e-01 1.535943e-01
<GCONST> 1.160242e+01
<STATE> 5
<MEAN> 15
 -6.059589e+01 -5.936280e-01 1.966929e+00 2.250142e+00 5.298311e-01 -2.284640e-01 9.135373e-02 -1.583000e-01 -3.589038e-01 2.373488e-01 2.586069e-02 1.834685e-01 7.100631e-02 8.528446e-02 2.742841e-02
<VARIANCE> 15
 5.206919e+00 4.851946e+00 2.051594e+00 1.107278e+00 1.975877e-01 8.097926e-01 1.837500e-01 2.482744e-01 3.403470e-01 1.989582e-01 1.177460e-01 9.138723e-02 1.182785e-01 1.199440e-01 1.041708e-01
<GCONST> 1.295660e+01
<TRANSP> 6
 0.000000e+00 1.000000e+00 0.000000e+00 0.000000e+00 0.000000e+00 0.000000e+00
 0.000000e+00 6.721311e-01 3.278688e-01 0.000000e+00 0.000000e+00 0.000000e+00
 0.000000e+00 0.000000e+00 4.594595e-01 5.405405e-01 0.000000e+00 0.000000e+00
 0.000000e+00 0.000000e+00 0.000000e+00 6.078432e-01 3.921569e-01 0.000000e+00
 0.000000e+00 0.000000e+00 0.000000e+00 0.000000e+00 5.348837e-01 4.651163e-01
 0.000000e+00 0.000000e+00 0.000000e+00 0.000000e+00 0.000000e+00 0.000000e+00
<ENDHMM>
