~o
<STREAMINFO> 1 12
<VECSIZE> 12<NULLD><USER><DIAGC>
~h "ce"
<BEGINHMM>
<NUMSTATES> 6
<STATE> 2
<MEAN> 12
 -2.714940e+02 -7.113334e+00 -1.181195e+00 -2.671076e+00 -6.209478e+00 -1.909300e-01 -2.079618e+00 -7.716875e-01 -5.581793e-01 -1.440606e+00 -7.842085e-01 -1.954096e+00
<VARIANCE> 12
 3.584742e+02 1.360388e+01 1.048267e+01 1.140348e+01 4.777781e+00 2.314097e+00 3.272350e+00 1.836918e+00 1.596787e+00 1.873051e+00 1.955037e+00 1.493903e+00
<GCONST> 4.169434e+01
<STATE> 3
<MEAN> 12
 -2.417577e+02 3.431965e+00 2.597358e+00 -2.554351e+00 -4.764552e+00 -2.222207e+00 1.576532e-02 9.792892e-01 3.525481e-01 3.614014e-01 -8.322207e-01 -2.633564e-01
<VARIANCE> 12
 1.429710e+02 1.080357e+01 7.521731e+00 7.330490e+00 3.908013e+00 5.413072e+00 4.789403e+00 4.391726e+00 5.100303e+00 3.622543e+00 2.349440e+00 1.440471e+00
<GCONST> 4.364048e+01
<STATE> 4
<MEAN> 12
 -2.724279e+02 8.903438e+00 3.373453e+00 1.846187e+00 -3.711134e+00 -3.911884e-01 -7.305745e-01 2.215769e+00 -1.580389e-01 2.424004e+00 8.523192e-01 1.909258e+00
<VARIANCE> 12
 3.190353e+02 7.189429e+00 4.893236e+00 2.177686e+00 1.926014e+00 1.484344e+00 2.505749e+00 2.114115e+00 1.832364e+00 1.620415e+00 2.090965e+00 1.582465e+00
<GCONST> 3.716111e+01
<STATE> 5
<MEAN> 12
 -3.147957e+02 6.719223e+00 3.337271e+00 8.050882e-01 -8.561810e-01 7.706078e-01 1.047034e+00 9.468524e-01 6.680933e-01 3.736993e-01 -8.401889e-02 -1.563905e-01
<VARIANCE> 12
 1.569844e+02 3.014199e+01 4.017660e+00 2.584794e+00 2.397272e+00 2.104740e+00 1.680753e+00 2.421931e+00 2.103000e+00 2.122941e+00 1.116217e+00 1.101677e+00
<GCONST> 3.758222e+01
<TRANSP> 6
 0.000000e+00 1.000000e+00 0.000000e+00 0.000000e+00 0.000000e+00 0.000000e+00
 0.000000e+00 8.809524e-01 1.190476e-01 0.000000e+00 0.000000e+00 0.000000e+00
 0.000000e+00 0.000000e+00 8.648649e-01 1.351351e-01 0.000000e+00 0.000000e+00
 0.000000e+00 0.000000e+00 0.000000e+00 8.913044e-01 1.086957e-01 0.000000e+00
 0.000000e+00 0.000000e+00 0.000000e+00 0.000000e+00 8.581560e-01 1.418440e-01
 0.000000e+00 0.000000e+00 0.000000e+00 0.000000e+00 0.000000e+00 0.000000e+00
<ENDHMM>
