~o
<STREAMINFO> 1 12
<VECSIZE> 12<NULLD><USER><DIAGC>
~h "ce"
<BEGINHMM>
<NUMSTATES> 6
<STATE> 2
<MEAN> 12
 -2.749612e+02 -6.512942e+00 -1.011979e+00 -2.013156e+00 -5.270930e+00 -2.080838e-02 -1.695112e+00 -8.004740e-01 -3.333299e-01 -1.249653e+00 -6.115234e-01 -1.604697e+00
<VARIANCE> 12
 7.066694e+02 1.841394e+01 1.092748e+01 1.095666e+01 7.828100e+00 2.510986e+00 3.757426e+00 1.867009e+00 2.147568e+00 2.780684e+00 1.555487e+00 1.979790e+00
<GCONST> 4.415171e+01
<STATE> 3
<MEAN> 12
 -2.346391e+02 2.542377e+00 2.010488e+00 -3.862584e+00 -4.970956e+00 -3.305903e+00 -8.362930e-01 3.795040e-01 -5.071675e-01 -5.124031e-01 -1.374146e+00 -1.094878e+00
<VARIANCE> 12
 8.594724e+01 1.030082e+01 1.032186e+01 7.814641e+00 3.925340e+00 6.505564e+00 6.836047e+00 5.497983e+00 8.375340e+00 4.552005e+00 3.959234e+00 1.922487e+00
<GCONST> 4.576798e+01
<STATE> 4
<MEAN> 12
 -2.647582e+02 8.823938e+00 3.315784e+00 1.537500e+00 -4.144862e+00 -2.612112e-01 -8.945781e-01 2.217145e+00 -1.049611e-01 2.104383e+00 3.928925e-01 1.791332e+00
<VARIANCE> 12
 3.350271e+02 7.653009e+00 4.275707e+00 2.522662e+00 2.295501e+00 1.635677e+00 3.150463e+00 2.255352e+00 2.286934e+00 2.098439e+00 3.010693e+00 2.092754e+00
<GCONST> 3.897502e+01
<STATE> 5
<MEAN> 12
 -3.102276e+02 5.763054e+00 3.040246e+00 7.125409e-01 -9.486718e-01 6.225358e-01 8.652175e-01 7.223657e-01 6.326345e-01 3.059496e-01 7.847230e-02 -3.661447e-01
<VARIANCE> 12
 1.286224e+02 3.264874e+01 3.525551e+00 2.095333e+00 2.723360e+00 1.987289e+00 1.655132e+00 2.757960e+00 1.565710e+00 2.205765e+00 1.156599e+00 1.383799e+00
<GCONST> 3.731370e+01
<TRANSP> 6
 0.000000e+00 1.000000e+00 0.000000e+00 0.000000e+00 0.000000e+00 0.000000e+00
 0.000000e+00 6.610169e-01 3.389831e-01 0.000000e+00 0.000000e+00 0.000000e+00
 0.000000e+00 0.000000e+00 4.444444e-01 5.555556e-01 0.000000e+00 0.000000e+00
 0.000000e+00 0.000000e+00 0.000000e+00 6.551724e-01 3.448276e-01 0.000000e+00
 0.000000e+00 0.000000e+00 0.000000e+00 0.000000e+00 4.871795e-01 5.128205e-01
 0.000000e+00 0.000000e+00 0.000000e+00 0.000000e+00 0.000000e+00 0.000000e+00
<ENDHMM>
