~o
<STREAMINFO> 1 15
<VECSIZE> 15<NULLD><USER><DIAGC>
~h "chaorong"
<BEGINHMM>
<NUMSTATES> 6
<STATE> 2
<MEAN> 15
 -5.332608e+01 -8.336953e+00 -5.302950e-01 1.355248e+00 2.087961e-01 -1.118987e+00 -2.409035e-01 8.175042e-01 -6.707080e-01 1.330640e+00 2.138486e-02 -8.985546e-02 9.308079e-02 7.278804e-01 -3.576559e-01
<VARIANCE> 15
 3.083957e+01 1.826283e+01 1.219576e+00 9.122227e-01 5.911871e-01 6.282471e-01 6.974325e-01 3.773011e-01 6.635298e-01 4.020748e-01 3.990934e-01 3.752475e-01 1.812174e-01 2.894941e-01 1.988178e-01
<GCONST> 2.389988e+01
<STATE> 3
<MEAN> 15
 -4.285220e+01 7.841351e+00 -3.313825e+00 -2.879094e+00 -2.705567e+00 -8.951726e-01 2.536884e-02 -5.181372e-01 1.254478e+00 1.199233e+00 -5.804957e-01 -1.101362e-01 -9.902058e-01 -9.098051e-01 -4.420190e-01
<VARIANCE> 15
 1.289570e+01 1.261294e+00 5.386963e+00 1.387574e+00 1.334064e+00 9.827720e-01 1.141208e+00 6.661183e-01 5.722711e-01 1.346875e+00 8.043772e-01 8.972791e-01 5.770019e-01 3.381541e-01 2.522278e-01
<GCONST> 2.876736e+01
<STATE> 4
<MEAN> 15
 -5.307946e+01 6.998143e+00 2.973767e+00 -1.921245e+00 -2.862248e+00 -1.461457e+00 1.383810e-01 6.266395e-01 5.271049e-01 8.135644e-02 -1.575731e-01 3.402906e-01 3.489019e-01 2.238681e-01 -4.028025e-01
<VARIANCE> 15
 3.553217e+00 1.827210e+00 9.065785e-01 1.216007e+00 3.631416e-01 3.830454e-01 4.921616e-01 2.974927e-01 2.087787e-01 1.534916e-01 2.154614e-01 2.293730e-01 1.042281e-01 3.121126e-01 3.737016e-01
<GCONST> 1.478458e+01
<STATE> 5
<MEAN> 15
 -6.009430e+01 7.916595e-01 2.384208e+00 1.165114e+00 1.169991e-01 -2.147846e-02 -6.929763e-02 1.690792e-01 1.700883e-01 3.534844e-01 3.453719e-01 4.877756e-01 1.448837e-01 4.245388e-02 -2.039334e-01
<VARIANCE> 15
 4.858485e+00 5.899978e+00 2.006122e+00 5.108601e-01 6.184391e-01 5.892292e-01 3.456882e-01 1.837902e-01 1.493070e-01 1.222052e-01 1.574864e-01 1.978265e-01 1.733905e-01 1.619350e-01 1.549751e-01
<GCONST> 1.427285e+01
<TRANSP> 6
 0.000000e+00 1.000000e+00 0.000000e+00 0.000000e+00 0.000000e+00 0.000000e+00
 0.000000e+00 6.428571e-01 3.571429e-01 0.000000e+00 0.000000e+00 0.000000e+00
 0.000000e+00 0.000000e+00 7.340426e-01 2.659574e-01 0.000000e+00 0.000000e+00
 0.000000e+00 0.000000e+00 0.000000e+00 8.322148e-01 1.677852e-01 0.000000e+00
 0.000000e+00 0.000000e+00 0.000000e+00 0.000000e+00 7.093023e-01 2.906977e-01
 0.000000e+00 0.000000e+00 0.000000e+00 0.000000e+00 0.000000e+00 0.000000e+00
<ENDHMM>
