~o
<STREAMINFO> 1 12
<VECSIZE> 12<NULLD><USER><DIAGC>
~h "chaorong"
<BEGINHMM>
<NUMSTATES> 6
<STATE> 2
<MEAN> 12
 -2.706516e+02 -5.404917e+00 -5.569521e-01 -4.723844e+00 -4.917561e+00 -1.661367e-01 -2.028030e+00 -6.759103e-01 -1.133801e+00 -1.404274e+00 -1.336949e+00 -1.896253e+00
<VARIANCE> 12
 8.795750e+02 1.856543e+01 6.151445e+00 1.202036e+01 1.352574e+01 3.462932e+00 4.994623e+00 2.056661e+00 2.486736e+00 1.926676e+00 2.224818e+00 1.385703e+00
<GCONST> 4.492736e+01
<STATE> 3
<MEAN> 12
 -2.175690e+02 -9.237877e+00 -8.457721e+00 6.949707e-01 3.353880e+00 1.268999e+00 -4.543050e-02 -1.649637e+00 2.009136e+00 -5.379489e-02 -4.267408e-01 3.518251e-02
<VARIANCE> 12
 3.242976e+02 5.759901e+01 1.698701e+01 1.135248e+01 5.856142e+00 6.377240e+00 5.336567e+00 3.682950e+00 3.595410e+00 2.791623e+00 3.897583e+00 4.708965e+00
<GCONST> 4.896621e+01
<STATE> 4
<MEAN> 12
 -2.703050e+02 1.357017e+01 -8.495610e+00 5.408077e-02 2.923829e+00 4.363354e-01 2.576347e+00 1.564855e+00 -1.124764e-01 8.021059e-02 9.183820e-01 1.719566e+00
<VARIANCE> 12
 1.279007e+02 1.178675e+01 5.386677e+00 5.159104e+00 2.373133e+00 2.538775e+00 2.465056e+00 4.724396e+00 2.683984e+00 1.226694e+00 9.582248e-01 1.350128e+00
<GCONST> 3.839745e+01
<STATE> 5
<MEAN> 12
 -3.071004e+02 8.357380e+00 1.566185e+00 1.259848e-01 7.475411e-01 1.622454e+00 2.016950e+00 9.592972e-01 9.177873e-01 -5.145082e-01 -1.655019e-01 3.779900e-01
<VARIANCE> 12
 1.210466e+02 3.498684e+01 4.094466e+00 3.846140e+00 2.817830e+00 2.219679e+00 3.014244e+00 2.736411e+00 2.774386e+00 1.242791e+00 1.234781e+00 1.488446e+00
<GCONST> 3.895212e+01
<TRANSP> 6
 0.000000e+00 1.000000e+00 0.000000e+00 0.000000e+00 0.000000e+00 0.000000e+00
 0.000000e+00 6.478873e-01 3.521127e-01 0.000000e+00 0.000000e+00 0.000000e+00
 0.000000e+00 0.000000e+00 7.159091e-01 2.840909e-01 0.000000e+00 0.000000e+00
 0.000000e+00 0.000000e+00 0.000000e+00 8.417721e-01 1.582278e-01 0.000000e+00
 0.000000e+00 0.000000e+00 0.000000e+00 0.000000e+00 6.951219e-01 3.048781e-01
 0.000000e+00 0.000000e+00 0.000000e+00 0.000000e+00 0.000000e+00 0.000000e+00
<ENDHMM>
