~o
<STREAMINFO> 1 12
<VECSIZE> 12<NULLD><USER><DIAGC>
~h "chaorong"
<BEGINHMM>
<NUMSTATES> 6
<STATE> 2
<MEAN> 12
 -2.662628e+02 -5.645284e+00 2.263869e-01 -5.319874e+00 -5.092710e+00 3.313653e-03 -1.937304e+00 -2.098715e-01 -7.469635e-01 -1.250814e+00 -9.774061e-01 -1.408769e+00
<VARIANCE> 12
 3.542545e+02 2.012658e+01 7.749056e+00 7.532010e+00 1.343439e+01 3.104720e+00 4.257441e+00 2.694560e+00 3.134510e+00 1.240018e+00 1.813357e+00 1.686181e+00
<GCONST> 4.363920e+01
<STATE> 3
<MEAN> 12
 -2.224269e+02 -8.858141e+00 -8.153584e+00 8.981460e-01 3.592651e+00 1.416087e+00 1.370176e-01 -1.379745e+00 2.278752e+00 3.374213e-01 -1.194259e-01 4.947268e-01
<VARIANCE> 12
 3.393380e+02 5.524509e+01 1.445843e+01 1.081290e+01 6.332528e+00 5.301721e+00 4.194288e+00 3.515848e+00 3.464471e+00 2.069694e+00 3.147267e+00 4.354261e+00
<GCONST> 4.773771e+01
<STATE> 4
<MEAN> 12
 -2.765468e+02 1.352537e+01 -8.374742e+00 6.904018e-02 2.873158e+00 4.782220e-01 2.509051e+00 1.643708e+00 -1.406241e-01 4.487499e-02 9.309701e-01 1.575769e+00
<VARIANCE> 12
 1.303623e+02 1.198272e+01 5.925969e+00 4.842643e+00 2.522486e+00 2.295097e+00 2.311809e+00 4.934043e+00 2.797482e+00 1.145959e+00 1.038989e+00 1.292201e+00
<GCONST> 3.841488e+01
<STATE> 5
<MEAN> 12
 -3.134529e+02 8.747107e+00 1.681279e+00 2.029046e-01 7.646014e-01 1.519437e+00 1.825341e+00 9.685867e-01 7.940491e-01 -4.672396e-01 -1.922431e-01 2.876649e-01
<VARIANCE> 12
 1.178709e+02 3.517167e+01 4.326784e+00 3.544397e+00 2.728116e+00 2.192474e+00 2.961979e+00 2.681221e+00 2.279170e+00 8.616622e-01 9.833022e-01 1.315686e+00
<GCONST> 3.790776e+01
<TRANSP> 6
 0.000000e+00 1.000000e+00 0.000000e+00 0.000000e+00 0.000000e+00 0.000000e+00
 0.000000e+00 8.798077e-01 1.201923e-01 0.000000e+00 0.000000e+00 0.000000e+00
 0.000000e+00 0.000000e+00 9.183006e-01 8.169935e-02 0.000000e+00 0.000000e+00
 0.000000e+00 0.000000e+00 0.000000e+00 9.562172e-01 4.378284e-02 0.000000e+00
 0.000000e+00 0.000000e+00 0.000000e+00 0.000000e+00 9.128920e-01 8.710802e-02
 0.000000e+00 0.000000e+00 0.000000e+00 0.000000e+00 0.000000e+00 0.000000e+00
<ENDHMM>
