~o
<STREAMINFO> 1 12
<VECSIZE> 12<NULLD><USER><DIAGC>
~h "jeremy"
<BEGINHMM>
<NUMSTATES> 6
<STATE> 2
<MEAN> 12
 -2.484958e+02 -3.544805e+00 1.090793e+00 -4.999629e+00 -1.057030e+00 6.581237e-01 3.021176e-01 7.333280e-02 -1.731976e-01 4.111758e-01 -1.136704e+00 9.356662e-01
<VARIANCE> 12
 1.163739e+03 2.376239e+01 1.843344e+01 1.528588e+01 1.251944e+01 5.012559e+00 4.500098e+00 2.946221e+00 2.968308e+00 1.340563e+00 2.204047e+00 2.383259e+00
<GCONST> 4.768682e+01
<STATE> 3
<MEAN> 12
 -2.499453e+02 2.792294e+00 -3.506926e+00 -4.096108e-01 -1.077758e+00 5.538328e+00 3.043096e-01 8.099477e-01 -3.857736e-01 1.245629e+00 4.764526e-02 3.314012e+00
<VARIANCE> 12
 1.166970e+02 6.983314e+00 7.746024e+00 3.020203e+00 2.940655e+00 1.689615e+00 1.128575e+00 1.846030e+00 1.285304e+00 9.027372e-01 9.484124e-01 8.455957e-01
<GCONST> 3.417525e+01
<STATE> 4
<MEAN> 12
 -2.828244e+02 8.258131e+00 1.379404e+00 -2.624923e+00 6.811762e-01 4.273383e+00 1.456725e+00 9.307392e-01 4.389091e-01 8.730727e-01 1.781750e-01 1.613123e+00
<VARIANCE> 12
 7.304054e+01 9.945727e+00 7.647468e+00 6.846866e+00 3.869325e+00 3.151835e+00 1.286002e+00 1.214655e+00 1.661230e+00 1.142073e+00 7.778612e-01 7.348840e-01
<GCONST> 3.562906e+01
<STATE> 5
<MEAN> 12
 -3.097467e+02 5.132682e+00 2.951467e+00 -7.941685e-01 1.355734e+00 2.310159e+00 2.178789e+00 1.186863e+00 5.130485e-01 2.944385e-01 9.145475e-02 6.024644e-01
<VARIANCE> 12
 1.349047e+02 1.851020e+01 5.205956e+00 5.401704e+00 3.009674e+00 3.252904e+00 2.264612e+00 1.699337e+00 1.048678e+00 8.081383e-01 8.844066e-01 8.470133e-01
<GCONST> 3.638859e+01
<TRANSP> 6
 0.000000e+00 1.000000e+00 0.000000e+00 0.000000e+00 0.000000e+00 0.000000e+00
 0.000000e+00 7.590361e-01 2.409639e-01 0.000000e+00 0.000000e+00 0.000000e+00
 0.000000e+00 0.000000e+00 6.428571e-01 3.571429e-01 0.000000e+00 0.000000e+00
 0.000000e+00 0.000000e+00 0.000000e+00 6.551724e-01 3.448276e-01 0.000000e+00
 0.000000e+00 0.000000e+00 0.000000e+00 0.000000e+00 6.875000e-01 3.125000e-01
 0.000000e+00 0.000000e+00 0.000000e+00 0.000000e+00 0.000000e+00 0.000000e+00
<ENDHMM>
