~o
<STREAMINFO> 1 15
<VECSIZE> 15<NULLD><USER><DIAGC>
~h "jeremy"
<BEGINHMM>
<NUMSTATES> 6
<STATE> 2
<MEAN> 15
 -4.957180e+01 8.677155e-01 -1.045180e+00 1.340448e+00 -1.826279e-01 -2.472387e+00 -1.202526e+00 -6.383034e-01 2.699824e-01 1.203863e+00 -2.527431e-01 5.019799e-02 9.191478e-02 3.835891e-01 -4.044825e-01
<VARIANCE> 15
 5.007804e+01 4.015556e+01 2.944932e+00 2.335241e+00 1.188251e+00 1.469232e+00 2.467496e+00 1.374712e+00 1.092998e+00 5.373093e-01 4.248144e-01 1.713938e-01 3.150237e-01 2.423463e-01 2.154629e-01
<GCONST> 3.162176e+01
<STATE> 3
<MEAN> 15
 -4.800833e+01 8.649470e+00 -7.724715e-01 -4.030289e+00 -8.422728e-01 6.754177e-01 -1.153718e+00 -2.041555e+00 7.296419e-01 2.128265e+00 4.431597e-01 -1.969665e-01 -4.666423e-01 -1.013422e-02 -7.438874e-01
<VARIANCE> 15
 6.393895e+00 7.990437e-01 1.030556e+00 6.744385e-01 6.842968e-01 3.354399e-01 3.665701e-01 4.402457e-01 4.392138e-01 1.611626e-01 2.400865e-01 1.658068e-01 1.512871e-01 1.135405e-01 2.243134e-01
<GCONST> 1.410904e+01
<STATE> 4
<MEAN> 15
 -5.546799e+01 4.362039e+00 1.852983e+00 5.623231e-02 -4.361631e-02 -3.884318e-01 -1.056298e+00 -5.531779e-01 3.920816e-01 1.130387e+00 6.271077e-01 -3.907049e-03 -1.224204e-01 -3.277216e-02 -3.781748e-01
<VARIANCE> 15
 2.966582e+00 1.737139e+00 8.431436e-01 2.595031e+00 3.136370e-01 9.052293e-01 3.825501e-01 2.883187e-01 3.422129e-01 4.162513e-01 2.009177e-01 2.161173e-01 1.268565e-01 1.340761e-01 7.743063e-02
<GCONST> 1.480911e+01
<STATE> 5
<MEAN> 15
 -6.084347e+01 -4.077141e-01 1.550051e+00 1.612630e+00 5.785307e-01 -2.228195e-01 -1.383246e-01 4.870616e-01 3.910858e-01 5.729380e-01 5.116644e-01 5.442934e-01 1.228803e-01 -1.645524e-02 -6.274727e-02
<VARIANCE> 15
 5.034117e+00 4.556391e+00 1.044599e+00 6.507168e-01 3.718332e-01 8.730305e-01 3.870308e-01 2.442790e-01 1.951186e-01 1.509467e-01 2.202273e-01 1.808210e-01 1.348548e-01 1.365839e-01 1.352057e-01
<GCONST> 1.408744e+01
<TRANSP> 6
 0.000000e+00 1.000000e+00 0.000000e+00 0.000000e+00 0.000000e+00 0.000000e+00
 0.000000e+00 7.058824e-01 2.941177e-01 0.000000e+00 0.000000e+00 0.000000e+00
 0.000000e+00 0.000000e+00 7.101449e-01 2.898551e-01 0.000000e+00 0.000000e+00
 0.000000e+00 0.000000e+00 0.000000e+00 6.774194e-01 3.225806e-01 0.000000e+00
 0.000000e+00 0.000000e+00 0.000000e+00 0.000000e+00 6.774194e-01 3.225806e-01
 0.000000e+00 0.000000e+00 0.000000e+00 0.000000e+00 0.000000e+00 0.000000e+00
<ENDHMM>
