~o
<STREAMINFO> 1 12
<VECSIZE> 12<NULLD><USER><DIAGC>
~h "jeremy"
<BEGINHMM>
<NUMSTATES> 6
<STATE> 2
<MEAN> 12
 -2.459973e+02 -3.242729e+00 1.605353e+00 -5.597889e+00 -4.337049e-01 7.755649e-01 4.528103e-01 5.439660e-01 -1.267039e-01 5.760178e-01 -9.875190e-01 1.123893e+00
<VARIANCE> 12
 5.895135e+02 2.765057e+01 1.583290e+01 1.091214e+01 1.448454e+01 6.003088e+00 5.442509e+00 3.561367e+00 2.712608e+00 1.817404e+00 2.042193e+00 3.298385e+00
<GCONST> 4.783795e+01
<STATE> 3
<MEAN> 12
 -2.562258e+02 2.637281e+00 -3.229442e+00 -6.267430e-01 -1.132482e+00 5.439822e+00 4.942726e-01 7.455145e-01 -2.495822e-01 1.230241e+00 -1.123433e-01 3.000311e+00
<VARIANCE> 12
 1.439756e+02 8.325947e+00 7.629716e+00 2.938382e+00 2.499679e+00 1.972233e+00 1.018385e+00 1.376998e+00 1.260595e+00 7.602758e-01 6.696975e-01 8.134873e-01
<GCONST> 3.353706e+01
<STATE> 4
<MEAN> 12
 -2.917073e+02 8.518437e+00 1.667841e+00 -2.711310e+00 8.579950e-01 3.681274e+00 1.620046e+00 8.136424e-01 4.755277e-01 8.730906e-01 3.817430e-01 1.324816e+00
<VARIANCE> 12
 8.804892e+01 1.000060e+01 7.175149e+00 7.438469e+00 3.827719e+00 2.843771e+00 1.780169e+00 1.186229e+00 1.436281e+00 1.029533e+00 7.590718e-01 7.581838e-01
<GCONST> 3.578592e+01
<STATE> 5
<MEAN> 12
 -3.181479e+02 4.703215e+00 2.888695e+00 -3.633087e-01 1.272511e+00 2.112521e+00 2.028668e+00 1.041425e+00 5.312414e-01 2.681937e-01 -2.858425e-02 6.922943e-01
<VARIANCE> 12
 1.206814e+02 1.976617e+01 4.809919e+00 4.477351e+00 2.516207e+00 3.230096e+00 2.313627e+00 1.833489e+00 1.206257e+00 8.327655e-01 8.045277e-01 8.746260e-01
<GCONST> 3.609473e+01
<TRANSP> 6
 0.000000e+00 1.000000e+00 0.000000e+00 0.000000e+00 0.000000e+00 0.000000e+00
 0.000000e+00 9.200000e-01 8.000000e-02 0.000000e+00 0.000000e+00 0.000000e+00
 0.000000e+00 0.000000e+00 9.078341e-01 9.216590e-02 0.000000e+00 0.000000e+00
 0.000000e+00 0.000000e+00 0.000000e+00 9.099099e-01 9.009008e-02 0.000000e+00
 0.000000e+00 0.000000e+00 0.000000e+00 0.000000e+00 9.029126e-01 9.708737e-02
 0.000000e+00 0.000000e+00 0.000000e+00 0.000000e+00 0.000000e+00 0.000000e+00
<ENDHMM>
