~o
<STREAMINFO> 1 15
<VECSIZE> 15<NULLD><USER><DIAGC>
~h "ke"
<BEGINHMM>
<NUMSTATES> 6
<STATE> 2
<MEAN> 15
 -5.152652e+01 -5.578427e+00 -1.847887e-01 9.668747e-01 -1.146197e+00 -1.795504e+00 -8.429074e-01 1.837074e-01 -4.025088e-01 1.683201e-01 9.431202e-01 9.713311e-02 6.353234e-01 9.908326e-01 -7.145663e-02
<VARIANCE> 15
 2.091200e+01 6.918840e+00 3.301755e+00 1.310615e+00 9.518550e-01 1.058945e+00 4.014217e-01 3.573519e-01 4.238831e-01 5.020468e-01 4.082599e-01 1.915662e-01 3.866556e-01 4.701893e-01 1.908539e-01
<GCONST> 2.461701e+01
<STATE> 3
<MEAN> 15
 -4.648228e+01 3.089555e+00 1.062548e+00 5.269914e+00 -1.201437e+00 -5.147272e+00 -8.661157e-01 -1.287964e+00 -1.170119e+00 1.867692e-03 -1.115754e+00 8.702791e-01 -9.462277e-01 -1.705262e-01 2.433095e-01
<VARIANCE> 15
 8.549516e+00 1.357339e+00 1.475561e+00 6.758528e-01 7.206010e-01 8.079985e-01 7.547081e-01 6.361572e-01 5.001191e-01 3.281651e-01 3.565778e-01 3.559709e-01 3.448961e-01 3.071537e-01 2.927482e-01
<GCONST> 2.139760e+01
<STATE> 4
<MEAN> 15
 -5.501915e+01 1.920302e+00 2.994074e+00 4.750149e+00 -6.089633e-01 -2.280002e+00 2.847265e-02 -1.385823e+00 -1.077681e+00 1.944917e-01 -3.703648e-01 -2.202750e-01 -5.911540e-01 -4.334297e-02 2.954658e-02
<VARIANCE> 15
 5.570374e+00 3.941470e-01 2.864397e-01 8.056396e-01 5.174540e-01 9.730124e-01 2.117926e-01 1.716023e-01 1.979695e-01 1.371590e-01 1.410893e-01 1.348871e-01 1.420528e-01 8.745680e-02 8.509912e-02
<GCONST> 8.467284e+00
<STATE> 5
<MEAN> 15
 -6.116809e+01 -5.201002e-01 2.107199e+00 2.105765e+00 6.744935e-01 3.491572e-02 -1.180784e-01 -3.889246e-01 -3.546482e-01 1.249360e-01 -1.404977e-03 9.766796e-02 1.212859e-01 1.617416e-01 2.900847e-02
<VARIANCE> 15
 2.582110e+00 3.048834e+00 1.312019e+00 5.953605e-01 1.902335e-01 4.337571e-01 3.290941e-01 2.973891e-01 2.352505e-01 1.273880e-01 2.227069e-01 1.627039e-01 7.677112e-02 1.457951e-01 1.173184e-01
<GCONST> 1.110491e+01
<TRANSP> 6
 0.000000e+00 1.000000e+00 0.000000e+00 0.000000e+00 0.000000e+00 0.000000e+00
 0.000000e+00 6.078432e-01 3.921569e-01 0.000000e+00 0.000000e+00 0.000000e+00
 0.000000e+00 0.000000e+00 6.491228e-01 3.508772e-01 0.000000e+00 0.000000e+00
 0.000000e+00 0.000000e+00 0.000000e+00 6.296296e-01 3.703704e-01 0.000000e+00
 0.000000e+00 0.000000e+00 0.000000e+00 0.000000e+00 5.555556e-01 4.444444e-01
 0.000000e+00 0.000000e+00 0.000000e+00 0.000000e+00 0.000000e+00 0.000000e+00
<ENDHMM>
