~o
<STREAMINFO> 1 12
<VECSIZE> 12<NULLD><USER><DIAGC>
~h "ke"
<BEGINHMM>
<NUMSTATES> 6
<STATE> 2
<MEAN> 12
 -2.623097e+02 -1.487538e+00 -4.653306e+00 -6.059478e+00 -4.088376e+00 7.171721e-01 -1.067613e+00 -1.260518e-01 -2.689550e-01 -1.298834e+00 -8.043911e-01 -1.894316e+00
<VARIANCE> 12
 4.426075e+02 3.286197e+01 1.191295e+01 9.257990e+00 5.432661e+00 3.898530e+00 3.822730e+00 2.260700e+00 3.779477e+00 2.155236e+00 2.341870e+00 2.289373e+00
<GCONST> 4.532901e+01
<STATE> 3
<MEAN> 12
 -2.390414e+02 3.936163e+00 3.427010e+00 -3.948392e+00 -4.540505e+00 -4.286090e+00 4.276416e-01 2.901139e+00 7.529210e-01 -7.493737e-02 3.507612e-02 -9.525524e-02
<VARIANCE> 12
 1.885639e+02 1.549659e+01 1.010427e+01 5.887209e+00 6.096087e+00 3.273596e+00 4.044193e+00 3.216096e+00 3.039581e+00 4.846265e+00 4.097829e+00 1.767070e+00
<GCONST> 4.434902e+01
<STATE> 4
<MEAN> 12
 -2.850480e+02 1.000445e+01 2.654755e+00 1.240885e+00 -4.208664e+00 -4.293753e-01 -1.139475e+00 1.006344e+00 -7.025940e-01 1.396896e+00 9.749902e-01 3.132364e-01
<VARIANCE> 12
 2.599320e+02 5.126058e+00 4.766906e+00 2.682146e+00 2.445856e+00 2.363341e+00 2.010049e+00 1.270683e+00 1.261501e+00 1.465097e+00 1.178744e+00 1.335550e+00
<GCONST> 3.555780e+01
<STATE> 5
<MEAN> 12
 -3.194658e+02 6.624993e+00 3.462008e+00 6.353680e-01 -8.963341e-01 2.053563e-01 8.099905e-01 8.853899e-01 6.916577e-01 -9.913568e-02 -1.017551e-01 -1.652119e-03
<VARIANCE> 12
 7.971310e+01 2.393013e+01 3.766320e+00 3.831045e+00 2.659838e+00 2.796540e+00 1.754149e+00 2.207060e+00 1.743776e+00 8.244783e-01 9.547541e-01 7.913150e-01
<GCONST> 3.572031e+01
<TRANSP> 6
 0.000000e+00 1.000000e+00 0.000000e+00 0.000000e+00 0.000000e+00 0.000000e+00
 0.000000e+00 8.692811e-01 1.307190e-01 0.000000e+00 0.000000e+00 0.000000e+00
 0.000000e+00 0.000000e+00 8.734177e-01 1.265823e-01 0.000000e+00 0.000000e+00
 0.000000e+00 0.000000e+00 0.000000e+00 9.186992e-01 8.130082e-02 0.000000e+00
 0.000000e+00 0.000000e+00 0.000000e+00 0.000000e+00 8.648649e-01 1.351351e-01
 0.000000e+00 0.000000e+00 0.000000e+00 0.000000e+00 0.000000e+00 0.000000e+00
<ENDHMM>
