~o
<STREAMINFO> 1 12
<VECSIZE> 12<NULLD><USER><DIAGC>
~h "ke"
<BEGINHMM>
<NUMSTATES> 6
<STATE> 2
<MEAN> 12
 -2.590481e+02 -2.383384e+00 -3.714518e+00 -6.030984e+00 -3.471330e+00 3.594311e-01 -1.143294e+00 -2.089479e-01 -5.751795e-01 -1.502350e+00 -9.846859e-01 -1.785247e+00
<VARIANCE> 12
 6.251581e+02 4.454600e+01 1.657705e+01 8.238959e+00 7.289961e+00 4.674132e+00 3.875399e+00 1.637395e+00 3.707171e+00 2.682997e+00 2.598108e+00 2.552713e+00
<GCONST> 4.677139e+01
<STATE> 3
<MEAN> 12
 -2.339081e+02 3.433161e+00 2.889650e+00 -4.056927e+00 -5.262662e+00 -4.767456e+00 -2.462958e-01 2.395807e+00 1.626652e-01 -2.408432e-01 -2.675012e-01 -5.776636e-01
<VARIANCE> 12
 1.323844e+02 1.486367e+01 9.854888e+00 9.784339e+00 7.404926e+00 7.608351e+00 5.125166e+00 2.371680e+00 2.497827e+00 7.768450e+00 7.271638e+00 3.537376e+00
<GCONST> 4.694992e+01
<STATE> 4
<MEAN> 12
 -2.794565e+02 1.029358e+01 2.800938e+00 1.158576e+00 -4.273093e+00 -4.449089e-01 -1.185394e+00 1.068642e+00 -5.571882e-01 1.236098e+00 8.707846e-01 4.811109e-01
<VARIANCE> 12
 2.086906e+02 3.592286e+00 3.825534e+00 3.924287e+00 2.662765e+00 2.515180e+00 1.808146e+00 1.186385e+00 1.170367e+00 1.350963e+00 1.077535e+00 1.109702e+00
<GCONST> 3.468487e+01
<STATE> 5
<MEAN> 12
 -3.120367e+02 6.774430e+00 3.536589e+00 5.096565e-01 -1.023255e+00 3.706467e-01 8.456154e-01 9.185543e-01 6.030042e-01 3.346283e-02 -8.063736e-02 4.012414e-02
<VARIANCE> 12
 7.566219e+01 2.312963e+01 2.414267e+00 3.665457e+00 2.131112e+00 2.123243e+00 1.226444e+00 1.927117e+00 1.675322e+00 8.077172e-01 7.138629e-01 7.190180e-01
<GCONST> 3.370753e+01
<TRANSP> 6
 0.000000e+00 1.000000e+00 0.000000e+00 0.000000e+00 0.000000e+00 0.000000e+00
 0.000000e+00 6.491228e-01 3.508772e-01 0.000000e+00 0.000000e+00 0.000000e+00
 0.000000e+00 0.000000e+00 5.348837e-01 4.651163e-01 0.000000e+00 0.000000e+00
 0.000000e+00 0.000000e+00 0.000000e+00 6.923077e-01 3.076923e-01 0.000000e+00
 0.000000e+00 0.000000e+00 0.000000e+00 0.000000e+00 5.238096e-01 4.761905e-01
 0.000000e+00 0.000000e+00 0.000000e+00 0.000000e+00 0.000000e+00 0.000000e+00
<ENDHMM>
