~o
<STREAMINFO> 1 15
<VECSIZE> 15<NULLD><USER><DIAGC>
~h "liam"
<BEGINHMM>
<NUMSTATES> 6
<STATE> 2
<MEAN> 15
 -5.641486e+01 2.847956e+00 2.614357e+00 1.638419e+00 -6.304712e-01 -7.641440e-01 -7.876827e-01 -1.181857e+00 -4.558627e-01 3.613493e-01 2.737529e-01 7.798937e-02 -4.195072e-01 3.196383e-01 5.618281e-02
<VARIANCE> 15
 2.733647e+01 1.488468e+01 2.850505e+00 7.569567e-01 8.759044e-01 8.451264e-01 6.402620e-01 1.454356e+00 4.446856e-01 2.120677e-01 2.111373e-01 3.423150e-01 4.866926e-01 2.355468e-01 1.968156e-01
<GCONST> 2.519371e+01
<STATE> 3
<MEAN> 15
 -4.721012e+01 4.860672e+00 1.695944e+00 3.016206e+00 -7.714297e-01 -3.970637e+00 -2.003562e+00 -1.107162e+00 5.570519e-02 4.659362e-01 -4.585832e-01 6.165903e-01 -3.608089e-04 4.403981e-01 -3.880336e-01
<VARIANCE> 15
 1.495656e+01 1.181129e+00 2.850504e+00 1.113445e+00 1.066107e+00 9.873110e-01 4.674055e-01 4.654551e-01 4.390082e-01 6.608051e-01 2.360564e-01 3.829405e-01 2.943481e-01 3.032038e-01 2.821644e-01
<GCONST> 2.279798e+01
<STATE> 4
<MEAN> 15
 -5.570160e+01 3.972598e+00 2.455221e+00 9.184296e-01 -5.960887e-01 -1.226873e+00 -8.729853e-01 -5.610547e-01 3.450568e-02 1.043123e+00 7.638084e-01 2.385209e-01 -1.230911e-01 4.656734e-02 -2.651862e-01
<VARIANCE> 15
 5.954634e+00 1.038961e+00 1.438718e+00 3.742787e-01 2.383331e-01 7.850617e-01 5.608922e-01 1.865773e-01 2.751760e-01 4.113457e-01 1.648253e-01 1.853014e-01 1.083600e-01 1.829795e-01 1.076463e-01
<GCONST> 1.302144e+01
<STATE> 5
<MEAN> 15
 -6.132467e+01 -1.003017e-01 2.324617e+00 1.724611e+00 9.764344e-01 4.931668e-01 3.251527e-02 1.088258e-01 6.633554e-02 2.881202e-01 2.585835e-01 3.566234e-01 6.547967e-02 9.373151e-02 -3.187971e-02
<VARIANCE> 15
 2.581302e+00 3.326951e+00 1.254336e+00 4.109083e-01 3.166889e-01 3.742793e-01 2.977477e-01 2.277233e-01 1.493412e-01 9.191699e-02 8.678582e-02 8.568662e-02 1.084642e-01 1.175642e-01 9.272402e-02
<GCONST> 8.302011e+00
<TRANSP> 6
 0.000000e+00 1.000000e+00 0.000000e+00 0.000000e+00 0.000000e+00 0.000000e+00
 0.000000e+00 4.594595e-01 5.405405e-01 0.000000e+00 0.000000e+00 0.000000e+00
 0.000000e+00 0.000000e+00 7.530864e-01 2.469136e-01 0.000000e+00 0.000000e+00
 0.000000e+00 0.000000e+00 0.000000e+00 3.750000e-01 6.250000e-01 0.000000e+00
 0.000000e+00 0.000000e+00 0.000000e+00 0.000000e+00 6.721311e-01 3.278688e-01
 0.000000e+00 0.000000e+00 0.000000e+00 0.000000e+00 0.000000e+00 0.000000e+00
<ENDHMM>
