~o
<STREAMINFO> 1 12
<VECSIZE> 12<NULLD><USER><DIAGC>
~h "liam"
<BEGINHMM>
<NUMSTATES> 6
<STATE> 2
<MEAN> 12
 -2.583625e+02 1.103698e+01 -2.286775e-01 -3.796034e+00 -2.450649e+00 7.597250e-01 -1.067216e+00 2.577079e+00 1.112239e+00 -3.512585e-01 4.133686e-01 -3.029598e-01
<VARIANCE> 12
 6.549205e+02 2.697170e+01 5.583795e+00 1.586303e+01 4.801180e+00 7.614745e+00 4.589785e+00 4.330656e+00 5.156178e+00 2.229665e+00 2.006858e+00 2.845229e+00
<GCONST> 4.709045e+01
<STATE> 3
<MEAN> 12
 -2.475006e+02 6.886833e+00 3.436869e+00 -6.972070e+00 -8.954970e-01 -1.651572e+00 2.260638e+00 1.509381e+00 9.725083e-01 2.793787e-01 1.011733e+00 -6.981721e-01
<VARIANCE> 12
 3.738176e+02 3.522630e+01 1.260309e+01 4.486082e+00 4.195096e+00 3.782871e+00 2.641139e+00 1.531724e+00 2.456255e+00 1.270320e+00 1.246490e+00 1.993726e+00
<GCONST> 4.178526e+01
<STATE> 4
<MEAN> 12
 -2.843836e+02 9.934857e+00 5.552776e-01 -3.263221e+00 -9.198219e-01 3.719027e+00 1.404298e+00 1.452043e+00 -1.609090e-02 8.401366e-01 5.474993e-01 1.156977e+00
<VARIANCE> 12
 1.830936e+02 1.886172e+01 5.750480e+00 7.961867e+00 3.500306e+00 4.009692e+00 1.932734e+00 1.853507e+00 2.381734e+00 1.017520e+00 6.577669e-01 7.584944e-01
<GCONST> 3.813306e+01
<STATE> 5
<MEAN> 12
 -3.179745e+02 8.366933e+00 3.955228e+00 8.803591e-01 5.609469e-01 1.399188e+00 1.411379e+00 1.112350e+00 1.233895e+00 5.414329e-01 2.513430e-01 4.038619e-01
<VARIANCE> 12
 8.353718e+01 2.322829e+01 4.905715e+00 3.617099e+00 2.320982e+00 1.329570e+00 1.459396e+00 1.646608e+00 1.258242e+00 8.721605e-01 1.027986e+00 7.910910e-01
<GCONST> 3.439104e+01
<TRANSP> 6
 0.000000e+00 1.000000e+00 0.000000e+00 0.000000e+00 0.000000e+00 0.000000e+00
 0.000000e+00 8.742138e-01 1.257862e-01 0.000000e+00 0.000000e+00 0.000000e+00
 0.000000e+00 0.000000e+00 8.952880e-01 1.047120e-01 0.000000e+00 0.000000e+00
 0.000000e+00 0.000000e+00 0.000000e+00 8.373984e-01 1.626016e-01 0.000000e+00
 0.000000e+00 0.000000e+00 0.000000e+00 0.000000e+00 9.148936e-01 8.510637e-02
 0.000000e+00 0.000000e+00 0.000000e+00 0.000000e+00 0.000000e+00 0.000000e+00
<ENDHMM>
