~o
<STREAMINFO> 1 12
<VECSIZE> 12<NULLD><USER><DIAGC>
~h "liam"
<BEGINHMM>
<NUMSTATES> 6
<STATE> 2
<MEAN> 12
 -2.761258e+02 1.016766e+01 1.176044e-01 -2.543839e+00 -2.052554e+00 1.192422e+00 -6.911789e-01 2.263269e+00 1.050255e+00 -3.614755e-01 3.206760e-01 -5.608399e-02
<VARIANCE> 12
 9.591191e+02 4.373263e+01 5.022000e+00 1.131895e+01 5.090485e+00 3.235494e+00 5.276289e+00 4.035483e+00 3.718904e+00 1.496832e+00 1.837721e+00 1.503178e+00
<GCONST> 4.533173e+01
<STATE> 3
<MEAN> 12
 -2.377587e+02 6.686242e+00 3.099578e+00 -7.296922e+00 -1.210593e+00 -1.879879e+00 1.896196e+00 1.759847e+00 1.019765e+00 -5.933720e-03 7.068570e-01 -9.471862e-01
<VARIANCE> 12
 3.765607e+02 3.585748e+01 1.407996e+01 4.123217e+00 3.851786e+00 3.979430e+00 3.551639e+00 2.305420e+00 2.974167e+00 1.254796e+00 1.588052e+00 3.240088e+00
<GCONST> 4.341394e+01
<STATE> 4
<MEAN> 12
 -2.808385e+02 9.719197e+00 8.763309e-01 -3.233945e+00 -5.711235e-01 3.880119e+00 1.476135e+00 1.564410e+00 -1.055671e-01 8.259124e-01 5.161428e-01 1.162555e+00
<VARIANCE> 12
 2.049498e+02 2.030890e+01 5.211510e+00 9.931775e+00 2.666742e+00 2.678634e+00 1.390027e+00 1.904405e+00 2.581417e+00 5.872324e-01 7.893327e-01 8.959598e-01
<GCONST> 3.734419e+01
<STATE> 5
<MEAN> 12
 -3.123715e+02 8.006636e+00 4.112448e+00 9.953719e-01 6.367184e-01 1.454500e+00 1.537839e+00 1.125788e+00 1.115279e+00 5.217603e-01 3.189064e-01 5.001770e-01
<VARIANCE> 12
 7.136543e+01 2.090708e+01 5.022215e+00 3.181964e+00 2.263534e+00 1.306962e+00 1.682329e+00 1.628658e+00 8.035231e-01 6.521403e-01 7.787803e-01 5.795158e-01
<GCONST> 3.278453e+01
<TRANSP> 6
 0.000000e+00 1.000000e+00 0.000000e+00 0.000000e+00 0.000000e+00 0.000000e+00
 0.000000e+00 6.000000e-01 4.000000e-01 0.000000e+00 0.000000e+00 0.000000e+00
 0.000000e+00 0.000000e+00 6.774194e-01 3.225806e-01 0.000000e+00 0.000000e+00
 0.000000e+00 0.000000e+00 0.000000e+00 4.594595e-01 5.405405e-01 0.000000e+00
 0.000000e+00 0.000000e+00 0.000000e+00 0.000000e+00 6.774194e-01 3.225806e-01
 0.000000e+00 0.000000e+00 0.000000e+00 0.000000e+00 0.000000e+00 0.000000e+00
<ENDHMM>
