~o
<STREAMINFO> 1 12
<VECSIZE> 12<NULLD><USER><DIAGC>
~h "martinho"
<BEGINHMM>
<NUMSTATES> 6
<STATE> 2
<MEAN> 12
 -2.100531e+02 2.633262e+00 -9.553061e+00 5.974559e+00 -6.949559e-01 2.639421e+00 1.584354e+00 -9.269280e-01 1.749668e+00 1.441199e+00 8.495089e-01 6.480819e-01
<VARIANCE> 12
 1.285733e+03 3.056981e+01 3.268841e+01 2.103960e+01 5.077953e+00 3.905193e+00 6.149567e+00 3.955037e+00 2.076341e+00 1.301954e+00 1.705352e+00 1.464876e+00
<GCONST> 4.725565e+01
<STATE> 3
<MEAN> 12
 -1.971966e+02 3.022295e+00 -2.575089e+00 -3.580282e+00 -8.662055e-01 -2.029879e+00 -9.832404e-01 1.939241e+00 -6.191048e-01 -1.200004e+00 4.455227e-02 -9.793764e-01
<VARIANCE> 12
 6.109329e+02 3.614033e+01 4.571854e+01 1.013801e+01 6.826947e+00 4.657049e+00 5.212247e+00 7.094413e+00 3.065850e+00 2.615042e+00 2.964923e+00 2.739134e+00
<GCONST> 4.944139e+01
<STATE> 4
<MEAN> 12
 -2.216517e+02 8.604061e+00 1.964647e+00 -1.014849e+00 8.662548e-01 8.480059e-02 1.271387e+00 2.258927e+00 1.476865e-01 9.184801e-02 1.435990e+00 9.336163e-01
<VARIANCE> 12
 1.434739e+02 3.219400e+01 4.996306e+00 3.871182e+00 1.640561e+00 2.605124e+00 1.854178e+00 4.171790e+00 1.371956e+00 2.105127e+00 1.159410e+00 1.582629e+00
<GCONST> 3.862064e+01
<STATE> 5
<MEAN> 12
 -2.507838e+02 6.243907e+00 2.050546e+00 -2.207757e+00 1.343762e+00 3.679877e+00 7.078006e-01 4.064390e-01 -7.947334e-01 3.932493e-01 2.716983e-01 1.238471e+00
<VARIANCE> 12
 2.451791e+02 1.323381e+01 4.113226e+00 7.429492e+00 2.339427e+00 3.759075e+00 2.299516e+00 1.722568e+00 1.606492e+00 1.583313e+00 1.035346e+00 1.205569e+00
<GCONST> 3.826481e+01
<TRANSP> 6
 0.000000e+00 1.000000e+00 0.000000e+00 0.000000e+00 0.000000e+00 0.000000e+00
 0.000000e+00 9.285714e-01 7.142857e-02 0.000000e+00 0.000000e+00 0.000000e+00
 0.000000e+00 0.000000e+00 9.315069e-01 6.849316e-02 0.000000e+00 0.000000e+00
 0.000000e+00 0.000000e+00 0.000000e+00 9.200000e-01 8.000000e-02 0.000000e+00
 0.000000e+00 0.000000e+00 0.000000e+00 0.000000e+00 9.344262e-01 6.557377e-02
 0.000000e+00 0.000000e+00 0.000000e+00 0.000000e+00 0.000000e+00 0.000000e+00
<ENDHMM>
