~o
<STREAMINFO> 1 12
<VECSIZE> 12<NULLD><USER><DIAGC>
~h "martinho"
<BEGINHMM>
<NUMSTATES> 6
<STATE> 2
<MEAN> 12
 -2.123853e+02 2.865899e+00 -8.297232e+00 5.455758e+00 -6.006925e-01 2.289760e+00 1.389777e+00 -9.327371e-01 1.617924e+00 1.040969e+00 5.282940e-01 5.118657e-01
<VARIANCE> 12
 1.505535e+03 2.798428e+01 4.800491e+01 2.357085e+01 4.464275e+00 4.075119e+00 5.580390e+00 3.866717e+00 1.987554e+00 1.585664e+00 2.162314e+00 1.516812e+00
<GCONST> 4.804275e+01
<STATE> 3
<MEAN> 12
 -1.878508e+02 3.507652e+00 -2.753831e+00 -4.095370e+00 -9.960946e-01 -2.307761e+00 -8.296393e-01 2.003428e+00 -1.006693e+00 -1.573386e+00 -3.374435e-01 -1.381863e+00
<VARIANCE> 12
 3.653309e+02 3.735504e+01 4.696656e+01 1.123889e+01 6.685348e+00 5.144256e+00 4.843902e+00 7.048896e+00 3.869373e+00 3.604085e+00 2.691878e+00 3.273218e+00
<GCONST> 4.972417e+01
<STATE> 4
<MEAN> 12
 -2.168718e+02 8.576382e+00 2.246970e+00 -1.040858e+00 7.754934e-01 3.009447e-02 1.098572e+00 2.220176e+00 -7.814320e-03 8.280761e-02 1.407714e+00 9.554829e-01
<VARIANCE> 12
 1.309730e+02 2.848700e+01 3.490545e+00 3.186722e+00 2.007678e+00 2.447413e+00 2.038257e+00 4.830049e+00 1.781039e+00 2.198017e+00 1.126649e+00 1.687101e+00
<GCONST> 3.857399e+01
<STATE> 5
<MEAN> 12
 -2.442162e+02 5.678154e+00 1.940338e+00 -2.292481e+00 1.293114e+00 3.664563e+00 7.850255e-01 3.138248e-01 -9.086512e-01 2.866897e-01 3.134139e-01 1.365422e+00
<VARIANCE> 12
 2.601850e+02 1.163958e+01 4.321997e+00 7.844932e+00 2.225682e+00 3.572333e+00 1.900373e+00 1.444196e+00 1.464092e+00 1.492318e+00 9.584385e-01 1.119633e+00
<GCONST> 3.752892e+01
<TRANSP> 6
 0.000000e+00 1.000000e+00 0.000000e+00 0.000000e+00 0.000000e+00 0.000000e+00
 0.000000e+00 7.872341e-01 2.127660e-01 0.000000e+00 0.000000e+00 0.000000e+00
 0.000000e+00 0.000000e+00 7.647059e-01 2.352941e-01 0.000000e+00 0.000000e+00
 0.000000e+00 0.000000e+00 0.000000e+00 6.774194e-01 3.225806e-01 0.000000e+00
 0.000000e+00 0.000000e+00 0.000000e+00 0.000000e+00 7.727273e-01 2.272727e-01
 0.000000e+00 0.000000e+00 0.000000e+00 0.000000e+00 0.000000e+00 0.000000e+00
<ENDHMM>
