~o
<STREAMINFO> 1 15
<VECSIZE> 15<NULLD><USER><DIAGC>
~h "martinho"
<BEGINHMM>
<NUMSTATES> 6
<STATE> 2
<MEAN> 15
 -4.173051e+01 4.416693e+00 2.837012e-01 -8.262254e-01 -2.586995e+00 -2.137241e-02 1.326648e+00 -1.684207e-01 -2.492032e-01 4.249679e-01 4.784272e-01 6.299318e-01 -4.908780e-01 -3.637905e-01 -7.285293e-01
<VARIANCE> 15
 5.787222e+01 1.646809e+01 2.226456e+00 1.757676e+00 4.230060e+00 5.839598e-01 1.440506e+00 4.742664e-01 4.159646e-01 2.734179e-01 2.421025e-01 2.682385e-01 5.489671e-01 3.001714e-01 4.073653e-01
<GCONST> 2.870618e+01
<STATE> 3
<MEAN> 15
 -3.641188e+01 -2.745250e-01 1.086118e+00 3.516096e+00 -1.780049e+00 -3.037321e+00 -9.540946e-01 -8.914697e-01 1.523731e-01 9.267405e-02 -3.194123e-01 8.152711e-01 -5.787156e-01 4.224557e-01 -3.045840e-02
<VARIANCE> 15
 1.102895e+01 4.108409e+01 3.726838e+00 6.661062e+00 1.207009e+00 6.947145e+00 8.716152e-01 6.707851e-01 8.213832e-01 2.372086e-01 6.910822e-01 3.724295e-01 7.638150e-01 5.307167e-01 3.579650e-01
<GCONST> 3.356284e+01
<STATE> 4
<MEAN> 15
 -4.278553e+01 4.176358e+00 2.200822e+00 4.096831e+00 -9.208605e-01 -3.033994e+00 -4.213123e-01 -5.565014e-02 -6.163946e-02 -2.867375e-02 -2.133953e-01 4.428902e-01 -5.318212e-01 -1.418260e-01 -1.458609e-01
<VARIANCE> 15
 4.441889e+00 1.578366e+00 1.702552e+00 1.428474e+00 7.062674e-01 9.214814e-01 2.523668e-01 2.777914e-01 2.015025e-01 1.442704e-01 1.717011e-01 2.974769e-01 1.217959e-01 1.785492e-01 2.259852e-01
<GCONST> 1.548905e+01
<STATE> 5
<MEAN> 15
 -4.819950e+01 1.698224e+00 1.440268e+00 1.245695e+00 4.224403e-02 -7.189813e-01 -6.648760e-01 7.995522e-02 5.176064e-01 1.043333e+00 5.184721e-01 -4.838694e-02 -2.889520e-01 -1.382572e-01 -4.796939e-01
<VARIANCE> 15
 9.566925e+00 5.304712e+00 6.928581e-01 6.732751e-01 3.358113e-01 1.249001e+00 6.248844e-01 2.740656e-01 1.882722e-01 3.466618e-01 1.428706e-01 2.182384e-01 1.889409e-01 1.534802e-01 9.634817e-02
<GCONST> 1.602155e+01
<TRANSP> 6
 0.000000e+00 1.000000e+00 0.000000e+00 0.000000e+00 0.000000e+00 0.000000e+00
 0.000000e+00 7.894737e-01 2.105263e-01 0.000000e+00 0.000000e+00 0.000000e+00
 0.000000e+00 0.000000e+00 7.530864e-01 2.469136e-01 0.000000e+00 0.000000e+00
 0.000000e+00 0.000000e+00 0.000000e+00 7.222222e-01 2.777778e-01 0.000000e+00
 0.000000e+00 0.000000e+00 0.000000e+00 0.000000e+00 7.530864e-01 2.469136e-01
 0.000000e+00 0.000000e+00 0.000000e+00 0.000000e+00 0.000000e+00 0.000000e+00
<ENDHMM>
