~o
<STREAMINFO> 1 15
<VECSIZE> 15<NULLD><USER><DIAGC>
~h "mateusz"
<BEGINHMM>
<NUMSTATES> 6
<STATE> 2
<MEAN> 15
 -5.594816e+01 -1.261505e+00 2.357866e+00 4.232832e-01 -6.856996e-01 1.066777e-02 -5.870728e-01 -2.830890e-01 4.945497e-01 5.700589e-01 4.122080e-01 2.238428e-01 -3.904500e-01 3.600806e-01 -1.429319e-01
<VARIANCE> 15
 2.127905e+01 3.648631e+01 1.757594e+00 8.988167e-01 9.480859e-01 9.925009e-01 3.421164e-01 6.449081e-01 5.690808e-01 4.989155e-01 2.849066e-01 3.020902e-01 4.189825e-01 5.783787e-01 1.710746e-01
<GCONST> 2.621321e+01
<STATE> 3
<MEAN> 15
 -4.499763e+01 5.346402e+00 -4.879289e-01 -8.007883e-01 -1.532019e+00 -2.183619e+00 -1.636045e+00 -3.911619e-01 1.107622e+00 2.214560e+00 -5.326934e-01 -2.589197e-01 -1.622323e+00 9.040795e-01 -5.321430e-01
<VARIANCE> 15
 9.282273e+00 1.131153e+00 1.813969e+00 1.988999e+00 6.522989e-01 8.344070e-01 4.995751e-01 5.855603e-01 5.548038e-01 3.639402e-01 4.057629e-01 2.384065e-01 4.688399e-01 1.564409e-01 3.039493e-01
<GCONST> 2.162604e+01
<STATE> 4
<MEAN> 15
 -5.503770e+01 3.013184e+00 2.338592e+00 1.075733e+00 -2.860924e-01 -1.689412e+00 -1.351205e+00 -3.018708e-01 9.381094e-01 1.506471e+00 2.819952e-01 9.497555e-02 -6.241396e-02 5.885059e-01 -4.958404e-01
<VARIANCE> 15
 9.206595e+00 2.536415e+00 8.303404e-01 3.223798e-01 4.599969e-01 9.952970e-01 4.408712e-01 2.291624e-01 2.074886e-01 2.141332e-01 2.651343e-01 1.726738e-01 1.573003e-01 1.244220e-01 2.001524e-01
<GCONST> 1.458725e+01
<STATE> 5
<MEAN> 15
 -6.042184e+01 -7.539694e+00 9.946291e-01 1.037546e+00 -1.369411e+00 1.652484e+00 1.142277e-01 -4.568732e-01 1.133968e+00 -6.293183e-02 -3.265260e-02 5.918461e-01 -4.092093e-01 2.953082e-01 1.963765e-01
<VARIANCE> 15
 2.625537e+00 3.614640e+00 8.744774e-01 3.486190e-01 4.781624e-01 4.137877e-01 3.711532e-01 2.907011e-01 3.358332e-01 2.717491e-01 2.718629e-01 1.988732e-01 1.461876e-01 2.294801e-01 1.460035e-01
<GCONST> 1.415323e+01
<TRANSP> 6
 0.000000e+00 1.000000e+00 0.000000e+00 0.000000e+00 0.000000e+00 0.000000e+00
 0.000000e+00 8.019802e-01 1.980198e-01 0.000000e+00 0.000000e+00 0.000000e+00
 0.000000e+00 0.000000e+00 6.551724e-01 3.448276e-01 0.000000e+00 0.000000e+00
 0.000000e+00 0.000000e+00 0.000000e+00 6.923077e-01 3.076923e-01 0.000000e+00
 0.000000e+00 0.000000e+00 0.000000e+00 0.000000e+00 8.076923e-01 1.923077e-01
 0.000000e+00 0.000000e+00 0.000000e+00 0.000000e+00 0.000000e+00 0.000000e+00
<ENDHMM>
