~o
<STREAMINFO> 1 12
<VECSIZE> 12<NULLD><USER><DIAGC>
~h "mateusz"
<BEGINHMM>
<NUMSTATES> 6
<STATE> 2
<MEAN> 12
 -2.896702e+02 8.100893e+00 -2.515701e+00 -2.352709e+00 4.068950e-01 1.179800e+00 -1.047970e+00 9.904722e-01 -1.912652e-01 -1.028706e-01 2.515981e-01 -2.234169e-01
<VARIANCE> 12
 5.130742e+02 3.017460e+01 2.672955e+01 5.370299e+00 5.233364e+00 1.060628e+01 5.353047e+00 4.411346e+00 2.218050e+00 2.888165e+00 2.081517e+00 2.366925e+00
<GCONST> 4.729889e+01
<STATE> 3
<MEAN> 12
 -2.345103e+02 3.472203e-01 -3.623556e+00 -5.719865e+00 1.390709e+00 2.353480e+00 -3.759056e+00 4.403672e+00 -9.956479e-01 -1.598302e-01 9.556789e-01 3.410603e-01
<VARIANCE> 12
 2.968372e+02 2.234932e+01 5.757631e+00 6.378006e+00 4.631271e+00 7.574001e+00 3.715838e+00 3.207837e+00 3.200360e+00 3.049523e+00 1.846132e+00 1.770063e+00
<GCONST> 4.395600e+01
<STATE> 4
<MEAN> 12
 -2.840214e+02 8.836755e+00 1.299821e+00 -4.941439e+00 1.565701e+00 2.788520e+00 5.404202e-01 2.136353e+00 -6.177282e-01 1.003891e-01 9.507984e-01 9.238694e-01
<VARIANCE> 12
 3.592479e+02 1.429284e+01 4.392646e+00 7.220515e+00 2.994465e+00 3.056944e+00 2.309012e+00 1.510002e+00 1.282516e+00 1.340155e+00 1.062396e+00 1.157677e+00
<GCONST> 3.826682e+01
<STATE> 5
<MEAN> 12
 -3.138943e+02 8.302335e-01 -7.078111e+00 4.691933e-01 2.050107e+00 -2.242459e+00 -1.806275e+00 3.092541e-01 -8.863941e-01 -1.439693e+00 -7.704369e-01 -6.894870e-01
<VARIANCE> 12
 7.972990e+01 9.248316e+00 8.201067e+00 5.869072e+00 3.801714e+00 4.590799e+00 2.629529e+00 1.925983e+00 2.104394e+00 1.667223e+00 1.311835e+00 1.577798e+00
<GCONST> 3.899596e+01
<TRANSP> 6
 0.000000e+00 1.000000e+00 0.000000e+00 0.000000e+00 0.000000e+00 0.000000e+00
 0.000000e+00 9.369085e-01 6.309148e-02 0.000000e+00 0.000000e+00 0.000000e+00
 0.000000e+00 0.000000e+00 8.913044e-01 1.086957e-01 0.000000e+00 0.000000e+00
 0.000000e+00 0.000000e+00 0.000000e+00 9.239544e-01 7.604563e-02 0.000000e+00
 0.000000e+00 0.000000e+00 0.000000e+00 0.000000e+00 9.457995e-01 5.420054e-02
 0.000000e+00 0.000000e+00 0.000000e+00 0.000000e+00 0.000000e+00 0.000000e+00
<ENDHMM>
