~o
<STREAMINFO> 1 12
<VECSIZE> 12<NULLD><USER><DIAGC>
~h "mateusz"
<BEGINHMM>
<NUMSTATES> 6
<STATE> 2
<MEAN> 12
 -2.880595e+02 8.185785e+00 -1.531903e+00 -1.814162e+00 -7.085542e-02 1.482415e+00 -6.579813e-01 6.012920e-01 -4.074456e-01 -1.628771e-01 1.546119e-01 -2.552287e-01
<VARIANCE> 12
 5.650812e+02 2.949920e+01 2.204917e+01 5.695979e+00 3.607745e+00 1.240151e+01 3.327245e+00 3.838625e+00 1.856422e+00 2.577671e+00 2.175630e+00 2.113384e+00
<GCONST> 4.604821e+01
<STATE> 3
<MEAN> 12
 -2.358573e+02 1.044141e+00 -5.092301e+00 -5.697027e+00 1.406199e+00 1.678926e+00 -4.176727e+00 3.882197e+00 -1.246769e+00 -6.630906e-01 4.917697e-01 -1.791339e-01
<VARIANCE> 12
 5.028642e+02 2.709947e+01 1.042411e+01 6.817382e+00 6.072466e+00 8.247553e+00 2.645538e+00 4.056347e+00 2.956884e+00 3.728235e+00 2.530482e+00 3.330047e+00
<GCONST> 4.665626e+01
<STATE> 4
<MEAN> 12
 -2.768116e+02 8.678396e+00 1.241414e+00 -5.169418e+00 1.651274e+00 2.850536e+00 5.330053e-01 2.201899e+00 -4.955488e-01 8.842856e-02 1.164978e+00 1.164573e+00
<VARIANCE> 12
 3.731381e+02 1.450309e+01 4.152934e+00 7.022252e+00 3.260688e+00 3.168299e+00 2.530132e+00 1.249448e+00 1.127475e+00 1.610521e+00 1.027725e+00 1.001211e+00
<GCONST> 3.813494e+01
<STATE> 5
<MEAN> 12
 -3.079914e+02 4.816751e-01 -7.208344e+00 3.665315e-01 1.936527e+00 -2.465110e+00 -2.024076e+00 1.102253e-01 -1.139844e+00 -1.644236e+00 -8.068818e-01 -8.374409e-01
<VARIANCE> 12
 6.787172e+01 8.796436e+00 8.497581e+00 5.603756e+00 4.254975e+00 4.968150e+00 2.594697e+00 2.216116e+00 2.096409e+00 1.279607e+00 1.561648e+00 1.914547e+00
<GCONST> 3.919207e+01
<TRANSP> 6
 0.000000e+00 1.000000e+00 0.000000e+00 0.000000e+00 0.000000e+00 0.000000e+00
 0.000000e+00 7.701150e-01 2.298851e-01 0.000000e+00 0.000000e+00 0.000000e+00
 0.000000e+00 0.000000e+00 6.825397e-01 3.174603e-01 0.000000e+00 0.000000e+00
 0.000000e+00 0.000000e+00 0.000000e+00 7.333333e-01 2.666667e-01 0.000000e+00
 0.000000e+00 0.000000e+00 0.000000e+00 0.000000e+00 8.058252e-01 1.941748e-01
 0.000000e+00 0.000000e+00 0.000000e+00 0.000000e+00 0.000000e+00 0.000000e+00
<ENDHMM>
