~o
<STREAMINFO> 1 12
<VECSIZE> 12<NULLD><USER><DIAGC>
~h "minghong"
<BEGINHMM>
<NUMSTATES> 6
<STATE> 2
<MEAN> 12
 -2.555385e+02 8.067111e+00 1.185472e-01 -3.407500e+00 -2.360922e-01 7.057478e-01 -4.662490e-01 1.983306e+00 -3.932651e-01 -5.124300e-01 -4.343139e-03 -2.934476e-01
<VARIANCE> 12
 8.647291e+02 4.179235e+01 1.259343e+01 7.886945e+00 7.129620e+00 7.130346e+00 4.984294e+00 7.148009e+00 5.371932e+00 3.189562e+00 2.952706e+00 4.599975e+00
<GCONST> 5.009962e+01
<STATE> 3
<MEAN> 12
 -2.869858e+02 1.365124e+01 1.964062e+00 9.519988e-01 1.965241e+00 2.594178e+00 1.381833e+00 1.683640e+00 1.675921e+00 2.702609e-01 8.315958e-01 1.542279e+00
<VARIANCE> 12
 2.073934e+02 1.637761e+01 5.303901e+00 1.417372e+01 2.952816e+00 1.632498e+00 5.069792e+00 2.142455e+00 8.371964e-01 1.204542e+00 8.008976e-01 1.333278e+00
<GCONST> 3.853703e+01
<STATE> 4
<MEAN> 12
 -2.727581e+02 1.216470e+01 -8.898479e+00 3.259358e+00 2.717846e+00 2.287375e-01 2.681146e+00 1.099412e+00 -3.300808e-01 3.553219e-01 1.466013e+00 1.341886e+00
<VARIANCE> 12
 8.122360e+01 5.866817e+00 5.985662e+00 7.465599e+00 2.133683e+00 1.386213e+00 2.056637e+00 3.944590e+00 1.668363e+00 1.263279e+00 6.952579e-01 7.465984e-01
<GCONST> 3.528841e+01
<STATE> 5
<MEAN> 12
 -3.067238e+02 9.962092e+00 1.766285e+00 -3.984065e-01 1.562762e+00 2.065008e+00 1.441781e+00 1.324270e+00 1.190519e+00 6.823387e-02 1.935483e-01 7.313819e-01
<VARIANCE> 12
 1.373602e+02 3.079220e+01 5.809691e+00 8.765737e+00 1.704485e+00 2.217748e+00 1.665193e+00 1.194032e+00 1.277013e+00 6.998736e-01 4.268128e-01 7.097275e-01
<GCONST> 3.504519e+01
<TRANSP> 6
 0.000000e+00 1.000000e+00 0.000000e+00 0.000000e+00 0.000000e+00 0.000000e+00
 0.000000e+00 7.402598e-01 2.597403e-01 0.000000e+00 0.000000e+00 0.000000e+00
 0.000000e+00 0.000000e+00 6.666667e-01 3.333333e-01 0.000000e+00 0.000000e+00
 0.000000e+00 0.000000e+00 0.000000e+00 6.610169e-01 3.389831e-01 0.000000e+00
 0.000000e+00 0.000000e+00 0.000000e+00 0.000000e+00 7.101449e-01 2.898551e-01
 0.000000e+00 0.000000e+00 0.000000e+00 0.000000e+00 0.000000e+00 0.000000e+00
<ENDHMM>
