~o
<STREAMINFO> 1 12
<VECSIZE> 12<NULLD><USER><DIAGC>
~h "minghong"
<BEGINHMM>
<NUMSTATES> 6
<STATE> 2
<MEAN> 12
 -2.518303e+02 8.706630e+00 -4.343642e-02 -3.661061e+00 -2.697600e-01 7.760801e-01 -3.424566e-01 2.484799e+00 -2.888819e-01 -4.882207e-02 1.850431e-01 -2.528156e-02
<VARIANCE> 12
 4.231794e+02 3.916053e+01 1.250665e+01 6.391119e+00 5.461354e+00 6.771508e+00 5.164680e+00 4.904105e+00 3.590453e+00 2.418867e+00 2.285297e+00 3.156657e+00
<GCONST> 4.713108e+01
<STATE> 3
<MEAN> 12
 -2.930474e+02 1.354868e+01 2.061662e+00 1.174011e+00 1.982593e+00 2.478273e+00 1.327836e+00 1.708393e+00 1.492914e+00 2.791179e-01 8.681417e-01 1.346072e+00
<VARIANCE> 12
 2.330317e+02 1.571334e+01 5.584405e+00 1.208388e+01 2.508922e+00 1.777367e+00 4.911348e+00 2.522197e+00 1.369073e+00 1.355890e+00 9.742746e-01 1.414976e+00
<GCONST> 3.942337e+01
<STATE> 4
<MEAN> 12
 -2.786143e+02 1.211636e+01 -8.997552e+00 3.480861e+00 2.825444e+00 1.255232e-01 2.713369e+00 1.088801e+00 -3.903431e-01 2.741142e-01 1.322690e+00 1.200821e+00
<VARIANCE> 12
 8.898684e+01 5.794226e+00 6.756838e+00 7.691278e+00 2.386963e+00 1.735207e+00 2.012669e+00 3.736236e+00 1.478387e+00 1.755696e+00 6.443925e-01 5.754465e-01
<GCONST> 3.565097e+01
<STATE> 5
<MEAN> 12
 -3.129883e+02 9.957987e+00 1.535146e+00 -3.799142e-01 1.580001e+00 1.982126e+00 1.410155e+00 1.218660e+00 1.119916e+00 1.011607e-01 1.826939e-01 6.360484e-01
<VARIANCE> 12
 1.468406e+02 3.300248e+01 6.391464e+00 7.995628e+00 2.345718e+00 2.045178e+00 1.661644e+00 1.436124e+00 1.201577e+00 8.718841e-01 7.510729e-01 7.015343e-01
<GCONST> 3.631794e+01
<TRANSP> 6
 0.000000e+00 1.000000e+00 0.000000e+00 0.000000e+00 0.000000e+00 0.000000e+00
 0.000000e+00 9.118943e-01 8.810572e-02 0.000000e+00 0.000000e+00 0.000000e+00
 0.000000e+00 0.000000e+00 9.126638e-01 8.733625e-02 0.000000e+00 0.000000e+00
 0.000000e+00 0.000000e+00 0.000000e+00 8.994975e-01 1.005025e-01 0.000000e+00
 0.000000e+00 0.000000e+00 0.000000e+00 0.000000e+00 9.218750e-01 7.812500e-02
 0.000000e+00 0.000000e+00 0.000000e+00 0.000000e+00 0.000000e+00 0.000000e+00
<ENDHMM>
