~o
<STREAMINFO> 1 15
<VECSIZE> 15<NULLD><USER><DIAGC>
~h "minghong"
<BEGINHMM>
<NUMSTATES> 6
<STATE> 2
<MEAN> 15
 -5.100086e+01 5.948369e+00 2.369836e+00 1.660132e+00 -1.035303e+00 -2.309047e+00 -1.118047e+00 -5.120075e-01 -2.723511e-02 2.492580e-01 -1.505735e-01 6.010309e-02 -9.209492e-01 -1.734106e-01 -5.956452e-02
<VARIANCE> 15
 2.748085e+01 7.173281e+00 3.357035e+00 1.329826e+00 1.252636e+00 2.258194e+00 4.825158e-01 6.259931e-01 5.089976e-01 3.763916e-01 3.705366e-01 2.606615e-01 3.814677e-01 3.682667e-01 2.477347e-01
<GCONST> 2.684293e+01
<STATE> 3
<MEAN> 15
 -5.862019e+01 2.149096e+00 2.882662e+00 1.418518e+00 5.212256e-01 7.338445e-01 6.833181e-01 3.273298e-01 2.600281e-01 5.081050e-01 4.240152e-01 5.156014e-01 9.198451e-02 -9.078147e-02 -2.206360e-01
<VARIANCE> 15
 1.064355e+00 1.108005e+00 5.067986e-01 4.561228e-01 3.045770e-01 4.719555e-01 5.206658e-01 2.552772e-01 2.712746e-01 1.797226e-01 1.524611e-01 1.414047e-01 1.327061e-01 1.700626e-01 1.298193e-01
<GCONST> 9.619937e+00
<STATE> 4
<MEAN> 15
 -5.346445e+01 6.363225e+00 2.637361e+00 -1.483756e+00 -2.919005e+00 -1.042797e+00 1.118476e+00 1.012826e+00 2.463233e-01 3.784535e-02 -3.369911e-01 2.642370e-01 2.459701e-01 -4.171750e-02 -4.126832e-01
<VARIANCE> 15
 2.944190e+00 7.928380e-01 5.373040e-01 5.067170e-01 5.488968e-01 4.824013e-01 5.756693e-01 1.675900e-01 1.730004e-01 9.540849e-02 1.547742e-01 1.254771e-01 6.222226e-02 2.904133e-01 3.339221e-01
<GCONST> 1.029177e+01
<STATE> 5
<MEAN> 15
 -6.011601e+01 1.028717e+00 2.767516e+00 1.381896e+00 1.378763e-01 -2.076789e-01 -1.975373e-01 2.819531e-01 3.633083e-01 4.968311e-01 2.922744e-01 2.422188e-01 1.875879e-02 7.480468e-02 -2.266002e-02
<VARIANCE> 15
 5.304489e+00 6.424023e+00 1.657745e+00 3.614794e-01 8.821959e-01 1.173017e+00 6.806784e-01 1.560307e-01 1.060164e-01 9.078433e-02 1.343656e-01 1.047875e-01 1.117318e-01 8.935027e-02 8.608179e-02
<GCONST> 1.241079e+01
<TRANSP> 6
 0.000000e+00 1.000000e+00 0.000000e+00 0.000000e+00 0.000000e+00 0.000000e+00
 0.000000e+00 8.076923e-01 1.923077e-01 0.000000e+00 0.000000e+00 0.000000e+00
 0.000000e+00 0.000000e+00 3.750000e-01 6.250000e-01 0.000000e+00 0.000000e+00
 0.000000e+00 0.000000e+00 0.000000e+00 6.610169e-01 3.389831e-01 0.000000e+00
 0.000000e+00 0.000000e+00 0.000000e+00 0.000000e+00 7.142857e-01 2.857143e-01
 0.000000e+00 0.000000e+00 0.000000e+00 0.000000e+00 0.000000e+00 0.000000e+00
<ENDHMM>
