~o
<STREAMINFO> 1 12
<VECSIZE> 12<NULLD><USER><DIAGC>
~h "nicholas"
<BEGINHMM>
<NUMSTATES> 6
<STATE> 2
<MEAN> 12
 -2.187585e+02 2.271583e+00 4.414705e-01 -2.443733e+00 9.597075e-02 -5.423847e-03 -7.836348e-01 1.775660e+00 -1.425291e+00 -8.393742e-01 -1.396184e-02 -5.081606e-01
<VARIANCE> 12
 1.582582e+03 4.571162e+01 1.027294e+01 5.586092e+00 5.143605e+00 7.771202e+00 4.653511e+00 6.830812e+00 3.943217e+00 2.791469e+00 2.479540e+00 1.820846e+00
<GCONST> 4.834667e+01
<STATE> 3
<MEAN> 12
 -2.074944e+02 9.044199e+00 -7.591160e+00 3.503269e+00 -5.965281e+00 3.170074e+00 2.954728e+00 8.550528e-01 8.301676e-01 9.236730e-01 1.105041e+00 6.836548e-01
<VARIANCE> 12
 1.889626e+02 1.022545e+01 7.587895e+00 5.600033e+00 6.233873e+00 3.027290e+00 2.935496e+00 2.380078e+00 1.327826e+00 7.076634e-01 9.406101e-01 1.238119e+00
<GCONST> 3.834208e+01
<STATE> 4
<MEAN> 12
 -2.270998e+02 7.224970e+00 -4.712943e+00 1.299029e+00 -3.279738e+00 6.413236e+00 3.997960e-01 -4.057144e-01 7.068071e-01 -1.300249e+00 1.966504e+00 1.993541e+00
<VARIANCE> 12
 2.028084e+02 5.876631e+00 4.022242e+00 6.243265e+00 8.837559e+00 2.486723e+00 8.916274e-01 2.554058e+00 1.640273e+00 6.119329e-01 1.308944e+00 1.208569e+00
<GCONST> 3.673646e+01
<STATE> 5
<MEAN> 12
 -2.580165e+02 -5.248917e-01 -6.392214e+00 1.922066e+00 1.117202e+00 -2.625033e+00 -4.767797e-01 7.421017e-01 -1.122075e+00 -1.170230e+00 -3.482480e-01 -6.609495e-01
<VARIANCE> 12
 5.367550e+01 6.501032e+00 9.686013e+00 5.324115e+00 4.375530e+00 7.354776e+00 2.359688e+00 2.355247e+00 2.160137e+00 1.758025e+00 1.077877e+00 1.093593e+00
<GCONST> 3.853775e+01
<TRANSP> 6
 0.000000e+00 1.000000e+00 0.000000e+00 0.000000e+00 0.000000e+00 0.000000e+00
 0.000000e+00 8.076923e-01 1.923077e-01 0.000000e+00 0.000000e+00 0.000000e+00
 0.000000e+00 0.000000e+00 5.348837e-01 4.651163e-01 0.000000e+00 0.000000e+00
 0.000000e+00 0.000000e+00 0.000000e+00 3.103448e-01 6.896552e-01 0.000000e+00
 0.000000e+00 0.000000e+00 0.000000e+00 0.000000e+00 8.076923e-01 1.923077e-01
 0.000000e+00 0.000000e+00 0.000000e+00 0.000000e+00 0.000000e+00 0.000000e+00
<ENDHMM>
