~o
<STREAMINFO> 1 15
<VECSIZE> 15<NULLD><USER><DIAGC>
~h "nicholas"
<BEGINHMM>
<NUMSTATES> 6
<STATE> 2
<MEAN> 15
 -4.301793e+01 2.129682e+00 4.940083e-01 1.457757e+00 -5.326349e-01 -1.442226e+00 -8.255867e-01 -8.389379e-01 4.453103e-01 8.337345e-01 -4.461750e-01 9.256336e-03 -5.831573e-01 2.223420e-01 -3.851379e-01
<VARIANCE> 15
 6.003386e+01 1.164403e+01 3.157026e+00 1.829344e+00 1.266355e+00 2.640579e+00 5.504330e-01 9.437236e-01 5.451346e-01 7.088395e-01 8.642243e-01 3.781500e-01 3.802214e-01 3.353649e-01 3.103099e-01
<GCONST> 3.112465e+01
<STATE> 3
<MEAN> 15
 -4.074251e+01 6.273529e+00 1.648347e+00 2.464891e-01 -2.920674e+00 -1.666719e+00 7.695792e-01 -9.697474e-01 -1.578492e+00 8.458394e-01 9.816487e-01 6.654970e-01 -3.180434e-01 -3.571797e-01 -4.615049e-01
<VARIANCE> 15
 6.968121e+00 5.145083e-01 9.537133e-01 9.051644e-01 7.876701e-01 3.012932e-01 3.570592e-01 2.610107e-01 4.427367e-01 5.080443e-01 3.632480e-01 2.064372e-01 4.355302e-01 1.815658e-01 1.720121e-01
<GCONST> 1.650662e+01
<STATE> 4
<MEAN> 15
 -4.845857e+01 1.205017e+00 1.396028e+00 1.297192e-01 -8.612575e-01 -3.527393e-01 -1.624036e-01 -2.192973e-01 1.280150e-01 1.056524e+00 9.469150e-01 2.919328e-01 -4.573585e-01 -1.797878e-01 -2.501578e-01
<VARIANCE> 15
 6.001612e+00 7.647165e+00 7.068812e-01 3.709570e-01 4.559157e-01 4.537657e-01 2.964990e-01 2.350980e-01 2.916678e-01 3.020656e-01 2.177418e-01 1.692934e-01 1.038425e-01 1.861382e-01 1.958677e-01
<GCONST> 1.451060e+01
<STATE> 5
<MEAN> 15
 -5.053587e+01 -7.008182e+00 6.299698e-01 1.335318e+00 -1.474777e+00 1.254189e+00 6.537539e-01 -6.984122e-01 1.078700e+00 1.316475e-01 -2.357934e-01 8.863656e-01 -1.467293e-01 1.766107e-01 4.312277e-01
<VARIANCE> 15
 2.159917e+00 2.602624e+00 6.072032e-01 4.380382e-01 4.426328e-01 3.062131e-01 3.116532e-01 2.946368e-01 3.405137e-01 2.108937e-01 2.937207e-01 2.081230e-01 1.670442e-01 1.289317e-01 1.578610e-01
<GCONST> 1.247158e+01
<TRANSP> 6
 0.000000e+00 1.000000e+00 0.000000e+00 0.000000e+00 0.000000e+00 0.000000e+00
 0.000000e+00 8.076923e-01 1.923077e-01 0.000000e+00 0.000000e+00 0.000000e+00
 0.000000e+00 0.000000e+00 6.428571e-01 3.571429e-01 0.000000e+00 0.000000e+00
 0.000000e+00 0.000000e+00 0.000000e+00 2.307692e-01 7.692308e-01 0.000000e+00
 0.000000e+00 0.000000e+00 0.000000e+00 0.000000e+00 7.872341e-01 2.127660e-01
 0.000000e+00 0.000000e+00 0.000000e+00 0.000000e+00 0.000000e+00 0.000000e+00
<ENDHMM>
