~o
<STREAMINFO> 1 12
<VECSIZE> 12<NULLD><USER><DIAGC>
~h "nicholas"
<BEGINHMM>
<NUMSTATES> 6
<STATE> 2
<MEAN> 12
 -2.195417e+02 2.514493e+00 3.793773e-01 -2.578312e+00 3.571475e-01 1.740683e-01 -4.792926e-01 2.601565e+00 -1.264211e+00 -5.383869e-01 2.871813e-01 -2.306606e-01
<VARIANCE> 12
 1.408489e+03 5.154934e+01 1.194180e+01 6.027665e+00 5.309077e+00 7.577292e+00 4.737618e+00 5.906165e+00 3.741776e+00 3.034561e+00 2.196623e+00 1.517803e+00
<GCONST> 4.818366e+01
<STATE> 3
<MEAN> 12
 -2.136945e+02 8.714597e+00 -7.585831e+00 3.663124e+00 -5.703187e+00 3.849464e+00 2.875582e+00 7.466148e-01 1.014512e+00 7.071936e-01 1.291142e+00 1.013683e+00
<VARIANCE> 12
 1.695653e+02 1.323062e+01 5.500749e+00 4.985840e+00 4.619504e+00 6.566470e+00 3.367154e+00 3.072301e+00 1.534310e+00 1.622211e+00 1.205223e+00 1.435814e+00
<GCONST> 4.029081e+01
<STATE> 4
<MEAN> 12
 -2.494044e+02 5.741232e+00 -2.177886e+00 3.711564e-01 -1.088984e+00 4.465362e+00 4.989714e-01 1.479906e-01 7.681058e-01 -9.436821e-01 1.346519e+00 1.371188e+00
<VARIANCE> 12
 2.940928e+02 1.785181e+01 6.816203e+00 3.643119e+00 4.479885e+00 6.742506e+00 1.558762e+00 2.251149e+00 1.452821e+00 9.471322e-01 1.466079e+00 1.218434e+00
<GCONST> 3.939538e+01
<STATE> 5
<MEAN> 12
 -2.639285e+02 -5.047210e-01 -6.767905e+00 2.133154e+00 1.280459e+00 -2.863133e+00 -5.888476e-01 8.527821e-01 -1.110216e+00 -1.046563e+00 -2.620749e-01 -5.867247e-01
<VARIANCE> 12
 5.975755e+01 6.944405e+00 7.230920e+00 4.967164e+00 3.992324e+00 5.323262e+00 2.661926e+00 2.438555e+00 1.768392e+00 1.706731e+00 1.291753e+00 1.223287e+00
<GCONST> 3.815308e+01
<TRANSP> 6
 0.000000e+00 1.000000e+00 0.000000e+00 0.000000e+00 0.000000e+00 0.000000e+00
 0.000000e+00 9.378882e-01 6.211180e-02 0.000000e+00 0.000000e+00 0.000000e+00
 0.000000e+00 0.000000e+00 8.895028e-01 1.104972e-01 0.000000e+00 0.000000e+00
 0.000000e+00 0.000000e+00 0.000000e+00 8.181818e-01 1.818182e-01 0.000000e+00
 0.000000e+00 0.000000e+00 0.000000e+00 0.000000e+00 9.408284e-01 5.917159e-02
 0.000000e+00 0.000000e+00 0.000000e+00 0.000000e+00 0.000000e+00 0.000000e+00
<ENDHMM>
