~o
<STREAMINFO> 1 12
<VECSIZE> 12<NULLD><USER><DIAGC>
~h "nicole"
<BEGINHMM>
<NUMSTATES> 6
<STATE> 2
<MEAN> 12
 -2.339320e+02 5.169133e+00 2.231823e+00 -1.848585e+00 5.817186e-01 5.410146e-01 1.219529e+00 3.114055e+00 -7.007900e-01 7.063262e-01 1.884355e-01 -2.116325e-01
<VARIANCE> 12
 8.384460e+02 2.831043e+01 3.572070e+00 4.466276e+00 3.889215e+00 3.313461e+00 2.734838e+00 5.633774e+00 2.001007e+00 1.964343e+00 9.403298e-01 8.436438e-01
<GCONST> 4.132732e+01
<STATE> 3
<MEAN> 12
 -2.041034e+02 -9.630255e-01 -7.391869e+00 -1.015906e-01 -8.265469e-01 1.523934e+00 -1.595969e+00 8.965534e-01 -1.871745e+00 -9.021491e-02 -1.590350e+00 4.781930e-01
<VARIANCE> 12
 7.647589e+02 6.190658e+01 3.011768e+01 2.354527e+01 5.744646e+00 3.972313e+00 5.223576e+00 9.728348e+00 3.771945e+00 2.992109e+00 3.641335e+00 2.042509e+00
<GCONST> 5.086969e+01
<STATE> 4
<MEAN> 12
 -2.181322e+02 1.426714e+01 -1.036437e+01 -1.045729e+00 1.811612e+00 1.164020e+00 8.063014e-01 1.271593e+00 -6.111861e-01 -1.732888e-01 9.666741e-01 1.623303e+00
<VARIANCE> 12
 1.774670e+02 5.454982e+00 8.770588e+00 7.722106e+00 4.579680e+00 1.098204e+00 1.861184e+00 3.000504e+00 3.490108e+00 2.762222e+00 1.641592e+00 1.797418e+00
<GCONST> 3.982862e+01
<STATE> 5
<MEAN> 12
 -2.499130e+02 1.124266e+01 -1.339152e+00 -3.143533e+00 1.385687e+00 1.419744e+00 2.335939e-01 1.355589e+00 1.639646e+00 9.114793e-02 -2.898837e-02 3.853903e-01
<VARIANCE> 12
 1.334259e+02 3.142331e+01 6.887094e+00 4.848816e+00 2.649260e+00 2.303091e+00 2.592488e+00 1.668999e+00 1.590259e+00 1.548474e+00 8.516049e-01 1.500925e+00
<GCONST> 3.832400e+01
<TRANSP> 6
 0.000000e+00 1.000000e+00 0.000000e+00 0.000000e+00 0.000000e+00 0.000000e+00
 0.000000e+00 7.014925e-01 2.985075e-01 0.000000e+00 0.000000e+00 0.000000e+00
 0.000000e+00 0.000000e+00 7.142857e-01 2.857143e-01 0.000000e+00 0.000000e+00
 0.000000e+00 0.000000e+00 0.000000e+00 5.555556e-01 4.444444e-01 0.000000e+00
 0.000000e+00 0.000000e+00 0.000000e+00 0.000000e+00 7.058824e-01 2.941177e-01
 0.000000e+00 0.000000e+00 0.000000e+00 0.000000e+00 0.000000e+00 0.000000e+00
<ENDHMM>
