~o
<STREAMINFO> 1 15
<VECSIZE> 15<NULLD><USER><DIAGC>
~h "nicole"
<BEGINHMM>
<NUMSTATES> 6
<STATE> 2
<MEAN> 15
 -4.610951e+01 1.783241e+00 1.112589e+00 1.961663e+00 -1.240335e-01 -1.228601e+00 -7.270867e-01 -6.658891e-01 4.284961e-01 6.201282e-01 -3.639326e-02 4.538490e-01 -1.143659e-01 3.517640e-01 1.410139e-01
<VARIANCE> 15
 3.014079e+01 1.012947e+01 2.313267e+00 1.929477e+00 4.656479e-01 1.889477e+00 4.170429e-01 5.440909e-01 4.566831e-01 5.832682e-01 2.654175e-01 2.869225e-01 2.715398e-01 2.120012e-01 1.755625e-01
<GCONST> 2.468173e+01
<STATE> 3
<MEAN> 15
 -3.909600e+01 4.234334e+00 -6.550280e-01 -2.263006e+00 -2.475765e+00 -1.539915e+00 3.425114e-01 -5.193493e-01 2.472895e-01 4.973893e-01 7.090239e-01 6.697754e-01 -1.057222e+00 -2.135884e-02 -2.377080e-01
<VARIANCE> 15
 2.292481e+01 1.813670e+01 3.721205e+00 1.329234e+00 2.677757e+00 1.234147e+00 1.741429e+00 8.981009e-01 7.662592e-01 3.969398e-01 4.015980e-01 5.555494e-01 5.976276e-01 1.589049e+00 4.392435e-01
<GCONST> 3.327490e+01
<STATE> 4
<MEAN> 15
 -4.268945e+01 6.857659e+00 3.243543e+00 -8.263862e-01 -3.894185e+00 -2.894851e+00 8.851197e-02 6.613967e-01 2.705457e-01 2.801927e-01 -8.323909e-02 -3.250382e-02 -1.868664e-03 3.759505e-01 -4.000950e-01
<VARIANCE> 15
 5.537133e+00 1.084107e+00 5.875396e-01 7.729200e-01 8.162614e-01 4.348636e-01 6.779602e-01 2.851894e-01 3.487870e-01 1.693247e-01 1.625632e-01 3.150946e-01 1.293164e-01 2.077355e-01 2.110845e-01
<GCONST> 1.491870e+01
<STATE> 5
<MEAN> 15
 -4.900060e+01 2.339223e+00 2.950224e+00 9.496809e-01 -9.507112e-01 -1.307628e+00 -8.293194e-01 1.335708e-01 4.118780e-01 4.549164e-01 7.318070e-02 -4.507593e-02 -1.195666e-01 1.719895e-01 1.321089e-01
<VARIANCE> 15
 4.723754e+00 5.690450e+00 1.661288e+00 4.065127e-01 8.643904e-01 9.013904e-01 4.378797e-01 2.389155e-01 2.215675e-01 2.014396e-01 1.969370e-01 2.645891e-01 1.902161e-01 1.159343e-01 1.261602e-01
<GCONST> 1.601172e+01
<TRANSP> 6
 0.000000e+00 1.000000e+00 0.000000e+00 0.000000e+00 0.000000e+00 0.000000e+00
 0.000000e+00 7.297298e-01 2.702703e-01 0.000000e+00 0.000000e+00 0.000000e+00
 0.000000e+00 0.000000e+00 6.923077e-01 3.076923e-01 0.000000e+00 0.000000e+00
 0.000000e+00 0.000000e+00 0.000000e+00 5.121951e-01 4.878049e-01 0.000000e+00
 0.000000e+00 0.000000e+00 0.000000e+00 0.000000e+00 7.142857e-01 2.857143e-01
 0.000000e+00 0.000000e+00 0.000000e+00 0.000000e+00 0.000000e+00 0.000000e+00
<ENDHMM>
