~o
<STREAMINFO> 1 12
<VECSIZE> 12<NULLD><USER><DIAGC>
~h "nicole"
<BEGINHMM>
<NUMSTATES> 6
<STATE> 2
<MEAN> 12
 -2.355290e+02 5.163510e+00 2.053820e+00 -2.326224e+00 5.808889e-01 5.965682e-01 1.476745e+00 3.665707e+00 -5.976893e-01 8.104188e-01 2.356551e-01 -2.401030e-01
<VARIANCE> 12
 8.210031e+02 2.755903e+01 5.333296e+00 3.852021e+00 5.510514e+00 3.330118e+00 2.247643e+00 4.967935e+00 2.512792e+00 2.197682e+00 1.314906e+00 1.021425e+00
<GCONST> 4.243026e+01
<STATE> 3
<MEAN> 12
 -2.104729e+02 -9.498295e-01 -7.205924e+00 -1.157215e-01 -7.176370e-01 1.553147e+00 -1.412740e+00 8.589337e-01 -1.555652e+00 6.001461e-02 -1.190461e+00 7.069475e-01
<VARIANCE> 12
 8.243342e+02 6.561639e+01 2.417743e+01 2.056700e+01 5.767840e+00 4.637739e+00 5.539791e+00 8.289280e+00 3.472352e+00 2.524698e+00 2.514656e+00 1.794751e+00
<GCONST> 4.995343e+01
<STATE> 4
<MEAN> 12
 -2.213972e+02 1.361361e+01 -1.092651e+01 -4.182605e-01 1.792525e+00 1.327213e+00 1.228850e+00 1.460790e+00 -7.569386e-01 -3.692035e-02 9.972115e-01 1.636397e+00
<VARIANCE> 12
 1.500058e+02 6.315155e+00 5.724005e+00 6.271137e+00 3.487520e+00 1.607511e+00 2.065620e+00 3.393694e+00 2.401344e+00 3.162863e+00 1.478419e+00 1.166278e+00
<GCONST> 3.873230e+01
<STATE> 5
<MEAN> 12
 -2.543077e+02 1.189654e+01 -1.729075e+00 -3.096435e+00 1.564954e+00 1.550339e+00 1.491165e-01 1.265203e+00 1.724567e+00 1.304506e-02 1.886791e-01 7.489447e-01
<VARIANCE> 12
 1.517244e+02 2.972693e+01 8.957718e+00 4.877181e+00 3.347408e+00 2.141920e+00 2.413267e+00 1.976634e+00 2.351871e+00 1.495675e+00 1.046719e+00 1.604009e+00
<GCONST> 3.955395e+01
<TRANSP> 6
 0.000000e+00 1.000000e+00 0.000000e+00 0.000000e+00 0.000000e+00 0.000000e+00
 0.000000e+00 8.989899e-01 1.010101e-01 0.000000e+00 0.000000e+00 0.000000e+00
 0.000000e+00 0.000000e+00 9.193549e-01 8.064515e-02 0.000000e+00 0.000000e+00
 0.000000e+00 0.000000e+00 0.000000e+00 8.529412e-01 1.470588e-01 0.000000e+00
 0.000000e+00 0.000000e+00 0.000000e+00 0.000000e+00 9.245283e-01 7.547171e-02
 0.000000e+00 0.000000e+00 0.000000e+00 0.000000e+00 0.000000e+00 0.000000e+00
<ENDHMM>
