~o
<STREAMINFO> 1 12
<VECSIZE> 12<NULLD><USER><DIAGC>
~h "oliver"
<BEGINHMM>
<NUMSTATES> 6
<STATE> 2
<MEAN> 12
 -1.930886e+02 1.327300e+01 -1.499135e+01 -3.495428e-01 1.894069e+00 3.646228e-02 -2.474478e-01 2.479789e+00 -2.330070e-01 -7.832278e-01 1.691387e+00 3.367058e-01
<VARIANCE> 12
 3.720541e+02 1.246926e+01 1.629196e+01 6.678722e+00 8.688956e+00 3.550256e+00 3.053048e+00 7.145578e+00 3.494946e+00 3.145040e+00 2.331322e+00 1.185996e+00
<GCONST> 4.511230e+01
<STATE> 3
<MEAN> 12
 -1.855488e+02 5.565161e+00 -8.926882e+00 4.216413e+00 -6.050650e+00 5.074227e+00 5.178066e-01 -5.842968e-01 1.477972e+00 5.361482e-01 3.478027e-01 1.698489e+00
<VARIANCE> 12
 1.100422e+02 1.213869e+01 1.201901e+01 1.040639e+01 4.443707e+00 6.592404e+00 3.140240e+00 3.961599e+00 1.907963e+00 1.553166e+00 1.585572e+00 1.647186e+00
<GCONST> 4.202539e+01
<STATE> 4
<MEAN> 12
 -2.309245e+02 1.062004e+01 -4.546347e+00 2.148242e+00 -1.415162e+00 3.870767e+00 2.075048e+00 -8.238214e-01 1.030107e+00 9.176572e-01 9.267653e-01 1.707968e+00
<VARIANCE> 12
 2.018301e+02 3.965735e+00 1.456616e+01 2.800635e+00 4.954892e+00 3.680264e+00 1.453510e+00 3.776860e+00 2.068684e+00 8.835793e-01 1.065757e+00 9.958252e-01
<GCONST> 3.771706e+01
<STATE> 5
<MEAN> 12
 -2.472251e+02 4.630750e+00 -4.644898e+00 1.837099e+00 -4.627075e-01 3.693260e+00 2.830090e-01 -1.206864e+00 9.907149e-01 -6.359046e-01 2.608062e-01 1.175474e+00
<VARIANCE> 12
 4.537303e+02 1.572705e+01 1.470627e+01 5.364326e+00 3.789639e+00 6.564238e+00 1.737694e+00 3.766827e+00 1.454920e+00 1.181719e+00 8.003972e-01 1.601869e+00
<GCONST> 4.117860e+01
<TRANSP> 6
 0.000000e+00 1.000000e+00 0.000000e+00 0.000000e+00 0.000000e+00 0.000000e+00
 0.000000e+00 9.033816e-01 9.661835e-02 0.000000e+00 0.000000e+00 0.000000e+00
 0.000000e+00 0.000000e+00 8.425197e-01 1.574803e-01 0.000000e+00 0.000000e+00
 0.000000e+00 0.000000e+00 0.000000e+00 8.648649e-01 1.351351e-01 0.000000e+00
 0.000000e+00 0.000000e+00 0.000000e+00 0.000000e+00 8.979592e-01 1.020408e-01
 0.000000e+00 0.000000e+00 0.000000e+00 0.000000e+00 0.000000e+00 0.000000e+00
<ENDHMM>
