~o
<STREAMINFO> 1 12
<VECSIZE> 12<NULLD><USER><DIAGC>
~h "oliver"
<BEGINHMM>
<NUMSTATES> 6
<STATE> 2
<MEAN> 12
 -2.006801e+02 1.210652e+01 -1.432632e+01 -2.185478e-01 2.184097e+00 -4.002821e-02 -5.325710e-01 1.949391e+00 -3.309725e-01 -8.445635e-01 1.397662e+00 2.449836e-01
<VARIANCE> 12
 1.011174e+03 3.392529e+01 3.807100e+01 8.367209e+00 8.275476e+00 4.237544e+00 3.347589e+00 6.914474e+00 2.705408e+00 2.699987e+00 2.503035e+00 1.074494e+00
<GCONST> 4.793832e+01
<STATE> 3
<MEAN> 12
 -1.788759e+02 5.750611e+00 -1.026042e+01 3.603987e+00 -6.466878e+00 4.288116e+00 2.472731e-01 -7.231867e-01 9.972019e-01 1.508380e-01 -3.092634e-02 1.253276e+00
<VARIANCE> 12
 9.991180e+01 1.701734e+01 1.166727e+01 1.039629e+01 6.276366e+00 9.148681e+00 2.729295e+00 5.449770e+00 2.861847e+00 2.449388e+00 2.481802e+00 2.907743e+00
<GCONST> 4.496497e+01
<STATE> 4
<MEAN> 12
 -2.168378e+02 9.182192e+00 -5.890123e+00 2.809515e+00 -2.138994e+00 4.598154e+00 1.420814e+00 -1.534820e+00 7.809271e-01 7.469231e-01 9.306740e-01 2.034561e+00
<VARIANCE> 12
 2.455780e+02 8.275086e+00 1.203165e+01 3.248385e+00 3.652044e+00 4.874171e+00 2.414829e+00 4.510345e+00 1.791626e+00 1.166283e+00 1.123754e+00 1.113979e+00
<GCONST> 3.956589e+01
<STATE> 5
<MEAN> 12
 -2.459123e+02 4.731111e+00 -3.662308e+00 1.483024e+00 -3.713537e-02 3.231489e+00 2.197422e-01 -9.869829e-01 8.925017e-01 -8.483486e-01 -1.805960e-02 6.604699e-01
<VARIANCE> 12
 2.619489e+02 1.499596e+01 1.190541e+01 5.039794e+00 3.392428e+00 4.351980e+00 1.326332e+00 2.454691e+00 1.735741e+00 8.290121e-01 1.042889e+00 1.329307e+00
<GCONST> 3.898798e+01
<TRANSP> 6
 0.000000e+00 1.000000e+00 0.000000e+00 0.000000e+00 0.000000e+00 0.000000e+00
 0.000000e+00 7.058824e-01 2.941177e-01 0.000000e+00 0.000000e+00 0.000000e+00
 0.000000e+00 0.000000e+00 3.939394e-01 6.060606e-01 0.000000e+00 0.000000e+00
 0.000000e+00 0.000000e+00 0.000000e+00 6.226415e-01 3.773585e-01 0.000000e+00
 0.000000e+00 0.000000e+00 0.000000e+00 0.000000e+00 5.918368e-01 4.081633e-01
 0.000000e+00 0.000000e+00 0.000000e+00 0.000000e+00 0.000000e+00 0.000000e+00
<ENDHMM>
