~o
<STREAMINFO> 1 15
<VECSIZE> 15<NULLD><USER><DIAGC>
~h "oliver"
<BEGINHMM>
<NUMSTATES> 6
<STATE> 2
<MEAN> 15
 -3.992874e+01 6.270041e+00 2.587098e+00 -2.196642e+00 -4.421462e+00 -1.880400e+00 4.738974e-01 1.317647e+00 2.969687e-01 3.888515e-02 -4.629509e-01 -6.335340e-03 -5.656385e-01 2.604977e-01 -2.964344e-01
<VARIANCE> 15
 3.959380e+01 1.673061e+01 1.775621e+00 1.844288e+00 4.049302e+00 1.244100e+00 5.160867e-01 7.983598e-01 6.628531e-01 5.158266e-01 2.392417e-01 3.728327e-01 2.613986e-01 3.432253e-01 2.348171e-01
<GCONST> 2.863047e+01
<STATE> 3
<MEAN> 15
 -3.534241e+01 8.356843e+00 9.504117e-01 -1.069723e+00 -3.856057e+00 -2.317515e+00 7.460113e-01 -8.582615e-01 -1.576306e+00 2.816329e-01 1.105409e+00 5.153334e-01 -6.439003e-01 -4.028467e-02 -8.569483e-01
<VARIANCE> 15
 4.908012e+00 8.725079e-01 1.494763e+00 8.623313e-01 1.452782e+00 6.408336e-01 1.356334e+00 1.772917e+00 3.015723e-01 8.350952e-01 6.240784e-01 2.138317e-01 4.670643e-01 3.065434e-01 4.254085e-01
<GCONST> 2.389101e+01
<STATE> 4
<MEAN> 15
 -4.333256e+01 5.477601e+00 1.827523e+00 -1.246730e+00 -2.017294e+00 -8.982832e-01 6.575061e-01 -6.486120e-02 -6.325951e-01 5.055268e-01 1.205103e+00 4.667844e-01 -5.402690e-01 -5.445427e-01 -7.989099e-01
<VARIANCE> 15
 7.869531e+00 2.675194e+00 5.883292e-01 1.359920e+00 9.497283e-01 3.014463e-01 3.953021e-01 3.646308e-01 2.497004e-01 3.138277e-01 3.498524e-01 1.555929e-01 3.035412e-01 2.214639e-01 3.131245e-01
<GCONST> 1.788637e+01
<STATE> 5
<MEAN> 15
 -4.879829e+01 1.294315e+00 1.139580e+00 -5.864868e-01 -9.349994e-01 -2.030073e-01 5.815480e-01 4.266211e-01 1.005725e-01 6.095086e-01 6.408095e-01 2.062757e-01 -4.127999e-01 -3.532608e-01 -3.227341e-01
<VARIANCE> 15
 7.910299e+00 5.868533e+00 1.059146e+00 8.105841e-01 9.444711e-01 5.806844e-01 4.139657e-01 2.078939e-01 2.462014e-01 1.298209e-01 2.167962e-01 9.456735e-02 1.439751e-01 1.638256e-01 2.092702e-01
<GCONST> 1.555837e+01
<TRANSP> 6
 0.000000e+00 1.000000e+00 0.000000e+00 0.000000e+00 0.000000e+00 0.000000e+00
 0.000000e+00 6.721311e-01 3.278688e-01 0.000000e+00 0.000000e+00 0.000000e+00
 0.000000e+00 0.000000e+00 5.652174e-01 4.347826e-01 0.000000e+00 0.000000e+00
 0.000000e+00 0.000000e+00 0.000000e+00 6.296296e-01 3.703704e-01 0.000000e+00
 0.000000e+00 0.000000e+00 0.000000e+00 0.000000e+00 5.238096e-01 4.761905e-01
 0.000000e+00 0.000000e+00 0.000000e+00 0.000000e+00 0.000000e+00 0.000000e+00
<ENDHMM>
