~o
<STREAMINFO> 1 12
<VECSIZE> 12<NULLD><USER><DIAGC>
~h "sarah"
<BEGINHMM>
<NUMSTATES> 6
<STATE> 2
<MEAN> 12
 -2.587382e+02 9.469790e+00 -9.247510e+00 -3.839616e-01 3.398156e-01 -2.223928e+00 -3.618193e+00 -1.223330e+00 -2.165025e+00 -2.350686e+00 -1.826599e+00 -2.458225e+00
<VARIANCE> 12
 2.942527e+02 1.774112e+01 7.121169e+00 4.886262e+00 4.725270e+00 4.818005e+00 2.244395e+00 2.775150e+00 2.176229e+00 1.854247e+00 1.839118e+00 1.297115e+00
<GCONST> 4.138327e+01
<STATE> 3
<MEAN> 12
 -1.918902e+02 2.382468e+00 -5.550373e+00 -3.107341e+00 1.559131e+00 7.235714e-01 -1.739494e+00 2.358889e+00 -1.243023e+00 9.438793e-01 5.526671e-02 6.207215e-02
<VARIANCE> 12
 2.367863e+02 3.766826e+01 9.273362e+00 7.833231e+00 1.256742e+01 1.067794e+01 9.101469e+00 5.392656e+00 2.888037e+00 4.558545e+00 2.491485e+00 2.668280e+00
<GCONST> 4.870068e+01
<STATE> 4
<MEAN> 12
 -2.407183e+02 7.605966e+00 -5.532537e+00 -3.125685e-01 1.270801e+00 5.253278e+00 1.398784e+00 -1.031709e+00 1.980309e-01 1.644163e+00 1.122290e+00 2.641912e+00
<VARIANCE> 12
 1.589391e+02 7.475882e+00 3.111720e+00 2.805694e+00 3.761483e+00 2.085216e+00 1.833193e+00 1.767439e+00 1.492623e+00 1.394638e+00 1.087920e+00 1.311890e+00
<GCONST> 3.562574e+01
<STATE> 5
<MEAN> 12
 -2.726419e+02 2.943645e+00 -3.691040e+00 7.026734e-01 3.427066e+00 3.456756e+00 3.879822e-01 -4.770025e-01 1.366214e+00 2.061604e-01 1.203401e+00 6.449279e-01
<VARIANCE> 12
 3.248746e+02 1.103385e+01 6.716817e+00 3.545683e+00 4.260204e+00 7.528218e+00 2.434654e+00 3.323989e+00 2.498332e+00 9.646880e-01 1.536865e+00 1.143803e+00
<GCONST> 4.041200e+01
<TRANSP> 6
 0.000000e+00 1.000000e+00 0.000000e+00 0.000000e+00 0.000000e+00 0.000000e+00
 0.000000e+00 9.047619e-01 9.523809e-02 0.000000e+00 0.000000e+00 0.000000e+00
 0.000000e+00 0.000000e+00 9.337748e-01 6.622516e-02 0.000000e+00 0.000000e+00
 0.000000e+00 0.000000e+00 0.000000e+00 9.145299e-01 8.547010e-02 0.000000e+00
 0.000000e+00 0.000000e+00 0.000000e+00 0.000000e+00 8.461539e-01 1.538462e-01
 0.000000e+00 0.000000e+00 0.000000e+00 0.000000e+00 0.000000e+00 0.000000e+00
<ENDHMM>
