~o
<STREAMINFO> 1 12
<VECSIZE> 12<NULLD><USER><DIAGC>
~h "sarah"
<BEGINHMM>
<NUMSTATES> 6
<STATE> 2
<MEAN> 12
 -2.595325e+02 8.243463e+00 -8.848585e+00 -6.963526e-01 1.593872e-01 -2.152010e+00 -3.392143e+00 -1.155905e+00 -2.180552e+00 -2.092987e+00 -1.704885e+00 -2.178595e+00
<VARIANCE> 12
 6.316727e+02 4.344115e+01 1.284500e+01 6.115969e+00 4.950262e+00 5.461344e+00 3.946842e+00 2.963267e+00 2.272372e+00 2.498901e+00 2.234697e+00 2.236700e+00
<GCONST> 4.574029e+01
<STATE> 3
<MEAN> 12
 -1.850480e+02 1.563945e+00 -6.322778e+00 -3.647134e+00 1.352520e+00 4.784151e-01 -2.303055e+00 2.009533e+00 -1.948570e+00 4.421889e-01 -3.846747e-01 -5.189334e-01
<VARIANCE> 12
 1.858334e+02 3.222408e+01 9.631828e+00 7.244361e+00 1.478602e+01 1.298313e+01 1.027198e+01 6.668554e+00 4.484510e+00 6.777974e+00 3.724564e+00 3.211383e+00
<GCONST> 5.037751e+01
<STATE> 4
<MEAN> 12
 -2.363644e+02 7.044243e+00 -5.391464e+00 3.551436e-02 1.369592e+00 5.202253e+00 1.307373e+00 -1.382459e+00 4.129402e-01 1.679562e+00 1.381712e+00 2.644882e+00
<VARIANCE> 12
 1.837565e+02 6.525795e+00 3.876511e+00 2.742862e+00 3.678839e+00 2.509067e+00 1.894243e+00 2.207354e+00 2.040707e+00 1.208934e+00 1.193618e+00 2.043543e+00
<GCONST> 3.695567e+01
<STATE> 5
<MEAN> 12
 -2.743506e+02 1.645750e+00 -2.881685e+00 8.991168e-01 3.691243e+00 3.326697e+00 4.172801e-01 -2.453058e-02 1.423985e+00 2.040309e-01 7.885440e-01 2.198732e-01
<VARIANCE> 12
 2.599448e+02 9.411108e+00 6.319148e+00 2.157739e+00 6.669129e+00 2.551601e+00 1.749528e+00 2.604735e+00 1.657493e+00 1.247544e+00 8.118001e-01 5.650109e-01
<GCONST> 3.676749e+01
<TRANSP> 6
 0.000000e+00 1.000000e+00 0.000000e+00 0.000000e+00 0.000000e+00 0.000000e+00
 0.000000e+00 7.183099e-01 2.816901e-01 0.000000e+00 0.000000e+00 0.000000e+00
 0.000000e+00 0.000000e+00 7.560976e-01 2.439025e-01 0.000000e+00 0.000000e+00
 0.000000e+00 0.000000e+00 0.000000e+00 7.435898e-01 2.564103e-01 0.000000e+00
 0.000000e+00 0.000000e+00 0.000000e+00 0.000000e+00 2.307692e-01 7.692308e-01
 0.000000e+00 0.000000e+00 0.000000e+00 0.000000e+00 0.000000e+00 0.000000e+00
<ENDHMM>
