~o
<STREAMINFO> 1 15
<VECSIZE> 15<NULLD><USER><DIAGC>
~h "sarah"
<BEGINHMM>
<NUMSTATES> 6
<STATE> 2
<MEAN> 15
 -5.074802e+01 -9.727347e+00 3.372634e+00 4.738731e-01 -1.644171e+00 1.186324e+00 1.494101e-01 -3.383704e-01 7.706485e-01 -2.883480e-01 3.489537e-01 1.522917e-01 -1.844950e-01 4.810795e-01 8.626109e-02
<VARIANCE> 15
 2.556553e+01 1.647124e+01 3.620811e+00 4.267608e-01 7.506730e-01 7.972043e-01 6.017334e-01 3.323926e-01 3.455745e-01 2.815036e-01 3.043901e-01 4.742180e-01 2.016263e-01 1.600197e-01 1.825855e-01
<GCONST> 2.252335e+01
<STATE> 3
<MEAN> 15
 -3.646115e+01 7.282661e+00 -4.740571e-01 -1.496019e+00 -2.464327e+00 -2.666342e+00 -8.042393e-01 -6.679900e-01 1.079682e+00 1.882166e+00 -1.030637e+00 -4.847074e-01 -1.060616e+00 3.878508e-01 -8.843719e-01
<VARIANCE> 15
 7.724299e+00 1.960109e+00 2.477943e+00 1.356856e+00 7.874091e-01 7.056691e-01 7.085869e-01 8.791401e-01 1.084841e+00 1.069882e+00 8.175943e-01 3.804724e-01 5.015022e-01 5.471891e-01 3.234278e-01
<GCONST> 2.699658e+01
<STATE> 4
<MEAN> 15
 -4.642370e+01 7.907908e+00 1.052619e+00 -2.918091e+00 -1.774814e+00 -2.699959e-01 -4.142817e-01 -8.583954e-01 8.044025e-01 1.640325e+00 7.988148e-01 1.288509e-01 -6.491619e-01 -6.322401e-01 -8.783079e-01
<VARIANCE> 15
 5.366691e+00 1.984920e+00 4.443971e-01 5.742953e-01 2.441413e-01 2.062218e-01 2.597221e-01 4.661661e-01 3.616154e-01 1.678536e-01 2.170237e-01 1.571234e-01 1.736843e-01 2.265196e-01 1.000339e-01
<GCONST> 1.175014e+01
<STATE> 5
<MEAN> 15
 -5.315986e+01 2.153090e+00 4.079905e-01 -9.585012e-01 -8.819993e-01 -1.563231e-02 4.148073e-01 5.971411e-01 1.165605e+00 1.084523e+00 4.083682e-01 7.734443e-02 -4.513232e-01 -4.406799e-01 3.378097e-02
<VARIANCE> 15
 1.041613e+01 7.006181e+00 4.981871e-01 7.527787e-01 6.130635e-01 2.047354e-01 2.020632e-01 2.738450e-01 3.090322e-01 2.475697e-01 1.512820e-01 1.149329e-01 3.082774e-01 3.191848e-01 1.266354e-01
<GCONST> 1.490028e+01
<TRANSP> 6
 0.000000e+00 1.000000e+00 0.000000e+00 0.000000e+00 0.000000e+00 0.000000e+00
 0.000000e+00 7.222222e-01 2.777778e-01 0.000000e+00 0.000000e+00 0.000000e+00
 0.000000e+00 0.000000e+00 7.647059e-01 2.352941e-01 0.000000e+00 0.000000e+00
 0.000000e+00 0.000000e+00 0.000000e+00 7.101449e-01 2.898551e-01 0.000000e+00
 0.000000e+00 0.000000e+00 0.000000e+00 0.000000e+00 3.548387e-01 6.451613e-01
 0.000000e+00 0.000000e+00 0.000000e+00 0.000000e+00 0.000000e+00 0.000000e+00
<ENDHMM>
