~o
<STREAMINFO> 1 12
<VECSIZE> 12<NULLD><USER><DIAGC>
~h "shaun"
<BEGINHMM>
<NUMSTATES> 6
<STATE> 2
<MEAN> 12
 -2.460967e+02 -8.315868e+00 3.808549e+00 -8.725614e+00 -5.969915e+00 9.472750e-01 -3.290046e+00 1.852421e+00 -2.608994e+00 3.555308e-01 -2.263113e+00 -8.072081e-01
<VARIANCE> 12
 4.155690e+02 3.598418e+01 5.990042e+00 9.461991e+00 4.965533e+00 4.260889e+00 3.479625e+00 2.887436e+00 2.725686e+00 2.001732e+00 1.980410e+00 1.725436e+00
<GCONST> 4.398944e+01
<STATE> 3
<MEAN> 12
 -2.158580e+02 1.263549e+01 -7.977775e+00 -2.074888e+00 -4.562262e+00 1.496876e+00 3.191495e+00 1.590828e+00 3.014509e-01 5.534773e-01 6.572935e-01 1.349454e+00
<VARIANCE> 12
 1.664684e+02 3.137219e+01 2.359097e+01 8.735476e+00 7.246318e+00 5.413294e+00 7.016947e+00 5.640641e+00 7.646915e+00 3.816257e+00 2.192987e+00 2.509464e+00
<GCONST> 4.837010e+01
<STATE> 4
<MEAN> 12
 -2.521843e+02 1.666814e+01 -7.212393e+00 2.233698e-01 1.208262e+00 3.478872e+00 1.849403e+00 1.407146e+00 1.303348e+00 2.086446e-01 2.375263e+00 2.394230e+00
<VARIANCE> 12
 1.991872e+02 8.908466e+00 6.472747e+00 3.970289e+00 4.529801e+00 1.463001e+00 1.984015e+00 1.960235e+00 2.652583e+00 9.002529e-01 7.852756e-01 8.285717e-01
<GCONST> 3.647224e+01
<STATE> 5
<MEAN> 12
 -2.920480e+02 9.922450e+00 3.583811e+00 7.419329e-01 6.737509e-01 1.357037e+00 1.985074e+00 1.935347e+00 1.316861e+00 6.573436e-01 4.815497e-01 6.317120e-01
<VARIANCE> 12
 8.387681e+01 2.626252e+01 5.737425e+00 3.168931e+00 2.836841e+00 1.902279e+00 2.419780e+00 2.578568e+00 1.525220e+00 1.120487e+00 1.074765e+00 1.194845e+00
<GCONST> 3.695509e+01
<TRANSP> 6
 0.000000e+00 1.000000e+00 0.000000e+00 0.000000e+00 0.000000e+00 0.000000e+00
 0.000000e+00 8.936170e-01 1.063830e-01 0.000000e+00 0.000000e+00 0.000000e+00
 0.000000e+00 0.000000e+00 9.111111e-01 8.888888e-02 0.000000e+00 0.000000e+00
 0.000000e+00 0.000000e+00 0.000000e+00 9.038461e-01 9.615386e-02 0.000000e+00
 0.000000e+00 0.000000e+00 0.000000e+00 0.000000e+00 9.000000e-01 9.999999e-02
 0.000000e+00 0.000000e+00 0.000000e+00 0.000000e+00 0.000000e+00 0.000000e+00
<ENDHMM>
