~o
<STREAMINFO> 1 12
<VECSIZE> 12<NULLD><USER><DIAGC>
~h "shaun"
<BEGINHMM>
<NUMSTATES> 6
<STATE> 2
<MEAN> 12
 -2.503866e+02 -7.159941e+00 3.502168e+00 -7.376102e+00 -4.998075e+00 6.043674e-01 -3.129837e+00 1.358613e+00 -2.230405e+00 5.068577e-01 -1.905369e+00 -6.349769e-01
<VARIANCE> 12
 8.876962e+02 4.321652e+01 8.175730e+00 1.480900e+01 7.078893e+00 3.338808e+00 4.300243e+00 2.975484e+00 3.242393e+00 1.907877e+00 2.784454e+00 1.279755e+00
<GCONST> 4.621062e+01
<STATE> 3
<MEAN> 12
 -2.107554e+02 1.339831e+01 -8.813416e+00 -2.509550e+00 -4.855157e+00 1.224756e+00 2.994934e+00 1.423766e+00 1.028998e-01 3.022099e-01 3.709028e-01 1.321429e+00
<VARIANCE> 12
 1.866911e+02 4.968463e+01 2.216677e+01 9.118228e+00 8.418074e+00 8.213391e+00 8.472468e+00 6.103151e+00 9.268296e+00 4.172177e+00 2.877546e+00 3.487327e+00
<GCONST> 5.064143e+01
<STATE> 4
<MEAN> 12
 -2.461226e+02 1.684109e+01 -7.636835e+00 6.494144e-01 1.201282e+00 3.231420e+00 1.838868e+00 1.194514e+00 9.127916e-01 1.388648e-01 2.462178e+00 2.428798e+00
<VARIANCE> 12
 1.808771e+02 5.262305e+00 9.740700e+00 2.836910e+00 5.302752e+00 1.560871e+00 2.154568e+00 1.742329e+00 1.839346e+00 8.694523e-01 8.251294e-01 9.723101e-01
<GCONST> 3.591744e+01
<STATE> 5
<MEAN> 12
 -2.857127e+02 9.448275e+00 3.462835e+00 6.401892e-01 7.394794e-01 1.601289e+00 2.225247e+00 2.005975e+00 1.256338e+00 6.341874e-01 6.428941e-01 9.360917e-01
<VARIANCE> 12
 8.149325e+01 2.310555e+01 7.373931e+00 2.719877e+00 2.895246e+00 2.261641e+00 2.439478e+00 2.009858e+00 1.641534e+00 9.096194e-01 1.253265e+00 7.715791e-01
<GCONST> 3.643000e+01
<TRANSP> 6
 0.000000e+00 1.000000e+00 0.000000e+00 0.000000e+00 0.000000e+00 0.000000e+00
 0.000000e+00 7.014925e-01 2.985075e-01 0.000000e+00 0.000000e+00 0.000000e+00
 0.000000e+00 0.000000e+00 6.825397e-01 3.174603e-01 0.000000e+00 0.000000e+00
 0.000000e+00 0.000000e+00 0.000000e+00 6.428571e-01 3.571429e-01 0.000000e+00
 0.000000e+00 0.000000e+00 0.000000e+00 0.000000e+00 6.551724e-01 3.448276e-01
 0.000000e+00 0.000000e+00 0.000000e+00 0.000000e+00 0.000000e+00 0.000000e+00
<ENDHMM>
