~o
<STREAMINFO> 1 15
<VECSIZE> 15<NULLD><USER><DIAGC>
~h "shaun"
<BEGINHMM>
<NUMSTATES> 6
<STATE> 2
<MEAN> 15
 -4.910486e+01 -7.660197e+00 -1.162634e+00 6.409777e-01 1.551577e+00 -2.895516e-01 -1.245399e+00 9.392996e-01 -8.928612e-01 1.016750e+00 3.982565e-01 1.910466e-01 -5.800413e-01 6.198682e-01 4.319262e-01
<VARIANCE> 15
 3.414217e+01 1.194924e+01 2.442692e+00 5.258596e-01 7.426358e-01 5.718477e-01 1.016447e+00 4.113566e-01 3.317817e-01 4.084192e-01 2.257252e-01 3.757446e-01 3.374724e-01 2.163768e-01 2.309213e-01
<GCONST> 2.355262e+01
<STATE> 3
<MEAN> 15
 -4.127299e+01 9.610590e+00 2.587712e+00 -9.392119e-01 -3.618895e+00 -3.079746e+00 -5.943959e-01 -2.943743e-01 -1.559522e+00 6.085762e-01 -1.599925e-01 4.671620e-01 8.780131e-02 -9.624675e-02 -6.513841e-01
<VARIANCE> 15
 6.630097e+00 1.806209e+00 3.442225e+00 7.513242e-01 1.972865e+00 1.071142e+00 1.162564e+00 1.563204e+00 4.778827e-01 8.587363e-01 4.591101e-01 9.266398e-01 2.217686e-01 6.333547e-01 2.731983e-01
<GCONST> 2.734104e+01
<STATE> 4
<MEAN> 15
 -4.825408e+01 7.139731e+00 4.031159e+00 3.462879e-01 -3.221205e+00 -2.979212e+00 4.933930e-01 8.355471e-01 1.446610e-01 9.951660e-01 5.659648e-02 -4.204296e-01 3.530189e-01 4.776167e-01 -6.372823e-01
<VARIANCE> 15
 6.386990e+00 2.165058e+00 5.001173e-01 3.123184e-01 9.076037e-01 9.150501e-01 3.887018e-01 2.387143e-01 4.319511e-01 1.399554e-01 1.381976e-01 2.029061e-01 1.920421e-01 2.969015e-01 1.361874e-01
<GCONST> 1.453699e+01
<STATE> 5
<MEAN> 15
 -5.597839e+01 1.175922e+00 2.666545e+00 1.839069e+00 5.874531e-01 1.716145e-01 -8.068201e-02 1.372564e-01 2.067173e-02 3.326898e-01 2.216520e-01 4.072996e-01 2.376447e-01 2.454818e-01 -4.487206e-02
<VARIANCE> 15
 3.253372e+00 3.966611e+00 1.410775e+00 4.784602e-01 4.962100e-01 2.155479e-01 2.075105e-01 1.435469e-01 1.698185e-01 1.937046e-01 2.381382e-01 1.938026e-01 1.801921e-01 1.539022e-01 1.337426e-01
<GCONST> 1.189645e+01
<TRANSP> 6
 0.000000e+00 1.000000e+00 0.000000e+00 0.000000e+00 0.000000e+00 0.000000e+00
 0.000000e+00 7.014925e-01 2.985075e-01 0.000000e+00 0.000000e+00 0.000000e+00
 0.000000e+00 0.000000e+00 6.825397e-01 3.174603e-01 0.000000e+00 0.000000e+00
 0.000000e+00 0.000000e+00 0.000000e+00 6.363636e-01 3.636364e-01 0.000000e+00
 0.000000e+00 0.000000e+00 0.000000e+00 0.000000e+00 6.610169e-01 3.389831e-01
 0.000000e+00 0.000000e+00 0.000000e+00 0.000000e+00 0.000000e+00 0.000000e+00
<ENDHMM>
