~o
<STREAMINFO> 1 12
<VECSIZE> 12<NULLD><USER><DIAGC>
~h "sil"
<BEGINHMM>
<NUMSTATES> 6
<STATE> 2
<MEAN> 12
 -3.015736e+02 1.045810e+00 4.431763e-01 9.285891e-01 4.265971e-01 3.850114e-01 3.985347e-01 4.466705e-01 4.148060e-01 -2.088889e-01 -6.061355e-02 1.563578e-01
<VARIANCE> 12
 5.380839e+02 1.746333e+01 1.292113e+01 3.976539e+00 4.295394e+00 4.168753e+00 2.692200e+00 2.391510e+00 1.957321e+00 1.271950e+00 1.291556e+00 1.253324e+00
<GCONST> 4.128314e+01
<STATE> 3
<MEAN> 12
 -3.076310e+02 -3.227044e+00 -4.891827e-01 -1.403608e-01 -6.234943e-02 -3.805520e-01 -2.554642e-01 -3.699347e-01 -1.327756e-01 -2.489890e-01 -4.218809e-02 1.203717e-02
<VARIANCE> 12
 1.124475e+02 3.066417e+00 2.841716e+00 2.342190e+00 2.166583e+00 2.127629e+00 1.751412e+00 1.601609e+00 1.497254e+00 1.279988e+00 1.204384e+00 1.012491e+00
<GCONST> 3.320147e+01
<STATE> 4
<MEAN> 12
 -3.263157e+02 -2.664623e+00 2.565968e-02 1.179937e-01 2.399719e-01 -1.757387e-01 -9.951871e-02 -2.212990e-01 -3.518154e-02 -2.061246e-01 -5.384926e-02 -9.926705e-02
<VARIANCE> 12
 6.758631e+01 3.200672e+00 2.688552e+00 2.239348e+00 2.084793e+00 1.991650e+00 1.827561e+00 1.651197e+00 1.441433e+00 1.275717e+00 1.204893e+00 1.095675e+00
<GCONST> 3.264150e+01
<STATE> 5
<MEAN> 12
 -2.784471e+02 -1.868945e+00 -2.671457e-01 -2.442792e-01 -1.650604e-02 9.714059e-03 -1.850404e-01 2.201298e-02 7.652014e-02 -3.451024e-02 -3.570168e-02 -5.220698e-02
<VARIANCE> 12
 2.706408e+02 2.109825e+01 7.038574e+00 4.645408e+00 4.021819e+00 2.434438e+00 2.554187e+00 1.915988e+00 1.786661e+00 1.311226e+00 1.269039e+00 1.219159e+00
<GCONST> 3.934895e+01
<TRANSP> 6
 0.000000e+00 1.000000e+00 0.000000e+00 0.000000e+00 0.000000e+00 0.000000e+00
 0.000000e+00 1.996233e-01 8.003767e-01 0.000000e+00 0.000000e+00 0.000000e+00
 0.000000e+00 0.000000e+00 7.608328e-01 2.391671e-01 0.000000e+00 0.000000e+00
 0.000000e+00 0.000000e+00 0.000000e+00 9.009555e-01 9.904450e-02 0.000000e+00
 0.000000e+00 0.000000e+00 0.000000e+00 0.000000e+00 7.462686e-01 2.537313e-01
 0.000000e+00 0.000000e+00 0.000000e+00 0.000000e+00 0.000000e+00 0.000000e+00
<ENDHMM>
