~o
<STREAMINFO> 1 12
<VECSIZE> 12<NULLD><USER><DIAGC>
~h "sil"
<BEGINHMM>
<NUMSTATES> 6
<STATE> 2
<MEAN> 12
 -3.007249e+02 -1.607311e+00 -3.415527e-01 6.016837e-01 1.827257e-01 -2.713355e-02 1.604629e-01 1.097180e-01 1.428043e-01 -1.593453e-01 6.852903e-02 1.615246e-01
<VARIANCE> 12
 4.727946e+02 6.911252e+00 7.224167e+00 3.732916e+00 3.369545e+00 3.227553e+00 2.228583e+00 2.219190e+00 2.043900e+00 1.326969e+00 1.451219e+00 1.260925e+00
<GCONST> 3.902797e+01
<STATE> 3
<MEAN> 12
 -3.133466e+02 -3.123265e+00 -3.521016e-01 -9.278764e-02 1.287130e-02 -2.825836e-01 -1.443301e-01 -2.688514e-01 -2.741346e-02 -1.358205e-01 6.659401e-02 1.285444e-01
<VARIANCE> 12
 3.528013e+01 3.606321e+00 3.333361e+00 2.798076e+00 2.599839e+00 2.381775e+00 1.982368e+00 1.932086e+00 1.663645e+00 1.436783e+00 1.255101e+00 1.156888e+00
<GCONST> 3.354400e+01
<STATE> 4
<MEAN> 12
 -3.337820e+02 -2.404239e+00 1.917139e-01 2.301447e-01 3.220841e-01 -6.855412e-02 1.714420e-02 -1.021724e-01 9.294575e-02 -5.349967e-02 1.226750e-01 7.916827e-02
<VARIANCE> 12
 2.582430e+01 3.908203e+00 3.210375e+00 2.737099e+00 2.477037e+00 2.314768e+00 2.088960e+00 1.878765e+00 1.599753e+00 1.405451e+00 1.284252e+00 1.182765e+00
<GCONST> 3.318410e+01
<STATE> 5
<MEAN> 12
 -2.830031e+02 -1.943353e+00 -3.294377e-02 -6.258186e-02 1.357272e-01 4.359714e-02 -3.330023e-02 6.430081e-02 1.799474e-01 4.664318e-02 9.551105e-02 1.141540e-01
<VARIANCE> 12
 1.133221e+02 1.829920e+01 5.785953e+00 3.904692e+00 3.570957e+00 2.530670e+00 2.575883e+00 2.062237e+00 1.746588e+00 1.392792e+00 1.255671e+00 1.191653e+00
<GCONST> 3.797252e+01
<TRANSP> 6
 0.000000e+00 1.000000e+00 0.000000e+00 0.000000e+00 0.000000e+00 0.000000e+00
 0.000000e+00 5.563675e-01 4.436326e-01 0.000000e+00 0.000000e+00 0.000000e+00
 0.000000e+00 0.000000e+00 9.285834e-01 7.141658e-02 0.000000e+00 0.000000e+00
 0.000000e+00 0.000000e+00 0.000000e+00 9.736826e-01 2.631742e-02 0.000000e+00
 0.000000e+00 0.000000e+00 0.000000e+00 0.000000e+00 9.250177e-01 7.498235e-02
 0.000000e+00 0.000000e+00 0.000000e+00 0.000000e+00 0.000000e+00 0.000000e+00
<ENDHMM>
