~o
<STREAMINFO> 1 15
<VECSIZE> 15<NULLD><USER><DIAGC>
~h "sil"
<BEGINHMM>
<NUMSTATES> 6
<STATE> 2
<MEAN> 15
 -5.938995e+01 -2.541101e+00 6.422359e-01 9.740215e-01 2.228906e-01 4.811481e-01 2.960905e-01 1.181860e-01 2.433702e-01 2.883183e-01 1.968967e-01 3.465450e-01 1.597703e-02 1.248033e-01 5.697719e-02
<VARIANCE> 15
 1.977159e+01 4.546421e+00 1.140594e+00 8.667166e-01 8.495885e-01 4.903840e-01 3.020895e-01 3.736377e-01 3.771043e-01 2.348261e-01 2.285656e-01 1.838549e-01 2.000647e-01 1.898925e-01 1.462017e-01
<GCONST> 1.821132e+01
<STATE> 3
<MEAN> 15
 -5.778710e+01 -3.734215e+00 -4.506929e-01 2.914904e-01 2.716497e-01 4.634247e-01 2.729572e-01 3.995735e-01 2.439942e-01 2.805380e-01 1.397291e-01 2.615308e-01 1.207405e-01 1.883648e-01 9.474138e-02
<VARIANCE> 15
 1.189375e+01 2.946518e-01 2.196576e-01 2.084145e-01 1.914524e-01 1.730761e-01 1.661696e-01 1.587632e-01 1.558590e-01 1.538059e-01 1.468545e-01 1.314885e-01 1.302027e-01 1.227896e-01 1.087655e-01
<GCONST> 4.663545e+00
<STATE> 4
<MEAN> 15
 -6.398991e+01 -3.940218e+00 -3.043710e-01 3.182468e-01 3.818747e-01 5.145817e-01 3.307484e-01 4.515159e-01 2.875716e-01 2.958567e-01 1.458777e-01 2.590212e-01 1.225513e-01 1.806015e-01 7.650960e-02
<VARIANCE> 15
 2.708988e+00 3.119107e-01 2.311575e-01 2.013323e-01 1.909580e-01 1.683988e-01 1.611090e-01 1.597410e-01 1.528898e-01 1.496805e-01 1.451412e-01 1.388087e-01 1.287546e-01 1.227942e-01 1.116273e-01
<GCONST> 3.213557e+00
<STATE> 5
<MEAN> 15
 -5.579059e+01 -1.799355e+00 4.958498e-01 1.349640e-01 -1.440628e-01 -2.691115e-01 -2.749070e-02 2.614447e-01 6.036000e-02 4.830037e-01 2.330585e-02 1.135652e-01 -1.933514e-01 2.538490e-01 -6.915388e-02
<VARIANCE> 15
 3.643091e+01 1.868773e+01 3.501311e+00 2.643505e+00 1.497124e+00 1.672078e+00 7.542164e-01 7.778714e-01 5.249608e-01 5.260301e-01 4.090938e-01 2.650411e-01 3.852415e-01 3.788088e-01 2.149888e-01
<GCONST> 2.973074e+01
<TRANSP> 6
 0.000000e+00 1.000000e+00 0.000000e+00 0.000000e+00 0.000000e+00 0.000000e+00
 0.000000e+00 1.795367e-01 8.204633e-01 0.000000e+00 0.000000e+00 0.000000e+00
 0.000000e+00 0.000000e+00 8.594577e-01 1.405423e-01 0.000000e+00 0.000000e+00
 0.000000e+00 0.000000e+00 0.000000e+00 9.009324e-01 9.906760e-02 0.000000e+00
 0.000000e+00 0.000000e+00 0.000000e+00 0.000000e+00 3.846154e-02 9.615384e-01
 0.000000e+00 0.000000e+00 0.000000e+00 0.000000e+00 0.000000e+00 0.000000e+00
<ENDHMM>
