~o
<STREAMINFO> 1 15
<VECSIZE> 15<NULLD><USER><DIAGC>
~h "travis"
<BEGINHMM>
<NUMSTATES> 6
<STATE> 2
<MEAN> 15
 -5.010006e+01 -6.541328e+00 -4.135330e-01 -1.386275e+00 1.282297e+00 -8.399065e-01 -8.428677e-01 3.984357e-01 -8.089923e-02 1.225623e+00 3.506010e-01 3.885669e-01 -7.354939e-02 7.336230e-01 -8.839916e-02
<VARIANCE> 15
 2.563511e+01 1.102579e+01 1.652448e+00 1.255360e+00 1.142956e+00 9.040821e-01 8.714533e-01 4.402185e-01 4.388160e-01 7.369775e-01 4.189102e-01 2.803051e-01 2.008957e-01 2.197749e-01 1.597294e-01
<GCONST> 2.479150e+01
<STATE> 3
<MEAN> 15
 -3.698932e+01 8.942296e+00 -2.602942e+00 -3.702651e+00 -2.627519e+00 -9.357705e-01 9.016193e-02 -2.591201e-01 1.737078e-02 1.155981e+00 -1.039917e+00 -3.905472e-01 -1.045958e+00 -9.064575e-01 -6.813519e-01
<VARIANCE> 15
 1.158513e+01 4.006708e+00 4.145885e+00 1.040583e+00 1.007546e+00 6.744168e-01 6.672928e-01 1.017685e+00 5.213882e-01 1.472609e+00 8.319308e-01 6.256587e-01 6.590434e-01 4.283401e-01 3.023535e-01
<GCONST> 2.871622e+01
<STATE> 4
<MEAN> 15
 -4.819992e+01 4.055530e+00 1.478327e+00 -3.754039e-02 -4.953164e-01 -1.375570e+00 -9.090061e-01 -1.524556e-01 1.201580e+00 7.823175e-01 5.267041e-01 3.395530e-01 -5.157270e-01 5.386191e-02 -1.516799e-01
<VARIANCE> 15
 1.352816e+01 8.499580e+00 1.063052e+00 1.244668e+00 6.247590e-01 9.288688e-01 1.064540e+00 3.026660e-01 4.815575e-01 4.057238e-01 1.914280e-01 1.720625e-01 3.084809e-01 4.204419e-01 1.524687e-01
<GCONST> 2.194690e+01
<STATE> 5
<MEAN> 15
 -5.443012e+01 -9.276196e+00 1.737239e+00 4.023487e-01 -1.463807e+00 1.215142e+00 -4.475403e-05 -7.488927e-01 1.301576e+00 -3.767391e-01 1.862048e-01 5.150166e-01 -2.242831e-01 4.836991e-01 7.676991e-02
<VARIANCE> 15
 5.030565e+00 5.583959e+00 1.357845e+00 3.946492e-01 4.223996e-01 3.517376e-01 4.683036e-01 2.519281e-01 2.013970e-01 2.432674e-01 2.086868e-01 1.562894e-01 1.818956e-01 1.442521e-01 1.515941e-01
<GCONST> 1.426970e+01
<TRANSP> 6
 0.000000e+00 1.000000e+00 0.000000e+00 0.000000e+00 0.000000e+00 0.000000e+00
 0.000000e+00 5.652174e-01 4.347826e-01 0.000000e+00 0.000000e+00 0.000000e+00
 0.000000e+00 0.000000e+00 7.058824e-01 2.941177e-01 0.000000e+00 0.000000e+00
 0.000000e+00 0.000000e+00 0.000000e+00 7.222222e-01 2.777778e-01 0.000000e+00
 0.000000e+00 0.000000e+00 0.000000e+00 0.000000e+00 8.130841e-01 1.869159e-01
 0.000000e+00 0.000000e+00 0.000000e+00 0.000000e+00 0.000000e+00 0.000000e+00
<ENDHMM>
