~o
<STREAMINFO> 1 12
<VECSIZE> 12<NULLD><USER><DIAGC>
~h "travis"
<BEGINHMM>
<NUMSTATES> 6
<STATE> 2
<MEAN> 12
 -2.223022e+02 -5.979697e+00 -3.167149e+00 -3.962897e+00 -2.862261e+00 -1.514837e+00 -2.797151e+00 -1.893362e+00 -1.193340e+00 -2.726406e-01 -1.384774e+00 -3.479303e-02
<VARIANCE> 12
 1.921458e+03 4.661949e+01 4.695095e+01 2.258867e+01 1.015268e+01 9.101184e+00 5.589295e+00 6.077960e+00 5.615606e+00 2.248625e+00 4.206034e+00 3.193242e+00
<GCONST> 5.360902e+01
<STATE> 3
<MEAN> 12
 -2.154329e+02 3.094147e+00 -5.044474e+00 2.307060e+00 1.320904e+00 3.581689e+00 2.435853e+00 -4.963659e-01 2.462737e+00 1.509336e+00 8.401648e-01 3.614290e-01
<VARIANCE> 12
 6.727126e+02 4.064476e+01 1.881526e+01 6.695925e+00 2.105364e+00 4.013604e+00 4.553561e+00 1.421581e+00 3.672904e+00 1.867409e+00 1.760476e+00 1.188821e+00
<GCONST> 4.377283e+01
<STATE> 4
<MEAN> 12
 -2.454439e+02 5.697453e+00 5.422543e-01 -4.804563e+00 3.815210e+00 2.647580e+00 -4.710174e-02 2.041232e+00 -1.040961e+00 1.525554e+00 1.814608e-01 1.491386e+00
<VARIANCE> 12
 4.475445e+02 9.942113e+00 7.938325e+00 5.498448e+00 2.613415e+00 3.865447e+00 2.125909e+00 2.098164e+00 2.371908e+00 3.050990e+00 1.415255e+00 1.950119e+00
<GCONST> 4.103361e+01
<STATE> 5
<MEAN> 12
 -2.774453e+02 2.642456e+00 -8.282576e+00 -8.852484e-01 1.480858e+00 -3.236896e+00 -3.161775e+00 -1.182315e+00 -1.568992e+00 -2.115354e+00 -1.759923e+00 -1.580379e+00
<VARIANCE> 12
 1.312019e+02 1.263669e+01 6.581754e+00 7.225242e+00 2.514567e+00 2.776280e+00 3.033886e+00 2.078332e+00 2.418968e+00 2.018647e+00 1.747054e+00 1.781132e+00
<GCONST> 3.983532e+01
<TRANSP> 6
 0.000000e+00 1.000000e+00 0.000000e+00 0.000000e+00 0.000000e+00 0.000000e+00
 0.000000e+00 7.560976e-01 2.439025e-01 0.000000e+00 0.000000e+00 0.000000e+00
 0.000000e+00 0.000000e+00 5.833333e-01 4.166667e-01 0.000000e+00 0.000000e+00
 0.000000e+00 0.000000e+00 0.000000e+00 6.491228e-01 3.508772e-01 0.000000e+00
 0.000000e+00 0.000000e+00 0.000000e+00 0.000000e+00 8.113208e-01 1.886792e-01
 0.000000e+00 0.000000e+00 0.000000e+00 0.000000e+00 0.000000e+00 0.000000e+00
<ENDHMM>
