~o
<STREAMINFO> 1 12
<VECSIZE> 12<NULLD><USER><DIAGC>
~h "travis"
<BEGINHMM>
<NUMSTATES> 6
<STATE> 2
<MEAN> 12
 -2.179684e+02 -4.791854e+00 -2.723946e+00 -3.428866e+00 -2.420198e+00 -1.166614e+00 -2.722717e+00 -1.719532e+00 -9.061133e-01 1.189485e-02 -9.775013e-01 2.217058e-01
<VARIANCE> 12
 1.363217e+03 4.503359e+01 4.522052e+01 2.605582e+01 1.139158e+01 6.866772e+00 5.077315e+00 3.749544e+00 6.084271e+00 2.158322e+00 4.045710e+00 3.349921e+00
<GCONST> 5.263894e+01
<STATE> 3
<MEAN> 12
 -2.226604e+02 3.344532e+00 -5.574813e+00 2.295245e+00 1.364025e+00 3.994560e+00 2.666685e+00 -1.833345e-01 2.750588e+00 1.758019e+00 1.080887e+00 6.129190e-01
<VARIANCE> 12
 6.748779e+02 3.926846e+01 1.612610e+01 5.956579e+00 2.615162e+00 2.788070e+00 3.169398e+00 1.922587e+00 2.673424e+00 1.884376e+00 1.874827e+00 1.537555e+00
<GCONST> 4.327397e+01
<STATE> 4
<MEAN> 12
 -2.535440e+02 5.803814e+00 6.934706e-01 -4.447058e+00 3.687277e+00 2.553903e+00 -7.154402e-04 1.857717e+00 -8.537180e-01 1.578107e+00 3.716658e-03 1.370944e+00
<VARIANCE> 12
 4.828373e+02 1.149033e+01 9.568232e+00 6.803720e+00 2.753371e+00 3.649575e+00 1.977748e+00 2.442773e+00 2.877537e+00 2.327286e+00 1.195064e+00 1.921736e+00
<GCONST> 4.146722e+01
<STATE> 5
<MEAN> 12
 -2.832917e+02 2.697238e+00 -7.979431e+00 -7.369093e-01 1.420842e+00 -3.081374e+00 -3.001162e+00 -1.107581e+00 -1.474852e+00 -2.100300e+00 -1.777338e+00 -1.446769e+00
<VARIANCE> 12
 1.461481e+02 1.492028e+01 7.035603e+00 7.095480e+00 3.065038e+00 3.199229e+00 3.099740e+00 2.370315e+00 2.671510e+00 2.125853e+00 2.056610e+00 1.749713e+00
<GCONST> 4.094695e+01
<TRANSP> 6
 0.000000e+00 1.000000e+00 0.000000e+00 0.000000e+00 0.000000e+00 0.000000e+00
 0.000000e+00 9.233717e-01 7.662836e-02 0.000000e+00 0.000000e+00 0.000000e+00
 0.000000e+00 0.000000e+00 8.795181e-01 1.204819e-01 0.000000e+00 0.000000e+00
 0.000000e+00 0.000000e+00 0.000000e+00 9.019608e-01 9.803922e-02 0.000000e+00
 0.000000e+00 0.000000e+00 0.000000e+00 0.000000e+00 9.473684e-01 5.263158e-02
 0.000000e+00 0.000000e+00 0.000000e+00 0.000000e+00 0.000000e+00 0.000000e+00
<ENDHMM>
