~o
<STREAMINFO> 1 12
<VECSIZE> 12<NULLD><USER><DIAGC>
~h "vincent"
<BEGINHMM>
<NUMSTATES> 6
<STATE> 2
<MEAN> 12
 -2.272617e+02 1.469851e+01 -1.399153e-01 -2.394813e+00 -5.194190e-01 8.250651e-01 -1.208101e+00 2.530990e+00 -6.501321e-01 9.317289e-02 -2.591506e-01 8.821627e-02
<VARIANCE> 12
 7.648198e+02 6.408758e+01 1.451444e+01 6.574228e+00 6.131828e+00 8.475528e+00 3.621099e+00 6.517299e+00 7.636044e+00 3.199445e+00 2.651067e+00 2.023018e+00
<GCONST> 4.940004e+01
<STATE> 3
<MEAN> 12
 -2.346609e+02 1.732554e+01 -8.315734e+00 -3.575792e+00 -6.960571e-01 -1.176998e+00 -3.669536e+00 -8.960124e-01 -2.380899e+00 -2.640165e+00 -2.608178e+00 -2.495085e+00
<VARIANCE> 12
 2.851227e+02 4.888014e+01 7.375383e+00 7.248774e+00 4.083490e+00 7.849176e+00 3.755163e+00 4.432120e+00 2.965465e+00 2.385127e+00 2.869718e+00 1.509789e+00
<GCONST> 4.527763e+01
<STATE> 4
<MEAN> 12
 -2.564778e+02 1.324668e+01 -1.129410e+00 -3.039273e-02 -1.029421e+00 3.331957e+00 -6.625752e-01 1.582345e+00 -2.205836e-01 5.185972e-01 1.241812e+00 5.435668e-01
<VARIANCE> 12
 1.250825e+02 7.156755e+00 8.741694e+00 3.268497e+00 1.103899e+00 1.330178e+00 1.853974e+00 2.393337e+00 2.151406e+00 4.560232e-01 1.048303e+00 2.057137e+00
<GCONST> 3.482756e+01
<STATE> 5
<MEAN> 12
 -2.813112e+02 8.299807e+00 1.717394e+00 4.036796e-01 -4.306084e-01 9.834211e-01 -4.026566e-01 -6.483476e-01 3.914441e-01 -4.472773e-01 6.293824e-01 6.843463e-01
<VARIANCE> 12
 1.456365e+02 3.427889e+01 1.006552e+01 2.828042e+00 3.652655e+00 4.048966e+00 1.726170e+00 2.073541e+00 2.394835e+00 7.849105e-01 2.153769e+00 1.876513e+00
<GCONST> 3.991571e+01
<TRANSP> 6
 0.000000e+00 1.000000e+00 0.000000e+00 0.000000e+00 0.000000e+00 0.000000e+00
 0.000000e+00 7.297298e-01 2.702703e-01 0.000000e+00 0.000000e+00 0.000000e+00
 0.000000e+00 0.000000e+00 6.551724e-01 3.448276e-01 0.000000e+00 0.000000e+00
 0.000000e+00 0.000000e+00 0.000000e+00 1.666667e-01 8.333333e-01 0.000000e+00
 0.000000e+00 0.000000e+00 0.000000e+00 0.000000e+00 6.226415e-01 3.773585e-01
 0.000000e+00 0.000000e+00 0.000000e+00 0.000000e+00 0.000000e+00 0.000000e+00
<ENDHMM>
