~o
<STREAMINFO> 1 15
<VECSIZE> 15<NULLD><USER><DIAGC>
~h "vincent"
<BEGINHMM>
<NUMSTATES> 6
<STATE> 2
<MEAN> 15
 -4.415051e+01 6.171896e+00 3.445735e+00 1.793629e+00 -1.336060e+00 -2.101298e+00 -1.296172e+00 -1.267217e+00 -1.884910e-01 3.707150e-01 -4.694364e-01 -3.628340e-01 -1.045086e+00 1.109746e-01 -2.784171e-01
<VARIANCE> 15
 2.982350e+01 8.578286e+00 4.574020e+00 9.088935e-01 1.536232e+00 1.666271e+00 8.418086e-01 1.277444e+00 4.167349e-01 5.333579e-01 7.525558e-01 4.898952e-01 3.962619e-01 4.099387e-01 2.940323e-01
<GCONST> 3.000693e+01
<STATE> 3
<MEAN> 15
 -4.677324e+01 -6.572136e+00 5.730649e+00 1.006693e+00 -1.879524e+00 7.742015e-01 -8.870802e-01 -1.168127e+00 7.274974e-01 -2.779157e-02 4.781625e-01 1.987616e-01 -3.393309e-01 4.310055e-01 -1.156553e-01
<VARIANCE> 15
 6.857531e+00 2.039903e+01 3.023524e+00 9.844542e-01 4.058162e-01 4.272442e-01 4.801241e-01 3.635523e-01 2.328266e-01 2.905284e-01 2.132811e-01 2.530974e-01 1.931406e-01 2.394776e-01 2.033243e-01
<GCONST> 1.982272e+01
<STATE> 4
<MEAN> 15
 -5.187075e+01 3.730050e+00 3.324721e+00 1.715022e+00 -4.062257e-01 -4.564382e-01 -5.243216e-01 -8.754281e-01 -3.391381e-01 3.843707e-01 5.094777e-01 1.163131e-01 -1.025336e+00 -4.291604e-01 -4.075165e-02
<VARIANCE> 15
 5.280449e+00 1.347057e+00 3.431684e-01 2.091691e-01 7.222511e-01 2.147586e-01 1.532868e-01 4.024082e-01 2.417271e-01 3.767013e-01 1.183208e-01 1.448042e-01 1.503608e-01 2.175105e-01 8.119447e-02
<GCONST> 9.852475e+00
<STATE> 5
<MEAN> 15
 -5.662317e+01 -1.175792e+00 1.559830e+00 1.374324e+00 1.335539e-01 2.955633e-01 2.657735e-02 -2.742597e-01 4.284779e-02 -9.555605e-03 -5.221746e-02 1.616841e-01 -2.873426e-01 -2.352462e-01 -1.632876e-01
<VARIANCE> 15
 3.924638e+00 6.483072e+00 1.822967e+00 4.592942e-01 7.640206e-01 1.369794e-01 2.379044e-01 4.358061e-01 4.220368e-01 2.223874e-01 1.754877e-01 2.196296e-01 2.110304e-01 3.610456e-01 1.355987e-01
<GCONST> 1.590893e+01
<TRANSP> 6
 0.000000e+00 1.000000e+00 0.000000e+00 0.000000e+00 0.000000e+00 0.000000e+00
 0.000000e+00 7.402598e-01 2.597403e-01 0.000000e+00 0.000000e+00 0.000000e+00
 0.000000e+00 0.000000e+00 6.491228e-01 3.508772e-01 0.000000e+00 0.000000e+00
 0.000000e+00 0.000000e+00 0.000000e+00 5.555556e-01 4.444444e-01 0.000000e+00
 0.000000e+00 0.000000e+00 0.000000e+00 0.000000e+00 3.333333e-01 6.666667e-01
 0.000000e+00 0.000000e+00 0.000000e+00 0.000000e+00 0.000000e+00 0.000000e+00
<ENDHMM>
