~o
<STREAMINFO> 1 12
<VECSIZE> 12<NULLD><USER><DIAGC>
~h "vincent"
<BEGINHMM>
<NUMSTATES> 6
<STATE> 2
<MEAN> 12
 -2.275130e+02 1.598685e+01 -2.346386e-01 -1.960951e+00 -2.030003e-01 1.239633e+00 -8.798941e-01 3.018395e+00 -3.007467e-01 2.683760e-01 1.162179e-01 2.041638e-01
<VARIANCE> 12
 4.911647e+02 5.542547e+01 1.119001e+01 6.185741e+00 6.420815e+00 7.210090e+00 4.008065e+00 5.298799e+00 6.729497e+00 2.284297e+00 2.276515e+00 1.914083e+00
<GCONST> 4.759887e+01
<STATE> 3
<MEAN> 12
 -2.438114e+02 1.610052e+01 -8.372433e+00 -3.043649e+00 -3.526380e-01 -1.698576e+00 -3.428502e+00 -1.106930e+00 -2.277461e+00 -2.523091e+00 -2.566638e+00 -2.278372e+00
<VARIANCE> 12
 2.629702e+02 3.790620e+01 7.108032e+00 4.755881e+00 4.371033e+00 5.669596e+00 2.896562e+00 3.575927e+00 2.616212e+00 2.364186e+00 2.432205e+00 2.048837e+00
<GCONST> 4.375839e+01
<STATE> 4
<MEAN> 12
 -2.538962e+02 1.324137e+01 -3.831521e+00 -3.750693e-01 -9.523547e-01 3.536150e+00 -5.621366e-01 2.637983e+00 -7.116390e-01 5.925061e-01 9.504737e-01 1.620735e-01
<VARIANCE> 12
 1.119627e+02 1.082038e+01 5.420630e+00 3.877192e+00 3.123351e+00 2.508570e+00 2.295893e+00 2.158054e+00 1.035399e+00 1.156804e+00 1.960158e+00 1.367183e+00
<GCONST> 3.702462e+01
<STATE> 5
<MEAN> 12
 -2.846108e+02 9.768279e+00 2.034419e+00 3.563038e-01 -4.294761e-01 1.629651e+00 -2.889190e-01 -1.814255e-01 6.334492e-01 -2.807355e-01 8.320486e-01 8.182151e-01
<VARIANCE> 12
 1.688412e+02 3.497111e+01 8.837579e+00 3.400269e+00 3.217458e+00 3.866236e+00 1.854279e+00 2.290852e+00 2.090499e+00 1.257638e+00 1.974310e+00 1.793095e+00
<GCONST> 4.033896e+01
<TRANSP> 6
 0.000000e+00 1.000000e+00 0.000000e+00 0.000000e+00 0.000000e+00 0.000000e+00
 0.000000e+00 9.186992e-01 8.130082e-02 0.000000e+00 0.000000e+00 0.000000e+00
 0.000000e+00 0.000000e+00 8.918919e-01 1.081081e-01 0.000000e+00 0.000000e+00
 0.000000e+00 0.000000e+00 0.000000e+00 6.296296e-01 3.703704e-01 0.000000e+00
 0.000000e+00 0.000000e+00 0.000000e+00 0.000000e+00 9.099099e-01 9.009008e-02
 0.000000e+00 0.000000e+00 0.000000e+00 0.000000e+00 0.000000e+00 0.000000e+00
<ENDHMM>
