~o
<STREAMINFO> 1 12
<VECSIZE> 12<NULLD><USER><DIAGC>
~h "vinny"
<BEGINHMM>
<NUMSTATES> 6
<STATE> 2
<MEAN> 12
 -2.549342e+02 1.641150e+01 6.114165e+00 -2.864286e-01 9.162858e-01 3.440708e+00 1.384918e+00 1.982986e+00 -7.596017e-01 1.401996e+00 -4.769457e-01 -9.255016e-02
<VARIANCE> 12
 4.484213e+02 1.586777e+01 4.133633e+00 8.248664e+00 2.567474e+00 4.695700e+00 4.186041e+00 3.808122e+00 3.497519e+00 1.790115e+00 1.406917e+00 1.637695e+00
<GCONST> 4.238123e+01
<STATE> 3
<MEAN> 12
 -1.942932e+02 4.202676e+00 1.396603e+00 -5.758996e+00 6.497529e-01 -2.881963e+00 1.696115e-01 2.191922e+00 -6.980118e-01 1.180399e-01 9.830083e-01 -9.475129e-01
<VARIANCE> 12
 3.938528e+02 3.133276e+01 1.669426e+01 6.995964e+00 6.369161e+00 6.983844e+00 1.026648e+01 4.598929e+00 4.140699e+00 6.173139e+00 5.209123e+00 2.917735e+00
<GCONST> 4.984763e+01
<STATE> 4
<MEAN> 12
 -2.466496e+02 9.681150e+00 3.342325e+00 -2.355188e+00 1.588087e+00 1.826763e+00 1.291312e+00 2.105481e+00 9.223192e-01 1.074938e+00 2.046317e+00 7.301310e-01
<VARIANCE> 12
 1.317510e+02 2.313647e+01 4.494334e+00 3.117140e+00 5.424338e+00 2.107631e+00 2.785068e+00 2.793196e+00 1.702672e+00 2.590337e+00 1.248004e+00 1.095356e+00
<GCONST> 3.900112e+01
<STATE> 5
<MEAN> 12
 -2.844187e+02 8.342112e+00 3.459971e+00 -1.434912e+00 -2.101817e+00 1.898599e+00 2.173107e+00 2.651922e+00 1.791110e+00 8.013560e-01 -3.449726e-01 5.240196e-02
<VARIANCE> 12
 1.751037e+02 1.687993e+01 4.053627e+00 2.676899e+00 2.119556e+00 3.381323e+00 2.894868e+00 2.605143e+00 1.828903e+00 1.461122e+00 9.071361e-01 7.322611e-01
<GCONST> 3.699404e+01
<TRANSP> 6
 0.000000e+00 1.000000e+00 0.000000e+00 0.000000e+00 0.000000e+00 0.000000e+00
 0.000000e+00 8.230088e-01 1.769911e-01 0.000000e+00 0.000000e+00 0.000000e+00
 0.000000e+00 0.000000e+00 8.780488e-01 1.219512e-01 0.000000e+00 0.000000e+00
 0.000000e+00 0.000000e+00 0.000000e+00 9.159664e-01 8.403361e-02 0.000000e+00
 0.000000e+00 0.000000e+00 0.000000e+00 0.000000e+00 8.742138e-01 1.257862e-01
 0.000000e+00 0.000000e+00 0.000000e+00 0.000000e+00 0.000000e+00 0.000000e+00
<ENDHMM>
