~o
<STREAMINFO> 1 12
<VECSIZE> 12<NULLD><USER><DIAGC>
~h "vinny"
<BEGINHMM>
<NUMSTATES> 6
<STATE> 2
<MEAN> 12
 -2.621866e+02 1.195323e+01 5.278201e+00 8.203812e-02 9.748156e-01 2.320315e+00 1.042894e+00 1.614430e+00 -5.646701e-01 1.103337e+00 -5.607393e-01 -1.480625e-01
<VARIANCE> 12
 8.715024e+02 5.166417e+01 8.603601e+00 8.622669e+00 2.452347e+00 7.580976e+00 3.913743e+00 4.791505e+00 2.883995e+00 2.214070e+00 1.389911e+00 1.170079e+00
<GCONST> 4.527043e+01
<STATE> 3
<MEAN> 12
 -1.915509e+02 4.021139e+00 8.324493e-01 -6.476553e+00 2.178707e-01 -3.238427e+00 -8.119044e-01 1.360748e+00 -1.730089e+00 -6.451222e-01 1.603286e-01 -1.816043e+00
<VARIANCE> 12
 4.533473e+02 3.523368e+01 1.913753e+01 7.918563e+00 7.427234e+00 9.279836e+00 1.169463e+01 7.813664e+00 6.398138e+00 7.456576e+00 7.604044e+00 4.838044e+00
<GCONST> 5.297234e+01
<STATE> 4
<MEAN> 12
 -2.392270e+02 9.197735e+00 3.530559e+00 -2.581434e+00 1.577483e+00 1.712580e+00 1.468317e+00 2.094005e+00 9.241689e-01 1.106513e+00 2.052010e+00 7.818128e-01
<VARIANCE> 12
 1.602645e+02 2.072242e+01 4.682876e+00 3.068250e+00 5.752367e+00 2.812480e+00 2.685774e+00 3.260408e+00 1.802568e+00 2.051184e+00 9.149463e-01 1.370260e+00
<GCONST> 3.931482e+01
<STATE> 5
<MEAN> 12
 -2.778584e+02 8.416255e+00 3.221360e+00 -1.376991e+00 -2.230693e+00 1.957465e+00 2.245676e+00 2.867095e+00 2.018682e+00 8.050618e-01 -2.320931e-01 2.967864e-01
<VARIANCE> 12
 1.542557e+02 1.259505e+01 2.851174e+00 2.339542e+00 1.451754e+00 2.797756e+00 3.153362e+00 1.770180e+00 1.541297e+00 1.829769e+00 6.941470e-01 7.811660e-01
<GCONST> 3.507005e+01
<TRANSP> 6
 0.000000e+00 1.000000e+00 0.000000e+00 0.000000e+00 0.000000e+00 0.000000e+00
 0.000000e+00 5.348837e-01 4.651163e-01 0.000000e+00 0.000000e+00 0.000000e+00
 0.000000e+00 0.000000e+00 5.833333e-01 4.166667e-01 0.000000e+00 0.000000e+00
 0.000000e+00 0.000000e+00 0.000000e+00 7.014925e-01 2.985075e-01 0.000000e+00
 0.000000e+00 0.000000e+00 0.000000e+00 0.000000e+00 5.348837e-01 4.651163e-01
 0.000000e+00 0.000000e+00 0.000000e+00 0.000000e+00 0.000000e+00 0.000000e+00
<ENDHMM>
