~o
<STREAMINFO> 1 15
<VECSIZE> 15<NULLD><USER><DIAGC>
~h "vinny"
<BEGINHMM>
<NUMSTATES> 6
<STATE> 2
<MEAN> 15
 -5.197872e+01 2.586152e+00 3.175095e+00 1.542377e+00 9.186760e-01 -4.870489e-01 -2.912180e-01 -5.073082e-01 2.340396e-01 2.759545e-01 3.465593e-01 -5.378672e-02 -1.234654e-01 -8.214501e-02 -4.188101e-02
<VARIANCE> 15
 2.828334e+01 1.197719e+01 3.238468e+00 7.923493e-01 4.778959e-01 1.319119e+00 7.818683e-01 6.228939e-01 1.676573e-01 3.385710e-01 4.789867e-01 2.431117e-01 1.227140e-01 1.485774e-01 1.741196e-01
<GCONST> 2.238321e+01
<STATE> 3
<MEAN> 15
 -3.862860e+01 6.668841e+00 8.107153e-01 1.976793e+00 -1.099271e+00 -3.702437e+00 -1.811439e+00 -1.405805e+00 6.905628e-01 6.570801e-01 -1.259540e+00 2.783751e-01 -6.152904e-01 2.778127e-01 -7.819724e-01
<VARIANCE> 15
 2.025726e+01 1.642642e+00 2.672993e+00 1.061832e+00 1.674344e+00 1.182036e+00 6.093879e-01 7.951568e-01 5.797340e-01 5.222415e-01 5.567141e-01 5.843069e-01 8.914156e-01 3.590134e-01 5.452315e-01
<GCONST> 2.801058e+01
<STATE> 4
<MEAN> 15
 -4.753010e+01 4.707052e+00 2.265095e+00 3.925085e+00 -5.237661e-01 -3.394837e+00 -5.716201e-01 1.651282e-01 1.210601e-01 4.401128e-01 1.906715e-01 4.041736e-01 -5.269563e-01 -1.118728e-01 -7.974013e-02
<VARIANCE> 15
 5.632919e+00 3.890581e+00 1.226512e+00 1.675855e+00 3.540768e-01 7.588205e-01 2.252657e-01 2.419410e-01 4.518843e-01 2.353830e-01 2.934153e-01 1.630920e-01 1.869384e-01 2.232633e-01 1.177258e-01
<GCONST> 1.655582e+01
<STATE> 5
<MEAN> 15
 -5.460353e+01 9.641480e-01 2.368665e+00 2.778406e+00 1.407032e-01 -1.441203e+00 -4.533261e-01 -4.136892e-01 -4.837924e-01 4.657044e-01 6.305825e-01 7.006248e-01 4.959832e-01 6.004457e-01 3.281495e-01
<VARIANCE> 15
 5.884538e+00 2.671436e+00 7.819867e-01 1.108922e+00 2.565852e-01 1.074520e+00 2.271063e-01 1.997266e-01 1.120448e-01 1.778751e-01 1.587470e-01 1.391572e-01 1.948801e-01 1.204232e-01 1.002612e-01
<GCONST> 1.201880e+01
<TRANSP> 6
 0.000000e+00 1.000000e+00 0.000000e+00 0.000000e+00 0.000000e+00 0.000000e+00
 0.000000e+00 5.121951e-01 4.878049e-01 0.000000e+00 0.000000e+00 0.000000e+00
 0.000000e+00 0.000000e+00 6.610169e-01 3.389831e-01 0.000000e+00 0.000000e+00
 0.000000e+00 0.000000e+00 0.000000e+00 6.666667e-01 3.333333e-01 0.000000e+00
 0.000000e+00 0.000000e+00 0.000000e+00 0.000000e+00 5.121951e-01 4.878049e-01
 0.000000e+00 0.000000e+00 0.000000e+00 0.000000e+00 0.000000e+00 0.000000e+00
<ENDHMM>
